digraph Tree {
node [shape=box] ;
0 [label="token_is_punctuation <= 0.5\ngini = 0.269\nsamples = 22317\nvalue = [18735, 3582]"] ;
1 [label="L_vsm_d6 <= -0.265\ngini = 0.064\nsamples = 18939\nvalue = [18315, 624]"] ;
0 -> 1 [labeldistance=2.5, labelangle=45, headlabel="True"] ;
2 [label="R_vsm_d4 <= -0.065\ngini = 0.423\nsamples = 89\nvalue = [62, 27]"] ;
1 -> 2 ;
3 [label="gini = 0.0\nsamples = 13\nvalue = [13, 0]"] ;
2 -> 3 ;
4 [label="R_vsm_d9 <= -0.014\ngini = 0.458\nsamples = 76\nvalue = [49, 27]"] ;
2 -> 4 ;
5 [label="gini = 0.42\nsamples = 10\nvalue = [3, 7]"] ;
4 -> 5 ;
6 [label="till_end_utterance_in_words <= 8.5\ngini = 0.422\nsamples = 66\nvalue = [46, 20]"] ;
4 -> 6 ;
7 [label="R_vsm_d8 <= 0.001\ngini = 0.313\nsamples = 36\nvalue = [29, 7]"] ;
6 -> 7 ;
8 [label="gini = 0.48\nsamples = 15\nvalue = [9, 6]"] ;
7 -> 8 ;
9 [label="L_vsm_d10 <= -0.007\ngini = 0.091\nsamples = 21\nvalue = [20, 1]"] ;
7 -> 9 ;
10 [label="gini = 0.0\nsamples = 11\nvalue = [11, 0]"] ;
9 -> 10 ;
11 [label="gini = 0.18\nsamples = 10\nvalue = [9, 1]"] ;
9 -> 11 ;
12 [label="L_vsm_d5 <= 0.344\ngini = 0.491\nsamples = 30\nvalue = [17, 13]"] ;
6 -> 12 ;
13 [label="gini = 0.337\nsamples = 14\nvalue = [11, 3]"] ;
12 -> 13 ;
14 [label="gini = 0.469\nsamples = 16\nvalue = [6, 10]"] ;
12 -> 14 ;
15 [label="R_vsm_d6 <= -0.002\ngini = 0.061\nsamples = 18850\nvalue = [18253, 597]"] ;
1 -> 15 ;
16 [label="L_vsm_d7 <= 0.092\ngini = 0.032\nsamples = 7493\nvalue = [7371, 122]"] ;
15 -> 16 ;
17 [label="R_vsm_d4 <= 0.157\ngini = 0.028\nsamples = 7356\nvalue = [7251, 105]"] ;
16 -> 17 ;
18 [label="L_vsm_d4 <= -0.283\ngini = 0.022\nsamples = 6667\nvalue = [6593, 74]"] ;
17 -> 18 ;
19 [label="L_vsm_d5 <= -0.002\ngini = 0.245\nsamples = 28\nvalue = [24, 4]"] ;
18 -> 19 ;
20 [label="gini = 0.463\nsamples = 11\nvalue = [7, 4]"] ;
19 -> 20 ;
21 [label="gini = 0.0\nsamples = 17\nvalue = [17, 0]"] ;
19 -> 21 ;
22 [label="R_vsm_d10 <= 0.102\ngini = 0.021\nsamples = 6639\nvalue = [6569, 70]"] ;
18 -> 22 ;
23 [label="R_vsm_d5 <= -0.022\ngini = 0.019\nsamples = 6545\nvalue = [6481, 64]"] ;
22 -> 23 ;
24 [label="R_vsm_d5 <= -0.024\ngini = 0.032\nsamples = 2439\nvalue = [2399, 40]"] ;
23 -> 24 ;
25 [label="L_vsm_d10 <= -0.085\ngini = 0.026\nsamples = 2268\nvalue = [2238, 30]"] ;
24 -> 25 ;
26 [label="till_end_utterance_in_words <= 4.0\ngini = 0.219\nsamples = 24\nvalue = [21, 3]"] ;
25 -> 26 ;
27 [label="gini = 0.0\nsamples = 14\nvalue = [14, 0]"] ;
26 -> 27 ;
28 [label="gini = 0.42\nsamples = 10\nvalue = [7, 3]"] ;
26 -> 28 ;
29 [label="L_vsm_d1 <= 0.006\ngini = 0.024\nsamples = 2244\nvalue = [2217, 27]"] ;
25 -> 29 ;
30 [label="R_vsm_d2 <= -0.138\ngini = 0.133\nsamples = 42\nvalue = [39, 3]"] ;
29 -> 30 ;
31 [label="gini = 0.397\nsamples = 11\nvalue = [8, 3]"] ;
30 -> 31 ;
32 [label="gini = 0.0\nsamples = 31\nvalue = [31, 0]"] ;
30 -> 32 ;
33 [label="L_vsm_d3 <= 0.365\ngini = 0.022\nsamples = 2202\nvalue = [2178, 24]"] ;
29 -> 33 ;
34 [label="L_vsm_d7 <= -0.05\ngini = 0.02\nsamples = 2171\nvalue = [2149, 22]"] ;
33 -> 34 ;
35 [label="R_vsm_d4 <= 0.054\ngini = 0.074\nsamples = 104\nvalue = [100, 4]"] ;
34 -> 35 ;
36 [label="R_vsm_d7 <= 0.021\ngini = 0.025\nsamples = 78\nvalue = [77, 1]"] ;
35 -> 36 ;
37 [label="gini = 0.0\nsamples = 66\nvalue = [66, 0]"] ;
36 -> 37 ;
38 [label="gini = 0.153\nsamples = 12\nvalue = [11, 1]"] ;
36 -> 38 ;
39 [label="L_vsm_d9 <= 0.001\ngini = 0.204\nsamples = 26\nvalue = [23, 3]"] ;
35 -> 39 ;
40 [label="gini = 0.0\nsamples = 16\nvalue = [16, 0]"] ;
39 -> 40 ;
41 [label="gini = 0.42\nsamples = 10\nvalue = [7, 3]"] ;
39 -> 41 ;
42 [label="till_end_utterance_in_words <= 7.5\ngini = 0.017\nsamples = 2067\nvalue = [2049, 18]"] ;
34 -> 42 ;
43 [label="R_vsm_d5 <= -0.1\ngini = 0.01\nsamples = 1532\nvalue = [1524, 8]"] ;
42 -> 43 ;
44 [label="gini = 0.133\nsamples = 14\nvalue = [13, 1]"] ;
43 -> 44 ;
45 [label="L_vsm_d6 <= -0.067\ngini = 0.009\nsamples = 1518\nvalue = [1511, 7]"] ;
43 -> 45 ;
46 [label="gini = 0.117\nsamples = 16\nvalue = [15, 1]"] ;
45 -> 46 ;
47 [label="L_vsm_d9 <= -0.045\ngini = 0.008\nsamples = 1502\nvalue = [1496, 6]"] ;
45 -> 47 ;
48 [label="R_vsm_d10 <= -0.004\ngini = 0.087\nsamples = 22\nvalue = [21, 1]"] ;
47 -> 48 ;
49 [label="gini = 0.0\nsamples = 12\nvalue = [12, 0]"] ;
48 -> 49 ;
50 [label="gini = 0.18\nsamples = 10\nvalue = [9, 1]"] ;
48 -> 50 ;
51 [label="R_vsm_d6 <= -0.007\ngini = 0.007\nsamples = 1480\nvalue = [1475, 5]"] ;
47 -> 51 ;
52 [label="R_vsm_d3 <= -0.291\ngini = 0.003\nsamples = 1241\nvalue = [1239, 2]"] ;
51 -> 52 ;
53 [label="R_vsm_d7 <= 0.008\ngini = 0.054\nsamples = 36\nvalue = [35, 1]"] ;
52 -> 53 ;
54 [label="gini = 0.18\nsamples = 10\nvalue = [9, 1]"] ;
53 -> 54 ;
55 [label="gini = 0.0\nsamples = 26\nvalue = [26, 0]"] ;
53 -> 55 ;
56 [label="since_start_utterance_in_words <= 2.5\ngini = 0.002\nsamples = 1205\nvalue = [1204, 1]"] ;
52 -> 56 ;
57 [label="R_vsm_d2 <= 0.616\ngini = 0.013\nsamples = 154\nvalue = [153, 1]"] ;
56 -> 57 ;
58 [label="gini = 0.0\nsamples = 144\nvalue = [144, 0]"] ;
57 -> 58 ;
59 [label="gini = 0.18\nsamples = 10\nvalue = [9, 1]"] ;
57 -> 59 ;
60 [label="gini = 0.0\nsamples = 1051\nvalue = [1051, 0]"] ;
56 -> 60 ;
61 [label="R_vsm_d2 <= -0.105\ngini = 0.025\nsamples = 239\nvalue = [236, 3]"] ;
51 -> 61 ;
62 [label="gini = 0.18\nsamples = 10\nvalue = [9, 1]"] ;
61 -> 62 ;
63 [label="R_vsm_d1 <= 0.415\ngini = 0.017\nsamples = 229\nvalue = [227, 2]"] ;
61 -> 63 ;
64 [label="since_start_utterance_in_words <= 7.5\ngini = 0.087\nsamples = 44\nvalue = [42, 2]"] ;
63 -> 64 ;
65 [label="L_vsm_d6 <= 0.0\ngini = 0.172\nsamples = 21\nvalue = [19, 2]"] ;
64 -> 65 ;
66 [label="gini = 0.18\nsamples = 10\nvalue = [9, 1]"] ;
65 -> 66 ;
67 [label="gini = 0.165\nsamples = 11\nvalue = [10, 1]"] ;
65 -> 67 ;
68 [label="gini = 0.0\nsamples = 23\nvalue = [23, 0]"] ;
64 -> 68 ;
69 [label="gini = 0.0\nsamples = 185\nvalue = [185, 0]"] ;
63 -> 69 ;
70 [label="since_start_utterance_in_words <= 13.5\ngini = 0.037\nsamples = 535\nvalue = [525, 10]"] ;
42 -> 70 ;
71 [label="L_vsm_d9 <= 0.032\ngini = 0.024\nsamples = 503\nvalue = [497, 6]"] ;
70 -> 71 ;
72 [label="R_vsm_d4 <= 0.142\ngini = 0.016\nsamples = 485\nvalue = [481, 4]"] ;
71 -> 72 ;
73 [label="since_start_utterance_in_words <= 6.5\ngini = 0.009\nsamples = 452\nvalue = [450, 2]"] ;
72 -> 73 ;
74 [label="gini = 0.0\nsamples = 349\nvalue = [349, 0]"] ;
73 -> 74 ;
75 [label="since_start_utterance_in_words <= 7.5\ngini = 0.038\nsamples = 103\nvalue = [101, 2]"] ;
73 -> 75 ;
76 [label="R_vsm_d2 <= 0.023\ngini = 0.142\nsamples = 26\nvalue = [24, 2]"] ;
75 -> 76 ;
77 [label="gini = 0.0\nsamples = 16\nvalue = [16, 0]"] ;
76 -> 77 ;
78 [label="gini = 0.32\nsamples = 10\nvalue = [8, 2]"] ;
76 -> 78 ;
79 [label="gini = 0.0\nsamples = 77\nvalue = [77, 0]"] ;
75 -> 79 ;
80 [label="since_start_utterance_in_words <= 2.5\ngini = 0.114\nsamples = 33\nvalue = [31, 2]"] ;
72 -> 80 ;
81 [label="gini = 0.0\nsamples = 15\nvalue = [15, 0]"] ;
80 -> 81 ;
82 [label="gini = 0.198\nsamples = 18\nvalue = [16, 2]"] ;
80 -> 82 ;
83 [label="gini = 0.198\nsamples = 18\nvalue = [16, 2]"] ;
71 -> 83 ;
84 [label="R_vsm_d9 <= -0.008\ngini = 0.219\nsamples = 32\nvalue = [28, 4]"] ;
70 -> 84 ;
85 [label="gini = 0.0\nsamples = 18\nvalue = [18, 0]"] ;
84 -> 85 ;
86 [label="gini = 0.408\nsamples = 14\nvalue = [10, 4]"] ;
84 -> 86 ;
87 [label="R_vsm_d1 <= 0.698\ngini = 0.121\nsamples = 31\nvalue = [29, 2]"] ;
33 -> 87 ;
88 [label="gini = 0.32\nsamples = 10\nvalue = [8, 2]"] ;
87 -> 88 ;
89 [label="gini = 0.0\nsamples = 21\nvalue = [21, 0]"] ;
87 -> 89 ;
90 [label="R_vsm_d4 <= -0.031\ngini = 0.11\nsamples = 171\nvalue = [161, 10]"] ;
24 -> 90 ;
91 [label="L_vsm_d3 <= -0.11\ngini = 0.074\nsamples = 156\nvalue = [150, 6]"] ;
90 -> 91 ;
92 [label="L_vsm_d5 <= -0.024\ngini = 0.213\nsamples = 33\nvalue = [29, 4]"] ;
91 -> 92 ;
93 [label="gini = 0.0\nsamples = 21\nvalue = [21, 0]"] ;
92 -> 93 ;
94 [label="gini = 0.444\nsamples = 12\nvalue = [8, 4]"] ;
92 -> 94 ;
95 [label="till_end_utterance_in_words <= 5.5\ngini = 0.032\nsamples = 123\nvalue = [121, 2]"] ;
91 -> 95 ;
96 [label="gini = 0.0\nsamples = 65\nvalue = [65, 0]"] ;
95 -> 96 ;
97 [label="till_end_utterance_in_words <= 7.5\ngini = 0.067\nsamples = 58\nvalue = [56, 2]"] ;
95 -> 97 ;
98 [label="gini = 0.208\nsamples = 17\nvalue = [15, 2]"] ;
97 -> 98 ;
99 [label="gini = 0.0\nsamples = 41\nvalue = [41, 0]"] ;
97 -> 99 ;
100 [label="gini = 0.391\nsamples = 15\nvalue = [11, 4]"] ;
90 -> 100 ;
101 [label="R_vsm_d2 <= -0.626\ngini = 0.012\nsamples = 4106\nvalue = [4082, 24]"] ;
23 -> 101 ;
102 [label="gini = 0.18\nsamples = 10\nvalue = [9, 1]"] ;
101 -> 102 ;
103 [label="R_vsm_d6 <= -0.004\ngini = 0.011\nsamples = 4096\nvalue = [4073, 23]"] ;
101 -> 103 ;
104 [label="R_vsm_d2 <= 0.479\ngini = 0.01\nsamples = 3998\nvalue = [3978, 20]"] ;
103 -> 104 ;
105 [label="since_start_utterance_in_words <= 10.5\ngini = 0.007\nsamples = 3458\nvalue = [3446, 12]"] ;
104 -> 105 ;
106 [label="L_vsm_d1 <= 0.953\ngini = 0.004\nsamples = 2884\nvalue = [2878, 6]"] ;
105 -> 106 ;
107 [label="R_vsm_d2 <= -0.616\ngini = 0.003\nsamples = 2756\nvalue = [2752, 4]"] ;
106 -> 107 ;
108 [label="R_vsm_d1 <= 0.734\ngini = 0.019\nsamples = 105\nvalue = [104, 1]"] ;
107 -> 108 ;
109 [label="gini = 0.18\nsamples = 10\nvalue = [9, 1]"] ;
108 -> 109 ;
110 [label="gini = 0.0\nsamples = 95\nvalue = [95, 0]"] ;
108 -> 110 ;
111 [label="R_vsm_d10 <= 0.045\ngini = 0.002\nsamples = 2651\nvalue = [2648, 3]"] ;
107 -> 111 ;
112 [label="R_vsm_d6 <= -0.019\ngini = 0.002\nsamples = 2539\nvalue = [2537, 2]"] ;
111 -> 112 ;
113 [label="gini = 0.0\nsamples = 1831\nvalue = [1831, 0]"] ;
112 -> 113 ;
114 [label="R_vsm_d6 <= -0.019\ngini = 0.006\nsamples = 708\nvalue = [706, 2]"] ;
112 -> 114 ;
115 [label="since_start_utterance_in_words <= 3.0\ngini = 0.061\nsamples = 32\nvalue = [31, 1]"] ;
114 -> 115 ;
116 [label="gini = 0.165\nsamples = 11\nvalue = [10, 1]"] ;
115 -> 116 ;
117 [label="gini = 0.0\nsamples = 21\nvalue = [21, 0]"] ;
115 -> 117 ;
118 [label="R_vsm_d9 <= -0.011\ngini = 0.003\nsamples = 676\nvalue = [675, 1]"] ;
114 -> 118 ;
119 [label="R_vsm_d4 <= -0.029\ngini = 0.022\nsamples = 88\nvalue = [87, 1]"] ;
118 -> 119 ;
120 [label="gini = 0.133\nsamples = 14\nvalue = [13, 1]"] ;
119 -> 120 ;
121 [label="gini = 0.0\nsamples = 74\nvalue = [74, 0]"] ;
119 -> 121 ;
122 [label="gini = 0.0\nsamples = 588\nvalue = [588, 0]"] ;
118 -> 122 ;
123 [label="since_start_utterance_in_words <= 8.5\ngini = 0.018\nsamples = 112\nvalue = [111, 1]"] ;
111 -> 123 ;
124 [label="gini = 0.0\nsamples = 100\nvalue = [100, 0]"] ;
123 -> 124 ;
125 [label="gini = 0.153\nsamples = 12\nvalue = [11, 1]"] ;
123 -> 125 ;
126 [label="till_end_utterance_in_words <= 10.5\ngini = 0.031\nsamples = 128\nvalue = [126, 2]"] ;
106 -> 126 ;
127 [label="gini = 0.0\nsamples = 108\nvalue = [108, 0]"] ;
126 -> 127 ;
128 [label="L_vsm_d10 <= -0.009\ngini = 0.18\nsamples = 20\nvalue = [18, 2]"] ;
126 -> 128 ;
129 [label="gini = 0.0\nsamples = 10\nvalue = [10, 0]"] ;
128 -> 129 ;
130 [label="gini = 0.32\nsamples = 10\nvalue = [8, 2]"] ;
128 -> 130 ;
131 [label="L_vsm_d10 <= -0.162\ngini = 0.021\nsamples = 574\nvalue = [568, 6]"] ;
105 -> 131 ;
132 [label="gini = 0.165\nsamples = 11\nvalue = [10, 1]"] ;
131 -> 132 ;
133 [label="R_vsm_d1 <= 0.918\ngini = 0.018\nsamples = 563\nvalue = [558, 5]"] ;
131 -> 133 ;
134 [label="R_vsm_d3 <= -0.201\ngini = 0.011\nsamples = 525\nvalue = [522, 3]"] ;
133 -> 134 ;
135 [label="gini = 0.18\nsamples = 10\nvalue = [9, 1]"] ;
134 -> 135 ;
136 [label="L_vsm_d7 <= -0.051\ngini = 0.008\nsamples = 515\nvalue = [513, 2]"] ;
134 -> 136 ;
137 [label="R_vsm_d3 <= 0.034\ngini = 0.087\nsamples = 22\nvalue = [21, 1]"] ;
136 -> 137 ;
138 [label="gini = 0.18\nsamples = 10\nvalue = [9, 1]"] ;
137 -> 138 ;
139 [label="gini = 0.0\nsamples = 12\nvalue = [12, 0]"] ;
137 -> 139 ;
140 [label="till_end_utterance_in_words <= 1.5\ngini = 0.004\nsamples = 493\nvalue = [492, 1]"] ;
136 -> 140 ;
141 [label="R_vsm_d10 <= 0.013\ngini = 0.042\nsamples = 47\nvalue = [46, 1]"] ;
140 -> 141 ;
142 [label="gini = 0.0\nsamples = 37\nvalue = [37, 0]"] ;
141 -> 142 ;
143 [label="gini = 0.18\nsamples = 10\nvalue = [9, 1]"] ;
141 -> 143 ;
144 [label="gini = 0.0\nsamples = 446\nvalue = [446, 0]"] ;
140 -> 144 ;
145 [label="R_vsm_d1 <= 0.951\ngini = 0.1\nsamples = 38\nvalue = [36, 2]"] ;
133 -> 145 ;
146 [label="gini = 0.32\nsamples = 10\nvalue = [8, 2]"] ;
145 -> 146 ;
147 [label="gini = 0.0\nsamples = 28\nvalue = [28, 0]"] ;
145 -> 147 ;
148 [label="L_vsm_d5 <= -0.072\ngini = 0.029\nsamples = 540\nvalue = [532, 8]"] ;
104 -> 148 ;
149 [label="gini = 0.245\nsamples = 14\nvalue = [12, 2]"] ;
148 -> 149 ;
150 [label="L_vsm_d1 <= 0.158\ngini = 0.023\nsamples = 526\nvalue = [520, 6]"] ;
148 -> 150 ;
151 [label="gini = 0.18\nsamples = 10\nvalue = [9, 1]"] ;
150 -> 151 ;
152 [label="till_end_utterance_in_words <= 10.5\ngini = 0.019\nsamples = 516\nvalue = [511, 5]"] ;
150 -> 152 ;
153 [label="R_vsm_d3 <= 0.056\ngini = 0.012\nsamples = 481\nvalue = [478, 3]"] ;
152 -> 153 ;
154 [label="R_vsm_d8 <= -0.013\ngini = 0.095\nsamples = 20\nvalue = [19, 1]"] ;
153 -> 154 ;
155 [label="gini = 0.18\nsamples = 10\nvalue = [9, 1]"] ;
154 -> 155 ;
156 [label="gini = 0.0\nsamples = 10\nvalue = [10, 0]"] ;
154 -> 156 ;
157 [label="L_vsm_d2 <= 0.383\ngini = 0.009\nsamples = 461\nvalue = [459, 2]"] ;
153 -> 157 ;
158 [label="R_vsm_d9 <= 0.031\ngini = 0.005\nsamples = 430\nvalue = [429, 1]"] ;
157 -> 158 ;
159 [label="gini = 0.0\nsamples = 386\nvalue = [386, 0]"] ;
158 -> 159 ;
160 [label="since_start_utterance_in_words <= 6.5\ngini = 0.044\nsamples = 44\nvalue = [43, 1]"] ;
158 -> 160 ;
161 [label="gini = 0.18\nsamples = 10\nvalue = [9, 1]"] ;
160 -> 161 ;
162 [label="gini = 0.0\nsamples = 34\nvalue = [34, 0]"] ;
160 -> 162 ;
163 [label="L_vsm_d10 <= -0.008\ngini = 0.062\nsamples = 31\nvalue = [30, 1]"] ;
157 -> 163 ;
164 [label="gini = 0.0\nsamples = 21\nvalue = [21, 0]"] ;
163 -> 164 ;
165 [label="gini = 0.18\nsamples = 10\nvalue = [9, 1]"] ;
163 -> 165 ;
166 [label="R_vsm_d2 <= 0.629\ngini = 0.108\nsamples = 35\nvalue = [33, 2]"] ;
152 -> 166 ;
167 [label="gini = 0.32\nsamples = 10\nvalue = [8, 2]"] ;
166 -> 167 ;
168 [label="gini = 0.0\nsamples = 25\nvalue = [25, 0]"] ;
166 -> 168 ;
169 [label="L_vsm_d5 <= -0.025\ngini = 0.059\nsamples = 98\nvalue = [95, 3]"] ;
103 -> 169 ;
170 [label="gini = 0.266\nsamples = 19\nvalue = [16, 3]"] ;
169 -> 170 ;
171 [label="gini = 0.0\nsamples = 79\nvalue = [79, 0]"] ;
169 -> 171 ;
172 [label="L_vsm_d8 <= -0.006\ngini = 0.12\nsamples = 94\nvalue = [88, 6]"] ;
22 -> 172 ;
173 [label="L_vsm_d8 <= -0.014\ngini = 0.239\nsamples = 36\nvalue = [31, 5]"] ;
172 -> 173 ;
174 [label="gini = 0.0\nsamples = 23\nvalue = [23, 0]"] ;
173 -> 174 ;
175 [label="gini = 0.473\nsamples = 13\nvalue = [8, 5]"] ;
173 -> 175 ;
176 [label="R_vsm_d3 <= 0.052\ngini = 0.034\nsamples = 58\nvalue = [57, 1]"] ;
172 -> 176 ;
177 [label="gini = 0.0\nsamples = 48\nvalue = [48, 0]"] ;
176 -> 177 ;
178 [label="gini = 0.18\nsamples = 10\nvalue = [9, 1]"] ;
176 -> 178 ;
179 [label="L_vsm_d9 <= -0.072\ngini = 0.086\nsamples = 689\nvalue = [658, 31]"] ;
17 -> 179 ;
180 [label="gini = 0.426\nsamples = 13\nvalue = [9, 4]"] ;
179 -> 180 ;
181 [label="since_start_utterance_in_words <= 21.5\ngini = 0.077\nsamples = 676\nvalue = [649, 27]"] ;
179 -> 181 ;
182 [label="since_start_utterance_in_words <= 4.5\ngini = 0.067\nsamples = 663\nvalue = [640, 23]"] ;
181 -> 182 ;
183 [label="L_vsm_d2 <= -0.388\ngini = 0.012\nsamples = 343\nvalue = [341, 2]"] ;
182 -> 183 ;
184 [label="gini = 0.18\nsamples = 10\nvalue = [9, 1]"] ;
183 -> 184 ;
185 [label="R_vsm_d1 <= 0.938\ngini = 0.006\nsamples = 333\nvalue = [332, 1]"] ;
183 -> 185 ;
186 [label="gini = 0.0\nsamples = 323\nvalue = [323, 0]"] ;
185 -> 186 ;
187 [label="gini = 0.18\nsamples = 10\nvalue = [9, 1]"] ;
185 -> 187 ;
188 [label="L_vsm_d1 <= 0.369\ngini = 0.123\nsamples = 320\nvalue = [299, 21]"] ;
182 -> 188 ;
189 [label="L_vsm_d4 <= -0.003\ngini = 0.327\nsamples = 34\nvalue = [27, 7]"] ;
188 -> 189 ;
190 [label="gini = 0.5\nsamples = 10\nvalue = [5, 5]"] ;
189 -> 190 ;
191 [label="L_vsm_d2 <= 0.074\ngini = 0.153\nsamples = 24\nvalue = [22, 2]"] ;
189 -> 191 ;
192 [label="gini = 0.0\nsamples = 14\nvalue = [14, 0]"] ;
191 -> 192 ;
193 [label="gini = 0.32\nsamples = 10\nvalue = [8, 2]"] ;
191 -> 193 ;
194 [label="till_end_utterance_in_words <= 3.5\ngini = 0.093\nsamples = 286\nvalue = [272, 14]"] ;
188 -> 194 ;
195 [label="gini = 0.0\nsamples = 104\nvalue = [104, 0]"] ;
194 -> 195 ;
196 [label="R_vsm_d7 <= -0.001\ngini = 0.142\nsamples = 182\nvalue = [168, 14]"] ;
194 -> 196 ;
197 [label="R_vsm_d3 <= 0.207\ngini = 0.043\nsamples = 91\nvalue = [89, 2]"] ;
196 -> 197 ;
198 [label="gini = 0.0\nsamples = 60\nvalue = [60, 0]"] ;
197 -> 198 ;
199 [label="R_vsm_d3 <= 0.279\ngini = 0.121\nsamples = 31\nvalue = [29, 2]"] ;
197 -> 199 ;
200 [label="gini = 0.32\nsamples = 10\nvalue = [8, 2]"] ;
199 -> 200 ;
201 [label="gini = 0.0\nsamples = 21\nvalue = [21, 0]"] ;
199 -> 201 ;
202 [label="R_vsm_d8 <= -0.004\ngini = 0.229\nsamples = 91\nvalue = [79, 12]"] ;
196 -> 202 ;
203 [label="gini = 0.49\nsamples = 14\nvalue = [8, 6]"] ;
202 -> 203 ;
204 [label="L_vsm_d3 <= -0.118\ngini = 0.144\nsamples = 77\nvalue = [71, 6]"] ;
202 -> 204 ;
205 [label="gini = 0.32\nsamples = 15\nvalue = [12, 3]"] ;
204 -> 205 ;
206 [label="R_vsm_d9 <= -0.013\ngini = 0.092\nsamples = 62\nvalue = [59, 3]"] ;
204 -> 206 ;
207 [label="R_vsm_d2 <= 0.23\ngini = 0.204\nsamples = 26\nvalue = [23, 3]"] ;
206 -> 207 ;
208 [label="gini = 0.337\nsamples = 14\nvalue = [11, 3]"] ;
207 -> 208 ;
209 [label="gini = 0.0\nsamples = 12\nvalue = [12, 0]"] ;
207 -> 209 ;
210 [label="gini = 0.0\nsamples = 36\nvalue = [36, 0]"] ;
206 -> 210 ;
211 [label="gini = 0.426\nsamples = 13\nvalue = [9, 4]"] ;
181 -> 211 ;
212 [label="L_vsm_d7 <= 0.093\ngini = 0.217\nsamples = 137\nvalue = [120, 17]"] ;
16 -> 212 ;
213 [label="R_vsm_d5 <= -0.031\ngini = 0.484\nsamples = 34\nvalue = [20, 14]"] ;
212 -> 213 ;
214 [label="gini = 0.298\nsamples = 11\nvalue = [9, 2]"] ;
213 -> 214 ;
215 [label="since_start_utterance_in_words <= 9.5\ngini = 0.499\nsamples = 23\nvalue = [11, 12]"] ;
213 -> 215 ;
216 [label="gini = 0.463\nsamples = 11\nvalue = [4, 7]"] ;
215 -> 216 ;
217 [label="gini = 0.486\nsamples = 12\nvalue = [7, 5]"] ;
215 -> 217 ;
218 [label="R_vsm_d5 <= -0.029\ngini = 0.057\nsamples = 103\nvalue = [100, 3]"] ;
212 -> 218 ;
219 [label="L_vsm_d8 <= 0.006\ngini = 0.211\nsamples = 25\nvalue = [22, 3]"] ;
218 -> 219 ;
220 [label="gini = 0.0\nsamples = 15\nvalue = [15, 0]"] ;
219 -> 220 ;
221 [label="gini = 0.42\nsamples = 10\nvalue = [7, 3]"] ;
219 -> 221 ;
222 [label="gini = 0.0\nsamples = 78\nvalue = [78, 0]"] ;
218 -> 222 ;
223 [label="till_end_utterance_in_words <= 3.5\ngini = 0.08\nsamples = 11357\nvalue = [10882, 475]"] ;
15 -> 223 ;
224 [label="till_end_utterance_in_words <= 2.5\ngini = 0.037\nsamples = 3319\nvalue = [3256, 63]"] ;
223 -> 224 ;
225 [label="R_vsm_d6 <= 0.001\ngini = 0.024\nsamples = 2107\nvalue = [2081, 26]"] ;
224 -> 225 ;
226 [label="L_vsm_d5 <= -0.044\ngini = 0.14\nsamples = 66\nvalue = [61, 5]"] ;
225 -> 226 ;
227 [label="gini = 0.42\nsamples = 10\nvalue = [7, 3]"] ;
226 -> 227 ;
228 [label="R_vsm_d1 <= 0.606\ngini = 0.069\nsamples = 56\nvalue = [54, 2]"] ;
226 -> 228 ;
229 [label="gini = 0.0\nsamples = 27\nvalue = [27, 0]"] ;
228 -> 229 ;
230 [label="since_start_utterance_in_words <= 11.0\ngini = 0.128\nsamples = 29\nvalue = [27, 2]"] ;
228 -> 230 ;
231 [label="gini = 0.208\nsamples = 17\nvalue = [15, 2]"] ;
230 -> 231 ;
232 [label="gini = 0.0\nsamples = 12\nvalue = [12, 0]"] ;
230 -> 232 ;
233 [label="R_vsm_d6 <= 0.128\ngini = 0.02\nsamples = 2041\nvalue = [2020, 21]"] ;
225 -> 233 ;
234 [label="L_vsm_d1 <= 0.043\ngini = 0.016\nsamples = 1962\nvalue = [1946, 16]"] ;
233 -> 234 ;
235 [label="gini = 0.18\nsamples = 10\nvalue = [9, 1]"] ;
234 -> 235 ;
236 [label="L_vsm_d1 <= 0.971\ngini = 0.015\nsamples = 1952\nvalue = [1937, 15]"] ;
234 -> 236 ;
237 [label="since_start_utterance_in_words <= 8.5\ngini = 0.011\nsamples = 1776\nvalue = [1766, 10]"] ;
236 -> 237 ;
238 [label="R_vsm_d6 <= 0.002\ngini = 0.006\nsamples = 1059\nvalue = [1056, 3]"] ;
237 -> 238 ;
239 [label="since_start_utterance_in_words <= 4.5\ngini = 0.042\nsamples = 47\nvalue = [46, 1]"] ;
238 -> 239 ;
240 [label="gini = 0.133\nsamples = 14\nvalue = [13, 1]"] ;
239 -> 240 ;
241 [label="gini = 0.0\nsamples = 33\nvalue = [33, 0]"] ;
239 -> 241 ;
242 [label="till_end_utterance_in_words <= 1.5\ngini = 0.004\nsamples = 1012\nvalue = [1010, 2]"] ;
238 -> 242 ;
243 [label="L_vsm_d8 <= 0.003\ngini = 0.009\nsamples = 427\nvalue = [425, 2]"] ;
242 -> 243 ;
244 [label="gini = 0.0\nsamples = 201\nvalue = [201, 0]"] ;
243 -> 244 ;
245 [label="since_start_utterance_in_words <= 3.5\ngini = 0.018\nsamples = 226\nvalue = [224, 2]"] ;
243 -> 245 ;
246 [label="since_start_utterance_in_words <= 2.5\ngini = 0.048\nsamples = 41\nvalue = [40, 1]"] ;
245 -> 246 ;
247 [label="gini = 0.0\nsamples = 19\nvalue = [19, 0]"] ;
246 -> 247 ;
248 [label="gini = 0.087\nsamples = 22\nvalue = [21, 1]"] ;
246 -> 248 ;
249 [label="since_start_utterance_in_words <= 6.5\ngini = 0.011\nsamples = 185\nvalue = [184, 1]"] ;
245 -> 249 ;
250 [label="gini = 0.0\nsamples = 104\nvalue = [104, 0]"] ;
249 -> 250 ;
251 [label="since_start_utterance_in_words <= 7.5\ngini = 0.024\nsamples = 81\nvalue = [80, 1]"] ;
249 -> 251 ;
252 [label="gini = 0.045\nsamples = 43\nvalue = [42, 1]"] ;
251 -> 252 ;
253 [label="gini = 0.0\nsamples = 38\nvalue = [38, 0]"] ;
251 -> 253 ;
254 [label="gini = 0.0\nsamples = 585\nvalue = [585, 0]"] ;
242 -> 254 ;
255 [label="till_end_utterance_in_words <= 1.5\ngini = 0.019\nsamples = 717\nvalue = [710, 7]"] ;
237 -> 255 ;
256 [label="gini = 0.0\nsamples = 349\nvalue = [349, 0]"] ;
255 -> 256 ;
257 [label="L_vsm_d7 <= 0.003\ngini = 0.037\nsamples = 368\nvalue = [361, 7]"] ;
255 -> 257 ;
258 [label="L_vsm_d1 <= 0.327\ngini = 0.021\nsamples = 277\nvalue = [274, 3]"] ;
257 -> 258 ;
259 [label="gini = 0.18\nsamples = 10\nvalue = [9, 1]"] ;
258 -> 259 ;
260 [label="since_start_utterance_in_words <= 9.5\ngini = 0.015\nsamples = 267\nvalue = [265, 2]"] ;
258 -> 260 ;
261 [label="L_vsm_d6 <= 0.014\ngini = 0.081\nsamples = 47\nvalue = [45, 2]"] ;
260 -> 261 ;
262 [label="gini = 0.0\nsamples = 17\nvalue = [17, 0]"] ;
261 -> 262 ;
263 [label="gini = 0.124\nsamples = 30\nvalue = [28, 2]"] ;
261 -> 263 ;
264 [label="gini = 0.0\nsamples = 220\nvalue = [220, 0]"] ;
260 -> 264 ;
265 [label="L_vsm_d1 <= 0.716\ngini = 0.084\nsamples = 91\nvalue = [87, 4]"] ;
257 -> 265 ;
266 [label="gini = 0.0\nsamples = 50\nvalue = [50, 0]"] ;
265 -> 266 ;
267 [label="L_vsm_d8 <= -0.007\ngini = 0.176\nsamples = 41\nvalue = [37, 4]"] ;
265 -> 267 ;
268 [label="gini = 0.0\nsamples = 14\nvalue = [14, 0]"] ;
267 -> 268 ;
269 [label="since_start_utterance_in_words <= 15.5\ngini = 0.252\nsamples = 27\nvalue = [23, 4]"] ;
267 -> 269 ;
270 [label="gini = 0.36\nsamples = 17\nvalue = [13, 4]"] ;
269 -> 270 ;
271 [label="gini = 0.0\nsamples = 10\nvalue = [10, 0]"] ;
269 -> 271 ;
272 [label="L_vsm_d1 <= 0.984\ngini = 0.055\nsamples = 176\nvalue = [171, 5]"] ;
236 -> 272 ;
273 [label="L_vsm_d5 <= -0.034\ngini = 0.255\nsamples = 20\nvalue = [17, 3]"] ;
272 -> 273 ;
274 [label="gini = 0.42\nsamples = 10\nvalue = [7, 3]"] ;
273 -> 274 ;
275 [label="gini = 0.0\nsamples = 10\nvalue = [10, 0]"] ;
273 -> 275 ;
276 [label="since_start_utterance_in_words <= 16.5\ngini = 0.025\nsamples = 156\nvalue = [154, 2]"] ;
272 -> 276 ;
277 [label="L_vsm_d8 <= -0.023\ngini = 0.014\nsamples = 146\nvalue = [145, 1]"] ;
276 -> 277 ;
278 [label="gini = 0.18\nsamples = 10\nvalue = [9, 1]"] ;
277 -> 278 ;
279 [label="gini = 0.0\nsamples = 136\nvalue = [136, 0]"] ;
277 -> 279 ;
280 [label="gini = 0.18\nsamples = 10\nvalue = [9, 1]"] ;
276 -> 280 ;
281 [label="R_vsm_d10 <= -0.003\ngini = 0.119\nsamples = 79\nvalue = [74, 5]"] ;
233 -> 281 ;
282 [label="gini = 0.0\nsamples = 59\nvalue = [59, 0]"] ;
281 -> 282 ;
283 [label="L_vsm_d6 <= 0.013\ngini = 0.375\nsamples = 20\nvalue = [15, 5]"] ;
281 -> 283 ;
284 [label="gini = 0.18\nsamples = 10\nvalue = [9, 1]"] ;
283 -> 284 ;
285 [label="gini = 0.48\nsamples = 10\nvalue = [6, 4]"] ;
283 -> 285 ;
286 [label="R_vsm_d4 <= -0.128\ngini = 0.059\nsamples = 1212\nvalue = [1175, 37]"] ;
224 -> 286 ;
287 [label="R_vsm_d4 <= -0.143\ngini = 0.255\nsamples = 20\nvalue = [17, 3]"] ;
286 -> 287 ;
288 [label="gini = 0.0\nsamples = 10\nvalue = [10, 0]"] ;
287 -> 288 ;
289 [label="gini = 0.42\nsamples = 10\nvalue = [7, 3]"] ;
287 -> 289 ;
290 [label="L_vsm_d3 <= -0.151\ngini = 0.055\nsamples = 1192\nvalue = [1158, 34]"] ;
286 -> 290 ;
291 [label="L_vsm_d10 <= -0.01\ngini = 0.128\nsamples = 131\nvalue = [122, 9]"] ;
290 -> 291 ;
292 [label="gini = 0.0\nsamples = 46\nvalue = [46, 0]"] ;
291 -> 292 ;
293 [label="R_vsm_d7 <= 0.006\ngini = 0.189\nsamples = 85\nvalue = [76, 9]"] ;
291 -> 293 ;
294 [label="L_vsm_d2 <= 0.154\ngini = 0.248\nsamples = 62\nvalue = [53, 9]"] ;
293 -> 294 ;
295 [label="L_vsm_d6 <= -0.018\ngini = 0.124\nsamples = 30\nvalue = [28, 2]"] ;
294 -> 295 ;
296 [label="gini = 0.32\nsamples = 10\nvalue = [8, 2]"] ;
295 -> 296 ;
297 [label="gini = 0.0\nsamples = 20\nvalue = [20, 0]"] ;
295 -> 297 ;
298 [label="L_vsm_d10 <= -0.004\ngini = 0.342\nsamples = 32\nvalue = [25, 7]"] ;
294 -> 298 ;
299 [label="gini = 0.48\nsamples = 10\nvalue = [6, 4]"] ;
298 -> 299 ;
300 [label="L_vsm_d9 <= 0.033\ngini = 0.236\nsamples = 22\nvalue = [19, 3]"] ;
298 -> 300 ;
301 [label="gini = 0.153\nsamples = 12\nvalue = [11, 1]"] ;
300 -> 301 ;
302 [label="gini = 0.32\nsamples = 10\nvalue = [8, 2]"] ;
300 -> 302 ;
303 [label="gini = 0.0\nsamples = 23\nvalue = [23, 0]"] ;
293 -> 303 ;
304 [label="since_start_utterance_in_words <= 24.5\ngini = 0.046\nsamples = 1061\nvalue = [1036, 25]"] ;
290 -> 304 ;
305 [label="since_start_utterance_in_words <= 2.5\ngini = 0.043\nsamples = 1041\nvalue = [1018, 23]"] ;
304 -> 305 ;
306 [label="gini = 0.0\nsamples = 154\nvalue = [154, 0]"] ;
305 -> 306 ;
307 [label="R_vsm_d5 <= 0.05\ngini = 0.051\nsamples = 887\nvalue = [864, 23]"] ;
305 -> 307 ;
308 [label="R_vsm_d6 <= 0.001\ngini = 0.021\nsamples = 284\nvalue = [281, 3]"] ;
307 -> 308 ;
309 [label="since_start_utterance_in_words <= 5.5\ngini = 0.105\nsamples = 36\nvalue = [34, 2]"] ;
308 -> 309 ;
310 [label="gini = 0.245\nsamples = 14\nvalue = [12, 2]"] ;
309 -> 310 ;
311 [label="gini = 0.0\nsamples = 22\nvalue = [22, 0]"] ;
309 -> 311 ;
312 [label="R_vsm_d6 <= 0.119\ngini = 0.008\nsamples = 248\nvalue = [247, 1]"] ;
308 -> 312 ;
313 [label="gini = 0.0\nsamples = 225\nvalue = [225, 0]"] ;
312 -> 313 ;
314 [label="R_vsm_d9 <= -0.015\ngini = 0.083\nsamples = 23\nvalue = [22, 1]"] ;
312 -> 314 ;
315 [label="gini = 0.18\nsamples = 10\nvalue = [9, 1]"] ;
314 -> 315 ;
316 [label="gini = 0.0\nsamples = 13\nvalue = [13, 0]"] ;
314 -> 316 ;
317 [label="L_vsm_d10 <= 0.035\ngini = 0.064\nsamples = 603\nvalue = [583, 20]"] ;
307 -> 317 ;
318 [label="L_vsm_d5 <= -0.016\ngini = 0.059\nsamples = 589\nvalue = [571, 18]"] ;
317 -> 318 ;
319 [label="L_vsm_d9 <= -0.014\ngini = 0.016\nsamples = 127\nvalue = [126, 1]"] ;
318 -> 319 ;
320 [label="gini = 0.18\nsamples = 10\nvalue = [9, 1]"] ;
319 -> 320 ;
321 [label="gini = 0.0\nsamples = 117\nvalue = [117, 0]"] ;
319 -> 321 ;
322 [label="L_vsm_d1 <= 0.9\ngini = 0.071\nsamples = 462\nvalue = [445, 17]"] ;
318 -> 322 ;
323 [label="since_start_utterance_in_words <= 6.5\ngini = 0.064\nsamples = 452\nvalue = [437, 15]"] ;
322 -> 323 ;
324 [label="L_vsm_d10 <= 0.011\ngini = 0.037\nsamples = 212\nvalue = [208, 4]"] ;
323 -> 324 ;
325 [label="gini = 0.0\nsamples = 60\nvalue = [60, 0]"] ;
324 -> 325 ;
326 [label="since_start_utterance_in_words <= 5.5\ngini = 0.051\nsamples = 152\nvalue = [148, 4]"] ;
324 -> 326 ;
327 [label="since_start_utterance_in_words <= 4.5\ngini = 0.068\nsamples = 114\nvalue = [110, 4]"] ;
326 -> 327 ;
328 [label="since_start_utterance_in_words <= 3.5\ngini = 0.078\nsamples = 74\nvalue = [71, 3]"] ;
327 -> 328 ;
329 [label="gini = 0.057\nsamples = 34\nvalue = [33, 1]"] ;
328 -> 329 ;
330 [label="gini = 0.095\nsamples = 40\nvalue = [38, 2]"] ;
328 -> 330 ;
331 [label="gini = 0.049\nsamples = 40\nvalue = [39, 1]"] ;
327 -> 331 ;
332 [label="gini = 0.0\nsamples = 38\nvalue = [38, 0]"] ;
326 -> 332 ;
333 [label="since_start_utterance_in_words <= 10.5\ngini = 0.087\nsamples = 240\nvalue = [229, 11]"] ;
323 -> 333 ;
334 [label="L_vsm_d1 <= 0.741\ngini = 0.132\nsamples = 127\nvalue = [118, 9]"] ;
333 -> 334 ;
335 [label="L_vsm_d8 <= -0.006\ngini = 0.113\nsamples = 116\nvalue = [109, 7]"] ;
334 -> 335 ;
336 [label="gini = 0.0\nsamples = 17\nvalue = [17, 0]"] ;
335 -> 336 ;
337 [label="since_start_utterance_in_words <= 7.5\ngini = 0.131\nsamples = 99\nvalue = [92, 7]"] ;
335 -> 337 ;
338 [label="gini = 0.061\nsamples = 32\nvalue = [31, 1]"] ;
337 -> 338 ;
339 [label="since_start_utterance_in_words <= 8.5\ngini = 0.163\nsamples = 67\nvalue = [61, 6]"] ;
337 -> 339 ;
340 [label="gini = 0.191\nsamples = 28\nvalue = [25, 3]"] ;
339 -> 340 ;
341 [label="since_start_utterance_in_words <= 9.5\ngini = 0.142\nsamples = 39\nvalue = [36, 3]"] ;
339 -> 341 ;
342 [label="gini = 0.091\nsamples = 21\nvalue = [20, 1]"] ;
341 -> 342 ;
343 [label="gini = 0.198\nsamples = 18\nvalue = [16, 2]"] ;
341 -> 343 ;
344 [label="gini = 0.298\nsamples = 11\nvalue = [9, 2]"] ;
334 -> 344 ;
345 [label="since_start_utterance_in_words <= 17.5\ngini = 0.035\nsamples = 113\nvalue = [111, 2]"] ;
333 -> 345 ;
346 [label="since_start_utterance_in_words <= 12.5\ngini = 0.021\nsamples = 93\nvalue = [92, 1]"] ;
345 -> 346 ;
347 [label="since_start_utterance_in_words <= 11.5\ngini = 0.056\nsamples = 35\nvalue = [34, 1]"] ;
346 -> 347 ;
348 [label="gini = 0.0\nsamples = 20\nvalue = [20, 0]"] ;
347 -> 348 ;
349 [label="gini = 0.124\nsamples = 15\nvalue = [14, 1]"] ;
347 -> 349 ;
350 [label="gini = 0.0\nsamples = 58\nvalue = [58, 0]"] ;
346 -> 350 ;
351 [label="gini = 0.095\nsamples = 20\nvalue = [19, 1]"] ;
345 -> 351 ;
352 [label="gini = 0.32\nsamples = 10\nvalue = [8, 2]"] ;
322 -> 352 ;
353 [label="gini = 0.245\nsamples = 14\nvalue = [12, 2]"] ;
317 -> 353 ;
354 [label="gini = 0.18\nsamples = 20\nvalue = [18, 2]"] ;
304 -> 354 ;
355 [label="since_start_utterance_in_words <= 5.5\ngini = 0.097\nsamples = 8038\nvalue = [7626, 412]"] ;
223 -> 355 ;
356 [label="L_vsm_d3 <= 0.012\ngini = 0.062\nsamples = 4707\nvalue = [4557, 150]"] ;
355 -> 356 ;
357 [label="till_end_utterance_in_words <= 23.5\ngini = 0.122\nsamples = 1091\nvalue = [1020, 71]"] ;
356 -> 357 ;
358 [label="L_vsm_d7 <= -0.069\ngini = 0.111\nsamples = 1071\nvalue = [1008, 63]"] ;
357 -> 358 ;
359 [label="L_vsm_d9 <= -0.002\ngini = 0.302\nsamples = 70\nvalue = [57, 13]"] ;
358 -> 359 ;
360 [label="L_vsm_d1 <= 0.688\ngini = 0.087\nsamples = 22\nvalue = [21, 1]"] ;
359 -> 360 ;
361 [label="gini = 0.0\nsamples = 12\nvalue = [12, 0]"] ;
360 -> 361 ;
362 [label="gini = 0.18\nsamples = 10\nvalue = [9, 1]"] ;
360 -> 362 ;
363 [label="R_vsm_d10 <= 0.007\ngini = 0.375\nsamples = 48\nvalue = [36, 12]"] ;
359 -> 363 ;
364 [label="gini = 0.133\nsamples = 14\nvalue = [13, 1]"] ;
363 -> 364 ;
365 [label="since_start_utterance_in_words <= 2.5\ngini = 0.438\nsamples = 34\nvalue = [23, 11]"] ;
363 -> 365 ;
366 [label="gini = 0.219\nsamples = 16\nvalue = [14, 2]"] ;
365 -> 366 ;
367 [label="gini = 0.5\nsamples = 18\nvalue = [9, 9]"] ;
365 -> 367 ;
368 [label="L_vsm_d8 <= -0.009\ngini = 0.095\nsamples = 1001\nvalue = [951, 50]"] ;
358 -> 368 ;
369 [label="L_vsm_d3 <= -0.293\ngini = 0.041\nsamples = 475\nvalue = [465, 10]"] ;
368 -> 369 ;
370 [label="gini = 0.278\nsamples = 12\nvalue = [10, 2]"] ;
369 -> 370 ;
371 [label="R_vsm_d8 <= -0.007\ngini = 0.034\nsamples = 463\nvalue = [455, 8]"] ;
369 -> 371 ;
372 [label="L_vsm_d10 <= -0.003\ngini = 0.175\nsamples = 31\nvalue = [28, 3]"] ;
371 -> 372 ;
373 [label="gini = 0.0\nsamples = 21\nvalue = [21, 0]"] ;
372 -> 373 ;
374 [label="gini = 0.42\nsamples = 10\nvalue = [7, 3]"] ;
372 -> 374 ;
375 [label="L_vsm_d10 <= -0.004\ngini = 0.023\nsamples = 432\nvalue = [427, 5]"] ;
371 -> 375 ;
376 [label="gini = 0.0\nsamples = 263\nvalue = [263, 0]"] ;
375 -> 376 ;
377 [label="L_vsm_d5 <= -0.017\ngini = 0.057\nsamples = 169\nvalue = [164, 5]"] ;
375 -> 377 ;
378 [label="L_vsm_d10 <= -0.003\ngini = 0.129\nsamples = 72\nvalue = [67, 5]"] ;
377 -> 378 ;
379 [label="gini = 0.305\nsamples = 16\nvalue = [13, 3]"] ;
378 -> 379 ;
380 [label="till_end_utterance_in_words <= 7.5\ngini = 0.069\nsamples = 56\nvalue = [54, 2]"] ;
378 -> 380 ;
381 [label="gini = 0.0\nsamples = 32\nvalue = [32, 0]"] ;
380 -> 381 ;
382 [label="L_vsm_d5 <= -0.02\ngini = 0.153\nsamples = 24\nvalue = [22, 2]"] ;
380 -> 382 ;
383 [label="gini = 0.0\nsamples = 13\nvalue = [13, 0]"] ;
382 -> 383 ;
384 [label="gini = 0.298\nsamples = 11\nvalue = [9, 2]"] ;
382 -> 384 ;
385 [label="gini = 0.0\nsamples = 97\nvalue = [97, 0]"] ;
377 -> 385 ;
386 [label="L_vsm_d8 <= -0.008\ngini = 0.141\nsamples = 526\nvalue = [486, 40]"] ;
368 -> 386 ;
387 [label="since_start_utterance_in_words <= 3.5\ngini = 0.296\nsamples = 72\nvalue = [59, 13]"] ;
386 -> 387 ;
388 [label="R_vsm_d3 <= 0.107\ngini = 0.156\nsamples = 47\nvalue = [43, 4]"] ;
387 -> 388 ;
389 [label="gini = 0.0\nsamples = 37\nvalue = [37, 0]"] ;
388 -> 389 ;
390 [label="gini = 0.48\nsamples = 10\nvalue = [6, 4]"] ;
388 -> 390 ;
391 [label="L_vsm_d8 <= -0.008\ngini = 0.461\nsamples = 25\nvalue = [16, 9]"] ;
387 -> 391 ;
392 [label="gini = 0.496\nsamples = 11\nvalue = [5, 6]"] ;
391 -> 392 ;
393 [label="gini = 0.337\nsamples = 14\nvalue = [11, 3]"] ;
391 -> 393 ;
394 [label="L_vsm_d3 <= -0.276\ngini = 0.112\nsamples = 454\nvalue = [427, 27]"] ;
386 -> 394 ;
395 [label="L_vsm_d9 <= 0.04\ngini = 0.232\nsamples = 82\nvalue = [71, 11]"] ;
394 -> 395 ;
396 [label="L_vsm_d10 <= -0.009\ngini = 0.14\nsamples = 66\nvalue = [61, 5]"] ;
395 -> 396 ;
397 [label="since_start_utterance_in_words <= 3.5\ngini = 0.264\nsamples = 32\nvalue = [27, 5]"] ;
396 -> 397 ;
398 [label="gini = 0.0\nsamples = 13\nvalue = [13, 0]"] ;
397 -> 398 ;
399 [label="gini = 0.388\nsamples = 19\nvalue = [14, 5]"] ;
397 -> 399 ;
400 [label="gini = 0.0\nsamples = 34\nvalue = [34, 0]"] ;
396 -> 400 ;
401 [label="gini = 0.469\nsamples = 16\nvalue = [10, 6]"] ;
395 -> 401 ;
402 [label="R_vsm_d7 <= 0.002\ngini = 0.082\nsamples = 372\nvalue = [356, 16]"] ;
394 -> 402 ;
403 [label="L_vsm_d1 <= 0.504\ngini = 0.122\nsamples = 229\nvalue = [214, 15]"] ;
402 -> 403 ;
404 [label="L_vsm_d5 <= -0.014\ngini = 0.228\nsamples = 61\nvalue = [53, 8]"] ;
403 -> 404 ;
405 [label="gini = 0.486\nsamples = 12\nvalue = [7, 5]"] ;
404 -> 405 ;
406 [label="L_vsm_d4 <= -0.032\ngini = 0.115\nsamples = 49\nvalue = [46, 3]"] ;
404 -> 406 ;
407 [label="gini = 0.305\nsamples = 16\nvalue = [13, 3]"] ;
406 -> 407 ;
408 [label="gini = 0.0\nsamples = 33\nvalue = [33, 0]"] ;
406 -> 408 ;
409 [label="L_vsm_d6 <= 0.227\ngini = 0.08\nsamples = 168\nvalue = [161, 7]"] ;
403 -> 409 ;
410 [label="L_vsm_d9 <= 0.038\ngini = 0.041\nsamples = 142\nvalue = [139, 3]"] ;
409 -> 410 ;
411 [label="gini = 0.0\nsamples = 111\nvalue = [111, 0]"] ;
410 -> 411 ;
412 [label="till_end_utterance_in_words <= 6.5\ngini = 0.175\nsamples = 31\nvalue = [28, 3]"] ;
410 -> 412 ;
413 [label="gini = 0.266\nsamples = 19\nvalue = [16, 3]"] ;
412 -> 413 ;
414 [label="gini = 0.0\nsamples = 12\nvalue = [12, 0]"] ;
412 -> 414 ;
415 [label="since_start_utterance_in_words <= 3.5\ngini = 0.26\nsamples = 26\nvalue = [22, 4]"] ;
409 -> 415 ;
416 [label="gini = 0.124\nsamples = 15\nvalue = [14, 1]"] ;
415 -> 416 ;
417 [label="gini = 0.397\nsamples = 11\nvalue = [8, 3]"] ;
415 -> 417 ;
418 [label="R_vsm_d9 <= -0.034\ngini = 0.014\nsamples = 143\nvalue = [142, 1]"] ;
402 -> 418 ;
419 [label="gini = 0.165\nsamples = 11\nvalue = [10, 1]"] ;
418 -> 419 ;
420 [label="gini = 0.0\nsamples = 132\nvalue = [132, 0]"] ;
418 -> 420 ;
421 [label="L_vsm_d1 <= 0.679\ngini = 0.48\nsamples = 20\nvalue = [12, 8]"] ;
357 -> 421 ;
422 [label="gini = 0.42\nsamples = 10\nvalue = [7, 3]"] ;
421 -> 422 ;
423 [label="gini = 0.5\nsamples = 10\nvalue = [5, 5]"] ;
421 -> 423 ;
424 [label="till_end_utterance_in_words <= 29.5\ngini = 0.043\nsamples = 3616\nvalue = [3537, 79]"] ;
356 -> 424 ;
425 [label="since_start_utterance_in_words <= 2.5\ngini = 0.041\nsamples = 3578\nvalue = [3503, 75]"] ;
424 -> 425 ;
426 [label="R_vsm_d6 <= -0.001\ngini = 0.024\nsamples = 1829\nvalue = [1807, 22]"] ;
425 -> 426 ;
427 [label="till_end_utterance_in_words <= 6.5\ngini = 0.097\nsamples = 39\nvalue = [37, 2]"] ;
426 -> 427 ;
428 [label="gini = 0.32\nsamples = 10\nvalue = [8, 2]"] ;
427 -> 428 ;
429 [label="gini = 0.0\nsamples = 29\nvalue = [29, 0]"] ;
427 -> 429 ;
430 [label="R_vsm_d9 <= -0.007\ngini = 0.022\nsamples = 1790\nvalue = [1770, 20]"] ;
426 -> 430 ;
431 [label="gini = 0.0\nsamples = 314\nvalue = [314, 0]"] ;
430 -> 431 ;
432 [label="L_vsm_d5 <= 0.053\ngini = 0.027\nsamples = 1476\nvalue = [1456, 20]"] ;
430 -> 432 ;
433 [label="gini = 0.0\nsamples = 210\nvalue = [210, 0]"] ;
432 -> 433 ;
434 [label="R_vsm_d9 <= -0.005\ngini = 0.031\nsamples = 1266\nvalue = [1246, 20]"] ;
432 -> 434 ;
435 [label="till_end_utterance_in_words <= 9.5\ngini = 0.089\nsamples = 43\nvalue = [41, 2]"] ;
434 -> 435 ;
436 [label="R_vsm_d9 <= -0.005\ngini = 0.059\nsamples = 33\nvalue = [32, 1]"] ;
435 -> 436 ;
437 [label="gini = 0.0\nsamples = 22\nvalue = [22, 0]"] ;
436 -> 437 ;
438 [label="gini = 0.165\nsamples = 11\nvalue = [10, 1]"] ;
436 -> 438 ;
439 [label="gini = 0.18\nsamples = 10\nvalue = [9, 1]"] ;
435 -> 439 ;
440 [label="till_end_utterance_in_words <= 21.5\ngini = 0.029\nsamples = 1223\nvalue = [1205, 18]"] ;
434 -> 440 ;
441 [label="till_end_utterance_in_words <= 10.5\ngini = 0.027\nsamples = 1177\nvalue = [1161, 16]"] ;
440 -> 441 ;
442 [label="R_vsm_d2 <= 0.028\ngini = 0.034\nsamples = 811\nvalue = [797, 14]"] ;
441 -> 442 ;
443 [label="gini = 0.0\nsamples = 109\nvalue = [109, 0]"] ;
442 -> 443 ;
444 [label="R_vsm_d1 <= 0.314\ngini = 0.039\nsamples = 702\nvalue = [688, 14]"] ;
442 -> 444 ;
445 [label="gini = 0.165\nsamples = 11\nvalue = [10, 1]"] ;
444 -> 445 ;
446 [label="till_end_utterance_in_words <= 8.5\ngini = 0.037\nsamples = 691\nvalue = [678, 13]"] ;
444 -> 446 ;
447 [label="till_end_utterance_in_words <= 5.5\ngini = 0.03\nsamples = 534\nvalue = [526, 8]"] ;
446 -> 447 ;
448 [label="since_start_utterance_in_words <= 1.5\ngini = 0.021\nsamples = 191\nvalue = [189, 2]"] ;
447 -> 448 ;
449 [label="till_end_utterance_in_words <= 4.5\ngini = 0.015\nsamples = 129\nvalue = [128, 1]"] ;
448 -> 449 ;
450 [label="gini = 0.0\nsamples = 52\nvalue = [52, 0]"] ;
449 -> 450 ;
451 [label="gini = 0.026\nsamples = 77\nvalue = [76, 1]"] ;
449 -> 451 ;
452 [label="till_end_utterance_in_words <= 4.5\ngini = 0.032\nsamples = 62\nvalue = [61, 1]"] ;
448 -> 452 ;
453 [label="gini = 0.064\nsamples = 30\nvalue = [29, 1]"] ;
452 -> 453 ;
454 [label="gini = 0.0\nsamples = 32\nvalue = [32, 0]"] ;
452 -> 454 ;
455 [label="R_vsm_d2 <= 0.075\ngini = 0.034\nsamples = 343\nvalue = [337, 6]"] ;
447 -> 455 ;
456 [label="since_start_utterance_in_words <= 1.5\ngini = 0.036\nsamples = 327\nvalue = [321, 6]"] ;
455 -> 456 ;
457 [label="till_end_utterance_in_words <= 6.5\ngini = 0.033\nsamples = 235\nvalue = [231, 4]"] ;
456 -> 457 ;
458 [label="gini = 0.051\nsamples = 77\nvalue = [75, 2]"] ;
457 -> 458 ;
459 [label="till_end_utterance_in_words <= 7.5\ngini = 0.025\nsamples = 158\nvalue = [156, 2]"] ;
457 -> 459 ;
460 [label="gini = 0.0\nsamples = 76\nvalue = [76, 0]"] ;
459 -> 460 ;
461 [label="gini = 0.048\nsamples = 82\nvalue = [80, 2]"] ;
459 -> 461 ;
462 [label="till_end_utterance_in_words <= 7.5\ngini = 0.043\nsamples = 92\nvalue = [90, 2]"] ;
456 -> 462 ;
463 [label="till_end_utterance_in_words <= 6.5\ngini = 0.061\nsamples = 63\nvalue = [61, 2]"] ;
462 -> 463 ;
464 [label="gini = 0.0\nsamples = 24\nvalue = [24, 0]"] ;
463 -> 464 ;
465 [label="gini = 0.097\nsamples = 39\nvalue = [37, 2]"] ;
463 -> 465 ;
466 [label="gini = 0.0\nsamples = 29\nvalue = [29, 0]"] ;
462 -> 466 ;
467 [label="gini = 0.0\nsamples = 16\nvalue = [16, 0]"] ;
455 -> 467 ;
468 [label="since_start_utterance_in_words <= 1.5\ngini = 0.062\nsamples = 157\nvalue = [152, 5]"] ;
446 -> 468 ;
469 [label="till_end_utterance_in_words <= 9.5\ngini = 0.071\nsamples = 108\nvalue = [104, 4]"] ;
468 -> 469 ;
470 [label="gini = 0.068\nsamples = 57\nvalue = [55, 2]"] ;
469 -> 470 ;
471 [label="gini = 0.075\nsamples = 51\nvalue = [49, 2]"] ;
469 -> 471 ;
472 [label="till_end_utterance_in_words <= 9.5\ngini = 0.04\nsamples = 49\nvalue = [48, 1]"] ;
468 -> 472 ;
473 [label="gini = 0.074\nsamples = 26\nvalue = [25, 1]"] ;
472 -> 473 ;
474 [label="gini = 0.0\nsamples = 23\nvalue = [23, 0]"] ;
472 -> 474 ;
475 [label="till_end_utterance_in_words <= 17.5\ngini = 0.011\nsamples = 366\nvalue = [364, 2]"] ;
441 -> 475 ;
476 [label="till_end_utterance_in_words <= 12.5\ngini = 0.007\nsamples = 300\nvalue = [299, 1]"] ;
475 -> 476 ;
477 [label="till_end_utterance_in_words <= 11.5\ngini = 0.016\nsamples = 123\nvalue = [122, 1]"] ;
476 -> 477 ;
478 [label="gini = 0.0\nsamples = 71\nvalue = [71, 0]"] ;
477 -> 478 ;
479 [label="since_start_utterance_in_words <= 1.5\ngini = 0.038\nsamples = 52\nvalue = [51, 1]"] ;
477 -> 479 ;
480 [label="gini = 0.05\nsamples = 39\nvalue = [38, 1]"] ;
479 -> 480 ;
481 [label="gini = 0.0\nsamples = 13\nvalue = [13, 0]"] ;
479 -> 481 ;
482 [label="gini = 0.0\nsamples = 177\nvalue = [177, 0]"] ;
476 -> 482 ;
483 [label="since_start_utterance_in_words <= 1.5\ngini = 0.03\nsamples = 66\nvalue = [65, 1]"] ;
475 -> 483 ;
484 [label="gini = 0.0\nsamples = 51\nvalue = [51, 0]"] ;
483 -> 484 ;
485 [label="gini = 0.124\nsamples = 15\nvalue = [14, 1]"] ;
483 -> 485 ;
486 [label="since_start_utterance_in_words <= 1.5\ngini = 0.083\nsamples = 46\nvalue = [44, 2]"] ;
440 -> 486 ;
487 [label="gini = 0.0\nsamples = 30\nvalue = [30, 0]"] ;
486 -> 487 ;
488 [label="gini = 0.219\nsamples = 16\nvalue = [14, 2]"] ;
486 -> 488 ;
489 [label="till_end_utterance_in_words <= 7.5\ngini = 0.059\nsamples = 1749\nvalue = [1696, 53]"] ;
425 -> 489 ;
490 [label="R_vsm_d5 <= 0.077\ngini = 0.041\nsamples = 915\nvalue = [896, 19]"] ;
489 -> 490 ;
491 [label="L_vsm_d4 <= -0.277\ngini = 0.038\nsamples = 887\nvalue = [870, 17]"] ;
490 -> 491 ;
492 [label="gini = 0.18\nsamples = 10\nvalue = [9, 1]"] ;
491 -> 492 ;
493 [label="R_vsm_d1 <= 0.975\ngini = 0.036\nsamples = 877\nvalue = [861, 16]"] ;
491 -> 493 ;
494 [label="R_vsm_d10 <= -0.001\ngini = 0.034\nsamples = 867\nvalue = [852, 15]"] ;
493 -> 494 ;
495 [label="gini = 0.0\nsamples = 148\nvalue = [148, 0]"] ;
494 -> 495 ;
496 [label="R_vsm_d10 <= 0.001\ngini = 0.041\nsamples = 719\nvalue = [704, 15]"] ;
494 -> 496 ;
497 [label="gini = 0.231\nsamples = 15\nvalue = [13, 2]"] ;
496 -> 497 ;
498 [label="L_vsm_d5 <= -0.029\ngini = 0.036\nsamples = 704\nvalue = [691, 13]"] ;
496 -> 498 ;
499 [label="gini = 0.0\nsamples = 94\nvalue = [94, 0]"] ;
498 -> 499 ;
500 [label="L_vsm_d5 <= -0.019\ngini = 0.042\nsamples = 610\nvalue = [597, 13]"] ;
498 -> 500 ;
501 [label="gini = 0.165\nsamples = 11\nvalue = [10, 1]"] ;
500 -> 501 ;
502 [label="L_vsm_d1 <= 0.368\ngini = 0.039\nsamples = 599\nvalue = [587, 12]"] ;
500 -> 502 ;
503 [label="L_vsm_d2 <= -0.205\ngini = 0.105\nsamples = 36\nvalue = [34, 2]"] ;
502 -> 503 ;
504 [label="gini = 0.32\nsamples = 10\nvalue = [8, 2]"] ;
503 -> 504 ;
505 [label="gini = 0.0\nsamples = 26\nvalue = [26, 0]"] ;
503 -> 505 ;
506 [label="L_vsm_d2 <= -0.023\ngini = 0.035\nsamples = 563\nvalue = [553, 10]"] ;
502 -> 506 ;
507 [label="gini = 0.0\nsamples = 76\nvalue = [76, 0]"] ;
506 -> 507 ;
508 [label="R_vsm_d5 <= 0.054\ngini = 0.04\nsamples = 487\nvalue = [477, 10]"] ;
506 -> 508 ;
509 [label="gini = 0.0\nsamples = 49\nvalue = [49, 0]"] ;
508 -> 509 ;
510 [label="till_end_utterance_in_words <= 6.5\ngini = 0.045\nsamples = 438\nvalue = [428, 10]"] ;
508 -> 510 ;
511 [label="till_end_utterance_in_words <= 4.5\ngini = 0.052\nsamples = 340\nvalue = [331, 9]"] ;
510 -> 511 ;
512 [label="since_start_utterance_in_words <= 3.5\ngini = 0.031\nsamples = 126\nvalue = [124, 2]"] ;
511 -> 512 ;
513 [label="gini = 0.048\nsamples = 41\nvalue = [40, 1]"] ;
512 -> 513 ;
514 [label="since_start_utterance_in_words <= 4.5\ngini = 0.023\nsamples = 85\nvalue = [84, 1]"] ;
512 -> 514 ;
515 [label="gini = 0.0\nsamples = 36\nvalue = [36, 0]"] ;
514 -> 515 ;
516 [label="gini = 0.04\nsamples = 49\nvalue = [48, 1]"] ;
514 -> 516 ;
517 [label="since_start_utterance_in_words <= 4.5\ngini = 0.063\nsamples = 214\nvalue = [207, 7]"] ;
511 -> 517 ;
518 [label="till_end_utterance_in_words <= 5.5\ngini = 0.074\nsamples = 155\nvalue = [149, 6]"] ;
517 -> 518 ;
519 [label="since_start_utterance_in_words <= 3.5\ngini = 0.071\nsamples = 81\nvalue = [78, 3]"] ;
518 -> 519 ;
520 [label="gini = 0.095\nsamples = 40\nvalue = [38, 2]"] ;
519 -> 520 ;
521 [label="gini = 0.048\nsamples = 41\nvalue = [40, 1]"] ;
519 -> 521 ;
522 [label="since_start_utterance_in_words <= 3.5\ngini = 0.078\nsamples = 74\nvalue = [71, 3]"] ;
518 -> 522 ;
523 [label="gini = 0.049\nsamples = 40\nvalue = [39, 1]"] ;
522 -> 523 ;
524 [label="gini = 0.111\nsamples = 34\nvalue = [32, 2]"] ;
522 -> 524 ;
525 [label="till_end_utterance_in_words <= 5.5\ngini = 0.033\nsamples = 59\nvalue = [58, 1]"] ;
517 -> 525 ;
526 [label="gini = 0.061\nsamples = 32\nvalue = [31, 1]"] ;
525 -> 526 ;
527 [label="gini = 0.0\nsamples = 27\nvalue = [27, 0]"] ;
525 -> 527 ;
528 [label="since_start_utterance_in_words <= 3.5\ngini = 0.02\nsamples = 98\nvalue = [97, 1]"] ;
510 -> 528 ;
529 [label="gini = 0.051\nsamples = 38\nvalue = [37, 1]"] ;
528 -> 529 ;
530 [label="gini = 0.0\nsamples = 60\nvalue = [60, 0]"] ;
528 -> 530 ;
531 [label="gini = 0.18\nsamples = 10\nvalue = [9, 1]"] ;
493 -> 531 ;
532 [label="R_vsm_d3 <= -0.057\ngini = 0.133\nsamples = 28\nvalue = [26, 2]"] ;
490 -> 532 ;
533 [label="gini = 0.32\nsamples = 10\nvalue = [8, 2]"] ;
532 -> 533 ;
534 [label="gini = 0.0\nsamples = 18\nvalue = [18, 0]"] ;
532 -> 534 ;
535 [label="till_end_utterance_in_words <= 13.5\ngini = 0.078\nsamples = 834\nvalue = [800, 34]"] ;
489 -> 535 ;
536 [label="R_vsm_d7 <= 0.018\ngini = 0.102\nsamples = 575\nvalue = [544, 31]"] ;
535 -> 536 ;
537 [label="R_vsm_d3 <= -0.048\ngini = 0.122\nsamples = 476\nvalue = [445, 31]"] ;
536 -> 537 ;
538 [label="R_vsm_d3 <= -0.108\ngini = 0.283\nsamples = 41\nvalue = [34, 7]"] ;
537 -> 538 ;
539 [label="till_end_utterance_in_words <= 9.5\ngini = 0.175\nsamples = 31\nvalue = [28, 3]"] ;
538 -> 539 ;
540 [label="gini = 0.337\nsamples = 14\nvalue = [11, 3]"] ;
539 -> 540 ;
541 [label="gini = 0.0\nsamples = 17\nvalue = [17, 0]"] ;
539 -> 541 ;
542 [label="gini = 0.48\nsamples = 10\nvalue = [6, 4]"] ;
538 -> 542 ;
543 [label="L_vsm_d8 <= 0.005\ngini = 0.104\nsamples = 435\nvalue = [411, 24]"] ;
537 -> 543 ;
544 [label="till_end_utterance_in_words <= 12.5\ngini = 0.089\nsamples = 406\nvalue = [387, 19]"] ;
543 -> 544 ;
545 [label="L_vsm_d6 <= 0.018\ngini = 0.07\nsamples = 356\nvalue = [343, 13]"] ;
544 -> 545 ;
546 [label="gini = 0.0\nsamples = 85\nvalue = [85, 0]"] ;
545 -> 546 ;
547 [label="R_vsm_d2 <= 0.035\ngini = 0.091\nsamples = 271\nvalue = [258, 13]"] ;
545 -> 547 ;
548 [label="gini = 0.0\nsamples = 23\nvalue = [23, 0]"] ;
547 -> 548 ;
549 [label="since_start_utterance_in_words <= 3.5\ngini = 0.099\nsamples = 248\nvalue = [235, 13]"] ;
547 -> 549 ;
550 [label="till_end_utterance_in_words <= 11.5\ngini = 0.13\nsamples = 86\nvalue = [80, 6]"] ;
549 -> 550 ;
551 [label="till_end_utterance_in_words <= 10.5\ngini = 0.102\nsamples = 74\nvalue = [70, 4]"] ;
550 -> 551 ;
552 [label="till_end_utterance_in_words <= 8.5\ngini = 0.128\nsamples = 58\nvalue = [54, 4]"] ;
551 -> 552 ;
553 [label="gini = 0.172\nsamples = 21\nvalue = [19, 2]"] ;
552 -> 553 ;
554 [label="till_end_utterance_in_words <= 9.5\ngini = 0.102\nsamples = 37\nvalue = [35, 2]"] ;
552 -> 554 ;
555 [label="gini = 0.105\nsamples = 18\nvalue = [17, 1]"] ;
554 -> 555 ;
556 [label="gini = 0.1\nsamples = 19\nvalue = [18, 1]"] ;
554 -> 556 ;
557 [label="gini = 0.0\nsamples = 16\nvalue = [16, 0]"] ;
551 -> 557 ;
558 [label="gini = 0.278\nsamples = 12\nvalue = [10, 2]"] ;
550 -> 558 ;
559 [label="till_end_utterance_in_words <= 10.5\ngini = 0.083\nsamples = 162\nvalue = [155, 7]"] ;
549 -> 559 ;
560 [label="till_end_utterance_in_words <= 8.5\ngini = 0.103\nsamples = 110\nvalue = [104, 6]"] ;
559 -> 560 ;
561 [label="since_start_utterance_in_words <= 4.5\ngini = 0.089\nsamples = 43\nvalue = [41, 2]"] ;
560 -> 561 ;
562 [label="gini = 0.147\nsamples = 25\nvalue = [23, 2]"] ;
561 -> 562 ;
563 [label="gini = 0.0\nsamples = 18\nvalue = [18, 0]"] ;
561 -> 563 ;
564 [label="since_start_utterance_in_words <= 4.5\ngini = 0.112\nsamples = 67\nvalue = [63, 4]"] ;
560 -> 564 ;
565 [label="till_end_utterance_in_words <= 9.5\ngini = 0.054\nsamples = 36\nvalue = [35, 1]"] ;
564 -> 565 ;
566 [label="gini = 0.111\nsamples = 17\nvalue = [16, 1]"] ;
565 -> 566 ;
567 [label="gini = 0.0\nsamples = 19\nvalue = [19, 0]"] ;
565 -> 567 ;
568 [label="till_end_utterance_in_words <= 9.5\ngini = 0.175\nsamples = 31\nvalue = [28, 3]"] ;
564 -> 568 ;
569 [label="gini = 0.124\nsamples = 15\nvalue = [14, 1]"] ;
568 -> 569 ;
570 [label="gini = 0.219\nsamples = 16\nvalue = [14, 2]"] ;
568 -> 570 ;
571 [label="since_start_utterance_in_words <= 4.5\ngini = 0.038\nsamples = 52\nvalue = [51, 1]"] ;
559 -> 571 ;
572 [label="gini = 0.087\nsamples = 22\nvalue = [21, 1]"] ;
571 -> 572 ;
573 [label="gini = 0.0\nsamples = 30\nvalue = [30, 0]"] ;
571 -> 573 ;
574 [label="since_start_utterance_in_words <= 3.5\ngini = 0.211\nsamples = 50\nvalue = [44, 6]"] ;
544 -> 574 ;
575 [label="gini = 0.351\nsamples = 22\nvalue = [17, 5]"] ;
574 -> 575 ;
576 [label="since_start_utterance_in_words <= 4.5\ngini = 0.069\nsamples = 28\nvalue = [27, 1]"] ;
574 -> 576 ;
577 [label="gini = 0.117\nsamples = 16\nvalue = [15, 1]"] ;
576 -> 577 ;
578 [label="gini = 0.0\nsamples = 12\nvalue = [12, 0]"] ;
576 -> 578 ;
579 [label="L_vsm_d8 <= 0.007\ngini = 0.285\nsamples = 29\nvalue = [24, 5]"] ;
543 -> 579 ;
580 [label="gini = 0.48\nsamples = 10\nvalue = [6, 4]"] ;
579 -> 580 ;
581 [label="gini = 0.1\nsamples = 19\nvalue = [18, 1]"] ;
579 -> 581 ;
582 [label="gini = 0.0\nsamples = 99\nvalue = [99, 0]"] ;
536 -> 582 ;
583 [label="till_end_utterance_in_words <= 18.5\ngini = 0.023\nsamples = 259\nvalue = [256, 3]"] ;
535 -> 583 ;
584 [label="gini = 0.0\nsamples = 183\nvalue = [183, 0]"] ;
583 -> 584 ;
585 [label="till_end_utterance_in_words <= 22.5\ngini = 0.076\nsamples = 76\nvalue = [73, 3]"] ;
583 -> 585 ;
586 [label="L_vsm_d2 <= 0.021\ngini = 0.136\nsamples = 41\nvalue = [38, 3]"] ;
585 -> 586 ;
587 [label="gini = 0.0\nsamples = 14\nvalue = [14, 0]"] ;
586 -> 587 ;
588 [label="since_start_utterance_in_words <= 3.5\ngini = 0.198\nsamples = 27\nvalue = [24, 3]"] ;
586 -> 588 ;
589 [label="gini = 0.32\nsamples = 10\nvalue = [8, 2]"] ;
588 -> 589 ;
590 [label="gini = 0.111\nsamples = 17\nvalue = [16, 1]"] ;
588 -> 590 ;
591 [label="gini = 0.0\nsamples = 35\nvalue = [35, 0]"] ;
585 -> 591 ;
592 [label="since_start_utterance_in_words <= 2.5\ngini = 0.188\nsamples = 38\nvalue = [34, 4]"] ;
424 -> 592 ;
593 [label="gini = 0.346\nsamples = 18\nvalue = [14, 4]"] ;
592 -> 593 ;
594 [label="gini = 0.0\nsamples = 20\nvalue = [20, 0]"] ;
592 -> 594 ;
595 [label="L_vsm_d8 <= -0.041\ngini = 0.145\nsamples = 3331\nvalue = [3069, 262]"] ;
355 -> 595 ;
596 [label="L_vsm_d3 <= 0.035\ngini = 0.454\nsamples = 23\nvalue = [15, 8]"] ;
595 -> 596 ;
597 [label="gini = 0.5\nsamples = 12\nvalue = [6, 6]"] ;
596 -> 597 ;
598 [label="gini = 0.298\nsamples = 11\nvalue = [9, 2]"] ;
596 -> 598 ;
599 [label="R_vsm_d2 <= 1.031\ngini = 0.142\nsamples = 3308\nvalue = [3054, 254]"] ;
595 -> 599 ;
600 [label="L_vsm_d2 <= -0.216\ngini = 0.14\nsamples = 3297\nvalue = [3048, 249]"] ;
599 -> 600 ;
601 [label="L_vsm_d4 <= -0.278\ngini = 0.056\nsamples = 524\nvalue = [509, 15]"] ;
600 -> 601 ;
602 [label="gini = 0.305\nsamples = 16\nvalue = [13, 3]"] ;
601 -> 602 ;
603 [label="R_vsm_d3 <= -0.001\ngini = 0.046\nsamples = 508\nvalue = [496, 12]"] ;
601 -> 603 ;
604 [label="R_vsm_d4 <= 0.005\ngini = 0.165\nsamples = 55\nvalue = [50, 5]"] ;
603 -> 604 ;
605 [label="gini = 0.375\nsamples = 16\nvalue = [12, 4]"] ;
604 -> 605 ;
606 [label="R_vsm_d1 <= 0.748\ngini = 0.05\nsamples = 39\nvalue = [38, 1]"] ;
604 -> 606 ;
607 [label="gini = 0.0\nsamples = 29\nvalue = [29, 0]"] ;
606 -> 607 ;
608 [label="gini = 0.18\nsamples = 10\nvalue = [9, 1]"] ;
606 -> 608 ;
609 [label="L_vsm_d8 <= -0.021\ngini = 0.03\nsamples = 453\nvalue = [446, 7]"] ;
603 -> 609 ;
610 [label="L_vsm_d6 <= -0.046\ngini = 0.133\nsamples = 70\nvalue = [65, 5]"] ;
609 -> 610 ;
611 [label="L_vsm_d3 <= 0.058\ngini = 0.219\nsamples = 40\nvalue = [35, 5]"] ;
610 -> 611 ;
612 [label="gini = 0.375\nsamples = 16\nvalue = [12, 4]"] ;
611 -> 612 ;
613 [label="L_vsm_d3 <= 0.072\ngini = 0.08\nsamples = 24\nvalue = [23, 1]"] ;
611 -> 613 ;
614 [label="gini = 0.0\nsamples = 14\nvalue = [14, 0]"] ;
613 -> 614 ;
615 [label="gini = 0.18\nsamples = 10\nvalue = [9, 1]"] ;
613 -> 615 ;
616 [label="gini = 0.0\nsamples = 30\nvalue = [30, 0]"] ;
610 -> 616 ;
617 [label="L_vsm_d10 <= 0.024\ngini = 0.01\nsamples = 383\nvalue = [381, 2]"] ;
609 -> 617 ;
618 [label="gini = 0.0\nsamples = 347\nvalue = [347, 0]"] ;
617 -> 618 ;
619 [label="L_vsm_d10 <= 0.03\ngini = 0.105\nsamples = 36\nvalue = [34, 2]"] ;
617 -> 619 ;
620 [label="gini = 0.32\nsamples = 10\nvalue = [8, 2]"] ;
619 -> 620 ;
621 [label="gini = 0.0\nsamples = 26\nvalue = [26, 0]"] ;
619 -> 621 ;
622 [label="L_vsm_d1 <= 0.592\ngini = 0.155\nsamples = 2773\nvalue = [2539, 234]"] ;
600 -> 622 ;
623 [label="L_vsm_d5 <= -0.112\ngini = 0.222\nsamples = 510\nvalue = [445, 65]"] ;
622 -> 623 ;
624 [label="gini = 0.459\nsamples = 14\nvalue = [9, 5]"] ;
623 -> 624 ;
625 [label="R_vsm_d5 <= -0.024\ngini = 0.213\nsamples = 496\nvalue = [436, 60]"] ;
623 -> 625 ;
626 [label="R_vsm_d3 <= -0.318\ngini = 0.029\nsamples = 68\nvalue = [67, 1]"] ;
625 -> 626 ;
627 [label="gini = 0.18\nsamples = 10\nvalue = [9, 1]"] ;
626 -> 627 ;
628 [label="gini = 0.0\nsamples = 58\nvalue = [58, 0]"] ;
626 -> 628 ;
629 [label="L_vsm_d2 <= 0.589\ngini = 0.238\nsamples = 428\nvalue = [369, 59]"] ;
625 -> 629 ;
630 [label="L_vsm_d3 <= 0.046\ngini = 0.225\nsamples = 411\nvalue = [358, 53]"] ;
629 -> 630 ;
631 [label="till_end_utterance_in_words <= 9.5\ngini = 0.28\nsamples = 273\nvalue = [227, 46]"] ;
630 -> 631 ;
632 [label="L_vsm_d10 <= 0.018\ngini = 0.215\nsamples = 171\nvalue = [150, 21]"] ;
631 -> 632 ;
633 [label="L_vsm_d4 <= 0.053\ngini = 0.295\nsamples = 111\nvalue = [91, 20]"] ;
632 -> 633 ;
634 [label="since_start_utterance_in_words <= 11.5\ngini = 0.23\nsamples = 83\nvalue = [72, 11]"] ;
633 -> 634 ;
635 [label="till_end_utterance_in_words <= 7.5\ngini = 0.123\nsamples = 61\nvalue = [57, 4]"] ;
634 -> 635 ;
636 [label="L_vsm_d8 <= -0.001\ngini = 0.045\nsamples = 43\nvalue = [42, 1]"] ;
635 -> 636 ;
637 [label="gini = 0.0\nsamples = 33\nvalue = [33, 0]"] ;
636 -> 637 ;
638 [label="gini = 0.18\nsamples = 10\nvalue = [9, 1]"] ;
636 -> 638 ;
639 [label="gini = 0.278\nsamples = 18\nvalue = [15, 3]"] ;
635 -> 639 ;
640 [label="L_vsm_d1 <= 0.399\ngini = 0.434\nsamples = 22\nvalue = [15, 7]"] ;
634 -> 640 ;
641 [label="gini = 0.5\nsamples = 10\nvalue = [5, 5]"] ;
640 -> 641 ;
642 [label="gini = 0.278\nsamples = 12\nvalue = [10, 2]"] ;
640 -> 642 ;
643 [label="L_vsm_d5 <= -0.007\ngini = 0.436\nsamples = 28\nvalue = [19, 9]"] ;
633 -> 643 ;
644 [label="gini = 0.26\nsamples = 13\nvalue = [11, 2]"] ;
643 -> 644 ;
645 [label="gini = 0.498\nsamples = 15\nvalue = [8, 7]"] ;
643 -> 645 ;
646 [label="L_vsm_d8 <= -0.013\ngini = 0.033\nsamples = 60\nvalue = [59, 1]"] ;
632 -> 646 ;
647 [label="gini = 0.18\nsamples = 10\nvalue = [9, 1]"] ;
646 -> 647 ;
648 [label="gini = 0.0\nsamples = 50\nvalue = [50, 0]"] ;
646 -> 648 ;
649 [label="R_vsm_d3 <= 0.046\ngini = 0.37\nsamples = 102\nvalue = [77, 25]"] ;
631 -> 649 ;
650 [label="L_vsm_d5 <= -0.007\ngini = 0.412\nsamples = 86\nvalue = [61, 25]"] ;
649 -> 650 ;
651 [label="L_vsm_d7 <= 0.003\ngini = 0.482\nsamples = 37\nvalue = [22, 15]"] ;
650 -> 651 ;
652 [label="gini = 0.473\nsamples = 13\nvalue = [5, 8]"] ;
651 -> 652 ;
653 [label="L_vsm_d1 <= 0.43\ngini = 0.413\nsamples = 24\nvalue = [17, 7]"] ;
651 -> 653 ;
654 [label="gini = 0.49\nsamples = 14\nvalue = [8, 6]"] ;
653 -> 654 ;
655 [label="gini = 0.18\nsamples = 10\nvalue = [9, 1]"] ;
653 -> 655 ;
656 [label="L_vsm_d1 <= 0.193\ngini = 0.325\nsamples = 49\nvalue = [39, 10]"] ;
650 -> 656 ;
657 [label="R_vsm_d2 <= 0.085\ngini = 0.48\nsamples = 20\nvalue = [12, 8]"] ;
656 -> 657 ;
658 [label="gini = 0.48\nsamples = 10\nvalue = [4, 6]"] ;
657 -> 658 ;
659 [label="gini = 0.32\nsamples = 10\nvalue = [8, 2]"] ;
657 -> 659 ;
660 [label="till_end_utterance_in_words <= 15.5\ngini = 0.128\nsamples = 29\nvalue = [27, 2]"] ;
656 -> 660 ;
661 [label="gini = 0.0\nsamples = 19\nvalue = [19, 0]"] ;
660 -> 661 ;
662 [label="gini = 0.32\nsamples = 10\nvalue = [8, 2]"] ;
660 -> 662 ;
663 [label="gini = 0.0\nsamples = 16\nvalue = [16, 0]"] ;
649 -> 663 ;
664 [label="L_vsm_d9 <= -0.044\ngini = 0.096\nsamples = 138\nvalue = [131, 7]"] ;
630 -> 664 ;
665 [label="gini = 0.305\nsamples = 16\nvalue = [13, 3]"] ;
664 -> 665 ;
666 [label="L_vsm_d4 <= 0.245\ngini = 0.063\nsamples = 122\nvalue = [118, 4]"] ;
664 -> 666 ;
667 [label="R_vsm_d9 <= -0.013\ngini = 0.019\nsamples = 104\nvalue = [103, 1]"] ;
666 -> 667 ;
668 [label="gini = 0.18\nsamples = 10\nvalue = [9, 1]"] ;
667 -> 668 ;
669 [label="gini = 0.0\nsamples = 94\nvalue = [94, 0]"] ;
667 -> 669 ;
670 [label="gini = 0.278\nsamples = 18\nvalue = [15, 3]"] ;
666 -> 670 ;
671 [label="gini = 0.457\nsamples = 17\nvalue = [11, 6]"] ;
629 -> 671 ;
672 [label="R_vsm_d6 <= -0.001\ngini = 0.138\nsamples = 2263\nvalue = [2094, 169]"] ;
622 -> 672 ;
673 [label="since_start_utterance_in_words <= 14.5\ngini = 0.31\nsamples = 73\nvalue = [59, 14]"] ;
672 -> 673 ;
674 [label="till_end_utterance_in_words <= 8.5\ngini = 0.215\nsamples = 57\nvalue = [50, 7]"] ;
673 -> 674 ;
675 [label="till_end_utterance_in_words <= 6.5\ngini = 0.175\nsamples = 31\nvalue = [28, 3]"] ;
674 -> 675 ;
676 [label="gini = 0.266\nsamples = 19\nvalue = [16, 3]"] ;
675 -> 676 ;
677 [label="gini = 0.0\nsamples = 12\nvalue = [12, 0]"] ;
675 -> 677 ;
678 [label="since_start_utterance_in_words <= 8.5\ngini = 0.26\nsamples = 26\nvalue = [22, 4]"] ;
674 -> 678 ;
679 [label="gini = 0.32\nsamples = 15\nvalue = [12, 3]"] ;
678 -> 679 ;
680 [label="gini = 0.165\nsamples = 11\nvalue = [10, 1]"] ;
678 -> 680 ;
681 [label="gini = 0.492\nsamples = 16\nvalue = [9, 7]"] ;
673 -> 681 ;
682 [label="L_vsm_d5 <= 0.103\ngini = 0.132\nsamples = 2190\nvalue = [2035, 155]"] ;
672 -> 682 ;
683 [label="R_vsm_d4 <= 0.346\ngini = 0.128\nsamples = 2161\nvalue = [2013, 148]"] ;
682 -> 683 ;
684 [label="R_vsm_d8 <= 0.009\ngini = 0.125\nsamples = 2142\nvalue = [1999, 143]"] ;
683 -> 684 ;
685 [label="R_vsm_d9 <= 0.022\ngini = 0.13\nsamples = 2041\nvalue = [1898, 143]"] ;
684 -> 685 ;
686 [label="R_vsm_d6 <= 0.275\ngini = 0.126\nsamples = 2026\nvalue = [1889, 137]"] ;
685 -> 686 ;
687 [label="R_vsm_d3 <= 0.24\ngini = 0.124\nsamples = 2010\nvalue = [1877, 133]"] ;
686 -> 687 ;
688 [label="L_vsm_d9 <= 0.064\ngini = 0.12\nsamples = 1977\nvalue = [1850, 127]"] ;
687 -> 688 ;
689 [label="R_vsm_d3 <= -0.345\ngini = 0.118\nsamples = 1965\nvalue = [1841, 124]"] ;
688 -> 689 ;
690 [label="gini = 0.355\nsamples = 13\nvalue = [10, 3]"] ;
689 -> 690 ;
691 [label="R_vsm_d7 <= 0.015\ngini = 0.116\nsamples = 1952\nvalue = [1831, 121]"] ;
689 -> 691 ;
692 [label="R_vsm_d1 <= 0.924\ngini = 0.125\nsamples = 1701\nvalue = [1587, 114]"] ;
691 -> 692 ;
693 [label="L_vsm_d4 <= -0.016\ngini = 0.123\nsamples = 1691\nvalue = [1580, 111]"] ;
692 -> 693 ;
694 [label="L_vsm_d5 <= -0.039\ngini = 0.026\nsamples = 150\nvalue = [148, 2]"] ;
693 -> 694 ;
695 [label="since_start_utterance_in_words <= 8.5\ngini = 0.1\nsamples = 38\nvalue = [36, 2]"] ;
694 -> 695 ;
696 [label="gini = 0.0\nsamples = 16\nvalue = [16, 0]"] ;
695 -> 696 ;
697 [label="till_end_utterance_in_words <= 6.5\ngini = 0.165\nsamples = 22\nvalue = [20, 2]"] ;
695 -> 697 ;
698 [label="gini = 0.153\nsamples = 12\nvalue = [11, 1]"] ;
697 -> 698 ;
699 [label="gini = 0.18\nsamples = 10\nvalue = [9, 1]"] ;
697 -> 699 ;
700 [label="gini = 0.0\nsamples = 112\nvalue = [112, 0]"] ;
694 -> 700 ;
701 [label="L_vsm_d1 <= 0.965\ngini = 0.131\nsamples = 1541\nvalue = [1432, 109]"] ;
693 -> 701 ;
702 [label="R_vsm_d7 <= 0.012\ngini = 0.121\nsamples = 1500\nvalue = [1403, 97]"] ;
701 -> 702 ;
703 [label="L_vsm_d4 <= 0.145\ngini = 0.118\nsamples = 1479\nvalue = [1386, 93]"] ;
702 -> 703 ;
704 [label="L_vsm_d4 <= 0.072\ngini = 0.122\nsamples = 1431\nvalue = [1338, 93]"] ;
703 -> 704 ;
705 [label="L_vsm_d8 <= -0.005\ngini = 0.119\nsamples = 1404\nvalue = [1315, 89]"] ;
704 -> 705 ;
706 [label="till_end_utterance_in_words <= 4.5\ngini = 0.051\nsamples = 152\nvalue = [148, 4]"] ;
705 -> 706 ;
707 [label="L_vsm_d10 <= -0.005\ngini = 0.165\nsamples = 22\nvalue = [20, 2]"] ;
706 -> 707 ;
708 [label="gini = 0.0\nsamples = 11\nvalue = [11, 0]"] ;
707 -> 708 ;
709 [label="gini = 0.298\nsamples = 11\nvalue = [9, 2]"] ;
707 -> 709 ;
710 [label="L_vsm_d5 <= 0.075\ngini = 0.03\nsamples = 130\nvalue = [128, 2]"] ;
706 -> 710 ;
711 [label="since_start_utterance_in_words <= 10.5\ngini = 0.017\nsamples = 119\nvalue = [118, 1]"] ;
710 -> 711 ;
712 [label="gini = 0.0\nsamples = 79\nvalue = [79, 0]"] ;
711 -> 712 ;
713 [label="since_start_utterance_in_words <= 13.5\ngini = 0.049\nsamples = 40\nvalue = [39, 1]"] ;
711 -> 713 ;
714 [label="gini = 0.133\nsamples = 14\nvalue = [13, 1]"] ;
713 -> 714 ;
715 [label="gini = 0.0\nsamples = 26\nvalue = [26, 0]"] ;
713 -> 715 ;
716 [label="gini = 0.165\nsamples = 11\nvalue = [10, 1]"] ;
710 -> 716 ;
717 [label="L_vsm_d6 <= 0.004\ngini = 0.127\nsamples = 1252\nvalue = [1167, 85]"] ;
705 -> 717 ;
718 [label="gini = 0.266\nsamples = 19\nvalue = [16, 3]"] ;
717 -> 718 ;
719 [label="since_start_utterance_in_words <= 26.5\ngini = 0.124\nsamples = 1233\nvalue = [1151, 82]"] ;
717 -> 719 ;
720 [label="since_start_utterance_in_words <= 14.5\ngini = 0.122\nsamples = 1213\nvalue = [1134, 79]"] ;
719 -> 720 ;
721 [label="since_start_utterance_in_words <= 7.5\ngini = 0.132\nsamples = 1000\nvalue = [929, 71]"] ;
720 -> 721 ;
722 [label="till_end_utterance_in_words <= 7.5\ngini = 0.099\nsamples = 381\nvalue = [361, 20]"] ;
721 -> 722 ;
723 [label="R_vsm_d6 <= 0.004\ngini = 0.064\nsamples = 180\nvalue = [174, 6]"] ;
722 -> 723 ;
724 [label="gini = 0.18\nsamples = 10\nvalue = [9, 1]"] ;
723 -> 724 ;
725 [label="since_start_utterance_in_words <= 6.5\ngini = 0.057\nsamples = 170\nvalue = [165, 5]"] ;
723 -> 725 ;
726 [label="till_end_utterance_in_words <= 4.5\ngini = 0.042\nsamples = 93\nvalue = [91, 2]"] ;
725 -> 726 ;
727 [label="gini = 0.0\nsamples = 22\nvalue = [22, 0]"] ;
726 -> 727 ;
728 [label="till_end_utterance_in_words <= 6.5\ngini = 0.055\nsamples = 71\nvalue = [69, 2]"] ;
726 -> 728 ;
729 [label="till_end_utterance_in_words <= 5.5\ngini = 0.07\nsamples = 55\nvalue = [53, 2]"] ;
728 -> 729 ;
730 [label="gini = 0.059\nsamples = 33\nvalue = [32, 1]"] ;
729 -> 730 ;
731 [label="gini = 0.087\nsamples = 22\nvalue = [21, 1]"] ;
729 -> 731 ;
732 [label="gini = 0.0\nsamples = 16\nvalue = [16, 0]"] ;
728 -> 732 ;
733 [label="till_end_utterance_in_words <= 6.5\ngini = 0.075\nsamples = 77\nvalue = [74, 3]"] ;
725 -> 733 ;
734 [label="till_end_utterance_in_words <= 4.5\ngini = 0.058\nsamples = 67\nvalue = [65, 2]"] ;
733 -> 734 ;
735 [label="gini = 0.117\nsamples = 32\nvalue = [30, 2]"] ;
734 -> 735 ;
736 [label="gini = 0.0\nsamples = 35\nvalue = [35, 0]"] ;
734 -> 736 ;
737 [label="gini = 0.18\nsamples = 10\nvalue = [9, 1]"] ;
733 -> 737 ;
738 [label="R_vsm_d5 <= 0.039\ngini = 0.13\nsamples = 201\nvalue = [187, 14]"] ;
722 -> 738 ;
739 [label="gini = 0.0\nsamples = 11\nvalue = [11, 0]"] ;
738 -> 739 ;
740 [label="till_end_utterance_in_words <= 17.5\ngini = 0.137\nsamples = 190\nvalue = [176, 14]"] ;
738 -> 740 ;
741 [label="till_end_utterance_in_words <= 13.5\ngini = 0.127\nsamples = 162\nvalue = [151, 11]"] ;
740 -> 741 ;
742 [label="till_end_utterance_in_words <= 11.5\ngini = 0.147\nsamples = 138\nvalue = [127, 11]"] ;
741 -> 742 ;
743 [label="since_start_utterance_in_words <= 6.5\ngini = 0.127\nsamples = 103\nvalue = [96, 7]"] ;
742 -> 743 ;
744 [label="till_end_utterance_in_words <= 9.5\ngini = 0.07\nsamples = 55\nvalue = [53, 2]"] ;
743 -> 744 ;
745 [label="gini = 0.0\nsamples = 30\nvalue = [30, 0]"] ;
744 -> 745 ;
746 [label="till_end_utterance_in_words <= 10.5\ngini = 0.147\nsamples = 25\nvalue = [23, 2]"] ;
744 -> 746 ;
747 [label="gini = 0.124\nsamples = 15\nvalue = [14, 1]"] ;
746 -> 747 ;
748 [label="gini = 0.18\nsamples = 10\nvalue = [9, 1]"] ;
746 -> 748 ;
749 [label="till_end_utterance_in_words <= 9.5\ngini = 0.187\nsamples = 48\nvalue = [43, 5]"] ;
743 -> 749 ;
750 [label="till_end_utterance_in_words <= 8.5\ngini = 0.269\nsamples = 25\nvalue = [21, 4]"] ;
749 -> 750 ;
751 [label="gini = 0.245\nsamples = 14\nvalue = [12, 2]"] ;
750 -> 751 ;
752 [label="gini = 0.298\nsamples = 11\nvalue = [9, 2]"] ;
750 -> 752 ;
753 [label="gini = 0.083\nsamples = 23\nvalue = [22, 1]"] ;
749 -> 753 ;
754 [label="since_start_utterance_in_words <= 6.5\ngini = 0.202\nsamples = 35\nvalue = [31, 4]"] ;
742 -> 754 ;
755 [label="gini = 0.255\nsamples = 20\nvalue = [17, 3]"] ;
754 -> 755 ;
756 [label="gini = 0.124\nsamples = 15\nvalue = [14, 1]"] ;
754 -> 756 ;
757 [label="gini = 0.0\nsamples = 24\nvalue = [24, 0]"] ;
741 -> 757 ;
758 [label="since_start_utterance_in_words <= 6.5\ngini = 0.191\nsamples = 28\nvalue = [25, 3]"] ;
740 -> 758 ;
759 [label="gini = 0.32\nsamples = 15\nvalue = [12, 3]"] ;
758 -> 759 ;
760 [label="gini = 0.0\nsamples = 13\nvalue = [13, 0]"] ;
758 -> 760 ;
761 [label="till_end_utterance_in_words <= 15.5\ngini = 0.151\nsamples = 619\nvalue = [568, 51]"] ;
721 -> 761 ;
762 [label="till_end_utterance_in_words <= 14.5\ngini = 0.161\nsamples = 544\nvalue = [496, 48]"] ;
761 -> 762 ;
763 [label="R_vsm_d4 <= 0.076\ngini = 0.151\nsamples = 533\nvalue = [489, 44]"] ;
762 -> 763 ;
764 [label="R_vsm_d5 <= 0.042\ngini = 0.148\nsamples = 523\nvalue = [481, 42]"] ;
763 -> 764 ;
765 [label="gini = 0.0\nsamples = 23\nvalue = [23, 0]"] ;
764 -> 765 ;
766 [label="L_vsm_d2 <= -0.024\ngini = 0.154\nsamples = 500\nvalue = [458, 42]"] ;
764 -> 766 ;
767 [label="gini = 0.291\nsamples = 17\nvalue = [14, 3]"] ;
766 -> 767 ;
768 [label="since_start_utterance_in_words <= 11.5\ngini = 0.148\nsamples = 483\nvalue = [444, 39]"] ;
766 -> 768 ;
769 [label="since_start_utterance_in_words <= 10.5\ngini = 0.161\nsamples = 351\nvalue = [320, 31]"] ;
768 -> 769 ;
770 [label="till_end_utterance_in_words <= 5.5\ngini = 0.148\nsamples = 285\nvalue = [262, 23]"] ;
769 -> 770 ;
771 [label="since_start_utterance_in_words <= 9.5\ngini = 0.107\nsamples = 106\nvalue = [100, 6]"] ;
770 -> 771 ;
772 [label="till_end_utterance_in_words <= 4.5\ngini = 0.155\nsamples = 71\nvalue = [65, 6]"] ;
771 -> 772 ;
773 [label="since_start_utterance_in_words <= 8.5\ngini = 0.214\nsamples = 41\nvalue = [36, 5]"] ;
772 -> 773 ;
774 [label="gini = 0.074\nsamples = 26\nvalue = [25, 1]"] ;
773 -> 774 ;
775 [label="gini = 0.391\nsamples = 15\nvalue = [11, 4]"] ;
773 -> 775 ;
776 [label="since_start_utterance_in_words <= 8.5\ngini = 0.064\nsamples = 30\nvalue = [29, 1]"] ;
772 -> 776 ;
777 [label="gini = 0.124\nsamples = 15\nvalue = [14, 1]"] ;
776 -> 777 ;
778 [label="gini = 0.0\nsamples = 15\nvalue = [15, 0]"] ;
776 -> 778 ;
779 [label="gini = 0.0\nsamples = 35\nvalue = [35, 0]"] ;
771 -> 779 ;
780 [label="since_start_utterance_in_words <= 8.5\ngini = 0.172\nsamples = 179\nvalue = [162, 17]"] ;
770 -> 780 ;
781 [label="till_end_utterance_in_words <= 11.5\ngini = 0.15\nsamples = 86\nvalue = [79, 7]"] ;
780 -> 781 ;
782 [label="till_end_utterance_in_words <= 8.5\ngini = 0.111\nsamples = 68\nvalue = [64, 4]"] ;
781 -> 782 ;
783 [label="till_end_utterance_in_words <= 6.5\ngini = 0.169\nsamples = 43\nvalue = [39, 4]"] ;
782 -> 783 ;
784 [label="gini = 0.231\nsamples = 15\nvalue = [13, 2]"] ;
783 -> 784 ;
785 [label="till_end_utterance_in_words <= 7.5\ngini = 0.133\nsamples = 28\nvalue = [26, 2]"] ;
783 -> 785 ;
786 [label="gini = 0.142\nsamples = 13\nvalue = [12, 1]"] ;
785 -> 786 ;
787 [label="gini = 0.124\nsamples = 15\nvalue = [14, 1]"] ;
785 -> 787 ;
788 [label="gini = 0.0\nsamples = 25\nvalue = [25, 0]"] ;
782 -> 788 ;
789 [label="gini = 0.278\nsamples = 18\nvalue = [15, 3]"] ;
781 -> 789 ;
790 [label="till_end_utterance_in_words <= 10.5\ngini = 0.192\nsamples = 93\nvalue = [83, 10]"] ;
780 -> 790 ;
791 [label="till_end_utterance_in_words <= 6.5\ngini = 0.224\nsamples = 78\nvalue = [68, 10]"] ;
790 -> 791 ;
792 [label="gini = 0.095\nsamples = 20\nvalue = [19, 1]"] ;
791 -> 792 ;
793 [label="till_end_utterance_in_words <= 9.5\ngini = 0.262\nsamples = 58\nvalue = [49, 9]"] ;
791 -> 793 ;
794 [label="till_end_utterance_in_words <= 7.5\ngini = 0.24\nsamples = 43\nvalue = [37, 6]"] ;
793 -> 794 ;
795 [label="gini = 0.291\nsamples = 17\nvalue = [14, 3]"] ;
794 -> 795 ;
796 [label="till_end_utterance_in_words <= 8.5\ngini = 0.204\nsamples = 26\nvalue = [23, 3]"] ;
794 -> 796 ;
797 [label="gini = 0.165\nsamples = 11\nvalue = [10, 1]"] ;
796 -> 797 ;
798 [label="gini = 0.231\nsamples = 15\nvalue = [13, 2]"] ;
796 -> 798 ;
799 [label="gini = 0.32\nsamples = 15\nvalue = [12, 3]"] ;
793 -> 799 ;
800 [label="gini = 0.0\nsamples = 15\nvalue = [15, 0]"] ;
790 -> 800 ;
801 [label="till_end_utterance_in_words <= 5.5\ngini = 0.213\nsamples = 66\nvalue = [58, 8]"] ;
769 -> 801 ;
802 [label="till_end_utterance_in_words <= 4.5\ngini = 0.346\nsamples = 27\nvalue = [21, 6]"] ;
801 -> 802 ;
803 [label="gini = 0.355\nsamples = 13\nvalue = [10, 3]"] ;
802 -> 803 ;
804 [label="gini = 0.337\nsamples = 14\nvalue = [11, 3]"] ;
802 -> 804 ;
805 [label="till_end_utterance_in_words <= 8.5\ngini = 0.097\nsamples = 39\nvalue = [37, 2]"] ;
801 -> 805 ;
806 [label="till_end_utterance_in_words <= 7.5\ngini = 0.153\nsamples = 24\nvalue = [22, 2]"] ;
805 -> 806 ;
807 [label="gini = 0.133\nsamples = 14\nvalue = [13, 1]"] ;
806 -> 807 ;
808 [label="gini = 0.18\nsamples = 10\nvalue = [9, 1]"] ;
806 -> 808 ;
809 [label="gini = 0.0\nsamples = 15\nvalue = [15, 0]"] ;
805 -> 809 ;
810 [label="till_end_utterance_in_words <= 9.5\ngini = 0.114\nsamples = 132\nvalue = [124, 8]"] ;
768 -> 810 ;
811 [label="till_end_utterance_in_words <= 4.5\ngini = 0.088\nsamples = 108\nvalue = [103, 5]"] ;
810 -> 811 ;
812 [label="since_start_utterance_in_words <= 13.5\ngini = 0.175\nsamples = 31\nvalue = [28, 3]"] ;
811 -> 812 ;
813 [label="gini = 0.188\nsamples = 19\nvalue = [17, 2]"] ;
812 -> 813 ;
814 [label="gini = 0.153\nsamples = 12\nvalue = [11, 1]"] ;
812 -> 814 ;
815 [label="till_end_utterance_in_words <= 6.5\ngini = 0.051\nsamples = 77\nvalue = [75, 2]"] ;
811 -> 815 ;
816 [label="since_start_utterance_in_words <= 13.5\ngini = 0.08\nsamples = 48\nvalue = [46, 2]"] ;
815 -> 816 ;
817 [label="since_start_utterance_in_words <= 12.5\ngini = 0.121\nsamples = 31\nvalue = [29, 2]"] ;
816 -> 817 ;
818 [label="gini = 0.153\nsamples = 12\nvalue = [11, 1]"] ;
817 -> 818 ;
819 [label="gini = 0.1\nsamples = 19\nvalue = [18, 1]"] ;
817 -> 819 ;
820 [label="gini = 0.0\nsamples = 17\nvalue = [17, 0]"] ;
816 -> 820 ;
821 [label="gini = 0.0\nsamples = 29\nvalue = [29, 0]"] ;
815 -> 821 ;
822 [label="till_end_utterance_in_words <= 11.5\ngini = 0.219\nsamples = 24\nvalue = [21, 3]"] ;
810 -> 822 ;
823 [label="gini = 0.298\nsamples = 11\nvalue = [9, 2]"] ;
822 -> 823 ;
824 [label="gini = 0.142\nsamples = 13\nvalue = [12, 1]"] ;
822 -> 824 ;
825 [label="gini = 0.32\nsamples = 10\nvalue = [8, 2]"] ;
763 -> 825 ;
826 [label="gini = 0.463\nsamples = 11\nvalue = [7, 4]"] ;
762 -> 826 ;
827 [label="till_end_utterance_in_words <= 18.5\ngini = 0.077\nsamples = 75\nvalue = [72, 3]"] ;
761 -> 827 ;
828 [label="gini = 0.0\nsamples = 37\nvalue = [37, 0]"] ;
827 -> 828 ;
829 [label="till_end_utterance_in_words <= 21.5\ngini = 0.145\nsamples = 38\nvalue = [35, 3]"] ;
827 -> 829 ;
830 [label="since_start_utterance_in_words <= 10.5\ngini = 0.245\nsamples = 21\nvalue = [18, 3]"] ;
829 -> 830 ;
831 [label="gini = 0.298\nsamples = 11\nvalue = [9, 2]"] ;
830 -> 831 ;
832 [label="gini = 0.18\nsamples = 10\nvalue = [9, 1]"] ;
830 -> 832 ;
833 [label="gini = 0.0\nsamples = 17\nvalue = [17, 0]"] ;
829 -> 833 ;
834 [label="since_start_utterance_in_words <= 22.5\ngini = 0.072\nsamples = 213\nvalue = [205, 8]"] ;
720 -> 834 ;
835 [label="till_end_utterance_in_words <= 4.5\ngini = 0.087\nsamples = 175\nvalue = [167, 8]"] ;
834 -> 835 ;
836 [label="since_start_utterance_in_words <= 17.5\ngini = 0.161\nsamples = 34\nvalue = [31, 3]"] ;
835 -> 836 ;
837 [label="gini = 0.083\nsamples = 23\nvalue = [22, 1]"] ;
836 -> 837 ;
838 [label="gini = 0.298\nsamples = 11\nvalue = [9, 2]"] ;
836 -> 838 ;
839 [label="till_end_utterance_in_words <= 12.5\ngini = 0.068\nsamples = 141\nvalue = [136, 5]"] ;
835 -> 839 ;
840 [label="till_end_utterance_in_words <= 6.5\ngini = 0.038\nsamples = 104\nvalue = [102, 2]"] ;
839 -> 840 ;
841 [label="gini = 0.0\nsamples = 40\nvalue = [40, 0]"] ;
840 -> 841 ;
842 [label="till_end_utterance_in_words <= 9.5\ngini = 0.061\nsamples = 64\nvalue = [62, 2]"] ;
840 -> 842 ;
843 [label="since_start_utterance_in_words <= 19.5\ngini = 0.102\nsamples = 37\nvalue = [35, 2]"] ;
842 -> 843 ;
844 [label="till_end_utterance_in_words <= 7.5\ngini = 0.137\nsamples = 27\nvalue = [25, 2]"] ;
843 -> 844 ;
845 [label="gini = 0.18\nsamples = 10\nvalue = [9, 1]"] ;
844 -> 845 ;
846 [label="gini = 0.111\nsamples = 17\nvalue = [16, 1]"] ;
844 -> 846 ;
847 [label="gini = 0.0\nsamples = 10\nvalue = [10, 0]"] ;
843 -> 847 ;
848 [label="gini = 0.0\nsamples = 27\nvalue = [27, 0]"] ;
842 -> 848 ;
849 [label="till_end_utterance_in_words <= 15.5\ngini = 0.149\nsamples = 37\nvalue = [34, 3]"] ;
839 -> 849 ;
850 [label="gini = 0.278\nsamples = 18\nvalue = [15, 3]"] ;
849 -> 850 ;
851 [label="gini = 0.0\nsamples = 19\nvalue = [19, 0]"] ;
849 -> 851 ;
852 [label="gini = 0.0\nsamples = 38\nvalue = [38, 0]"] ;
834 -> 852 ;
853 [label="since_start_utterance_in_words <= 30.5\ngini = 0.255\nsamples = 20\nvalue = [17, 3]"] ;
719 -> 853 ;
854 [label="gini = 0.32\nsamples = 10\nvalue = [8, 2]"] ;
853 -> 854 ;
855 [label="gini = 0.18\nsamples = 10\nvalue = [9, 1]"] ;
853 -> 855 ;
856 [label="L_vsm_d9 <= -0.016\ngini = 0.252\nsamples = 27\nvalue = [23, 4]"] ;
704 -> 856 ;
857 [label="gini = 0.0\nsamples = 12\nvalue = [12, 0]"] ;
856 -> 857 ;
858 [label="gini = 0.391\nsamples = 15\nvalue = [11, 4]"] ;
856 -> 858 ;
859 [label="gini = 0.0\nsamples = 48\nvalue = [48, 0]"] ;
703 -> 859 ;
860 [label="R_vsm_d9 <= -0.014\ngini = 0.308\nsamples = 21\nvalue = [17, 4]"] ;
702 -> 860 ;
861 [label="gini = 0.42\nsamples = 10\nvalue = [7, 3]"] ;
860 -> 861 ;
862 [label="gini = 0.165\nsamples = 11\nvalue = [10, 1]"] ;
860 -> 862 ;
863 [label="L_vsm_d1 <= 1.0\ngini = 0.414\nsamples = 41\nvalue = [29, 12]"] ;
701 -> 863 ;
864 [label="gini = 0.463\nsamples = 11\nvalue = [4, 7]"] ;
863 -> 864 ;
865 [label="L_vsm_d6 <= -0.012\ngini = 0.278\nsamples = 30\nvalue = [25, 5]"] ;
863 -> 865 ;
866 [label="gini = 0.48\nsamples = 10\nvalue = [6, 4]"] ;
865 -> 866 ;
867 [label="L_vsm_d7 <= 0.016\ngini = 0.095\nsamples = 20\nvalue = [19, 1]"] ;
865 -> 867 ;
868 [label="gini = 0.0\nsamples = 10\nvalue = [10, 0]"] ;
867 -> 868 ;
869 [label="gini = 0.18\nsamples = 10\nvalue = [9, 1]"] ;
867 -> 869 ;
870 [label="gini = 0.42\nsamples = 10\nvalue = [7, 3]"] ;
692 -> 870 ;
871 [label="R_vsm_d7 <= 0.092\ngini = 0.054\nsamples = 251\nvalue = [244, 7]"] ;
691 -> 871 ;
872 [label="R_vsm_d3 <= 0.144\ngini = 0.036\nsamples = 218\nvalue = [214, 4]"] ;
871 -> 872 ;
873 [label="R_vsm_d9 <= -0.03\ngini = 0.02\nsamples = 194\nvalue = [192, 2]"] ;
872 -> 873 ;
874 [label="R_vsm_d4 <= 0.091\ngini = 0.153\nsamples = 24\nvalue = [22, 2]"] ;
873 -> 874 ;
875 [label="gini = 0.0\nsamples = 14\nvalue = [14, 0]"] ;
874 -> 875 ;
876 [label="gini = 0.32\nsamples = 10\nvalue = [8, 2]"] ;
874 -> 876 ;
877 [label="gini = 0.0\nsamples = 170\nvalue = [170, 0]"] ;
873 -> 877 ;
878 [label="R_vsm_d1 <= 0.388\ngini = 0.153\nsamples = 24\nvalue = [22, 2]"] ;
872 -> 878 ;
879 [label="gini = 0.32\nsamples = 10\nvalue = [8, 2]"] ;
878 -> 879 ;
880 [label="gini = 0.0\nsamples = 14\nvalue = [14, 0]"] ;
878 -> 880 ;
881 [label="till_end_utterance_in_words <= 7.5\ngini = 0.165\nsamples = 33\nvalue = [30, 3]"] ;
871 -> 881 ;
882 [label="gini = 0.0\nsamples = 17\nvalue = [17, 0]"] ;
881 -> 882 ;
883 [label="gini = 0.305\nsamples = 16\nvalue = [13, 3]"] ;
881 -> 883 ;
884 [label="gini = 0.375\nsamples = 12\nvalue = [9, 3]"] ;
688 -> 884 ;
885 [label="R_vsm_d6 <= 0.02\ngini = 0.298\nsamples = 33\nvalue = [27, 6]"] ;
687 -> 885 ;
886 [label="gini = 0.0\nsamples = 14\nvalue = [14, 0]"] ;
885 -> 886 ;
887 [label="gini = 0.432\nsamples = 19\nvalue = [13, 6]"] ;
885 -> 887 ;
888 [label="gini = 0.375\nsamples = 16\nvalue = [12, 4]"] ;
686 -> 888 ;
889 [label="gini = 0.48\nsamples = 15\nvalue = [9, 6]"] ;
685 -> 889 ;
890 [label="gini = 0.0\nsamples = 101\nvalue = [101, 0]"] ;
684 -> 890 ;
891 [label="gini = 0.388\nsamples = 19\nvalue = [14, 5]"] ;
683 -> 891 ;
892 [label="since_start_utterance_in_words <= 12.5\ngini = 0.366\nsamples = 29\nvalue = [22, 7]"] ;
682 -> 892 ;
893 [label="gini = 0.465\nsamples = 19\nvalue = [12, 7]"] ;
892 -> 893 ;
894 [label="gini = 0.0\nsamples = 10\nvalue = [10, 0]"] ;
892 -> 894 ;
895 [label="gini = 0.496\nsamples = 11\nvalue = [6, 5]"] ;
599 -> 895 ;
896 [label="till_end_utterance_in_words <= 0.5\ngini = 0.218\nsamples = 3378\nvalue = [420, 2958]"] ;
0 -> 896 [labeldistance=2.5, labelangle=-45, headlabel="False"] ;
897 [label="L_vsm_d10 <= 0.066\ngini = 0.009\nsamples = 2140\nvalue = [10, 2130]"] ;
896 -> 897 ;
898 [label="since_start_utterance_in_words <= 21.5\ngini = 0.007\nsamples = 2128\nvalue = [8, 2120]"] ;
897 -> 898 ;
899 [label="L_vsm_d4 <= 0.1\ngini = 0.006\nsamples = 2044\nvalue = [6, 2038]"] ;
898 -> 899 ;
900 [label="L_vsm_d8 <= 0.003\ngini = 0.005\nsamples = 2005\nvalue = [5, 2000]"] ;
899 -> 900 ;
901 [label="gini = 0.0\nsamples = 979\nvalue = [0, 979]"] ;
900 -> 901 ;
902 [label="L_vsm_d9 <= -0.021\ngini = 0.01\nsamples = 1026\nvalue = [5, 1021]"] ;
900 -> 902 ;
903 [label="L_vsm_d5 <= -0.075\ngini = 0.067\nsamples = 29\nvalue = [1, 28]"] ;
902 -> 903 ;
904 [label="gini = 0.18\nsamples = 10\nvalue = [1, 9]"] ;
903 -> 904 ;
905 [label="gini = 0.0\nsamples = 19\nvalue = [0, 19]"] ;
903 -> 905 ;
906 [label="since_start_utterance_in_words <= 7.5\ngini = 0.008\nsamples = 997\nvalue = [4, 993]"] ;
902 -> 906 ;
907 [label="gini = 0.0\nsamples = 362\nvalue = [0, 362]"] ;
906 -> 907 ;
908 [label="since_start_utterance_in_words <= 10.5\ngini = 0.013\nsamples = 635\nvalue = [4, 631]"] ;
906 -> 908 ;
909 [label="L_vsm_d3 <= 0.613\ngini = 0.027\nsamples = 287\nvalue = [4, 283]"] ;
908 -> 909 ;
910 [label="since_start_utterance_in_words <= 8.5\ngini = 0.022\nsamples = 267\nvalue = [3, 264]"] ;
909 -> 910 ;
911 [label="gini = 0.0\nsamples = 111\nvalue = [0, 111]"] ;
910 -> 911 ;
912 [label="L_vsm_d2 <= 0.2\ngini = 0.038\nsamples = 156\nvalue = [3, 153]"] ;
910 -> 912 ;
913 [label="since_start_utterance_in_words <= 9.5\ngini = 0.058\nsamples = 101\nvalue = [3, 98]"] ;
912 -> 913 ;
914 [label="gini = 0.065\nsamples = 59\nvalue = [2, 57]"] ;
913 -> 914 ;
915 [label="gini = 0.046\nsamples = 42\nvalue = [1, 41]"] ;
913 -> 915 ;
916 [label="gini = 0.0\nsamples = 55\nvalue = [0, 55]"] ;
912 -> 916 ;
917 [label="L_vsm_d4 <= -0.347\ngini = 0.095\nsamples = 20\nvalue = [1, 19]"] ;
909 -> 917 ;
918 [label="gini = 0.0\nsamples = 10\nvalue = [0, 10]"] ;
917 -> 918 ;
919 [label="gini = 0.18\nsamples = 10\nvalue = [1, 9]"] ;
917 -> 919 ;
920 [label="gini = 0.0\nsamples = 348\nvalue = [0, 348]"] ;
908 -> 920 ;
921 [label="L_vsm_d7 <= 0.024\ngini = 0.05\nsamples = 39\nvalue = [1, 38]"] ;
899 -> 921 ;
922 [label="gini = 0.0\nsamples = 29\nvalue = [0, 29]"] ;
921 -> 922 ;
923 [label="gini = 0.18\nsamples = 10\nvalue = [1, 9]"] ;
921 -> 923 ;
924 [label="L_vsm_d2 <= 0.517\ngini = 0.046\nsamples = 84\nvalue = [2, 82]"] ;
898 -> 924 ;
925 [label="since_start_utterance_in_words <= 26.5\ngini = 0.114\nsamples = 33\nvalue = [2, 31]"] ;
924 -> 925 ;
926 [label="gini = 0.245\nsamples = 14\nvalue = [2, 12]"] ;
925 -> 926 ;
927 [label="gini = 0.0\nsamples = 19\nvalue = [0, 19]"] ;
925 -> 927 ;
928 [label="gini = 0.0\nsamples = 51\nvalue = [0, 51]"] ;
924 -> 928 ;
929 [label="gini = 0.278\nsamples = 12\nvalue = [2, 10]"] ;
897 -> 929 ;
930 [label="since_start_utterance_in_words <= 3.5\ngini = 0.443\nsamples = 1238\nvalue = [410, 828]"] ;
896 -> 930 ;
931 [label="L_vsm_d9 <= 0.02\ngini = 0.5\nsamples = 308\nvalue = [152, 156]"] ;
930 -> 931 ;
932 [label="L_vsm_d7 <= -0.149\ngini = 0.471\nsamples = 211\nvalue = [131, 80]"] ;
931 -> 932 ;
933 [label="R_vsm_d7 <= -0.001\ngini = 0.121\nsamples = 31\nvalue = [29, 2]"] ;
932 -> 933 ;
934 [label="gini = 0.188\nsamples = 19\nvalue = [17, 2]"] ;
933 -> 934 ;
935 [label="gini = 0.0\nsamples = 12\nvalue = [12, 0]"] ;
933 -> 935 ;
936 [label="R_vsm_d3 <= -0.008\ngini = 0.491\nsamples = 180\nvalue = [102, 78]"] ;
932 -> 936 ;
937 [label="gini = 0.133\nsamples = 14\nvalue = [1, 13]"] ;
936 -> 937 ;
938 [label="R_vsm_d2 <= -0.337\ngini = 0.476\nsamples = 166\nvalue = [101, 65]"] ;
936 -> 938 ;
939 [label="gini = 0.391\nsamples = 15\nvalue = [4, 11]"] ;
938 -> 939 ;
940 [label="R_vsm_d8 <= -0.003\ngini = 0.459\nsamples = 151\nvalue = [97, 54]"] ;
938 -> 940 ;
941 [label="gini = 0.0\nsamples = 12\nvalue = [12, 0]"] ;
940 -> 941 ;
942 [label="L_vsm_d10 <= -0.006\ngini = 0.475\nsamples = 139\nvalue = [85, 54]"] ;
940 -> 942 ;
943 [label="gini = 0.397\nsamples = 11\nvalue = [3, 8]"] ;
942 -> 943 ;
944 [label="till_end_utterance_in_words <= 7.5\ngini = 0.46\nsamples = 128\nvalue = [82, 46]"] ;
942 -> 944 ;
945 [label="since_start_utterance_in_words <= 1.5\ngini = 0.495\nsamples = 62\nvalue = [34, 28]"] ;
944 -> 945 ;
946 [label="till_end_utterance_in_words <= 5.5\ngini = 0.408\nsamples = 21\nvalue = [15, 6]"] ;
945 -> 946 ;
947 [label="gini = 0.298\nsamples = 11\nvalue = [9, 2]"] ;
946 -> 947 ;
948 [label="gini = 0.48\nsamples = 10\nvalue = [6, 4]"] ;
946 -> 948 ;
949 [label="R_vsm_d5 <= 0.043\ngini = 0.497\nsamples = 41\nvalue = [19, 22]"] ;
945 -> 949 ;
950 [label="gini = 0.463\nsamples = 11\nvalue = [4, 7]"] ;
949 -> 950 ;
951 [label="since_start_utterance_in_words <= 2.5\ngini = 0.5\nsamples = 30\nvalue = [15, 15]"] ;
949 -> 951 ;
952 [label="gini = 0.497\nsamples = 13\nvalue = [7, 6]"] ;
951 -> 952 ;
953 [label="gini = 0.498\nsamples = 17\nvalue = [8, 9]"] ;
951 -> 953 ;
954 [label="R_vsm_d1 <= 0.533\ngini = 0.397\nsamples = 66\nvalue = [48, 18]"] ;
944 -> 954 ;
955 [label="gini = 0.105\nsamples = 18\nvalue = [17, 1]"] ;
954 -> 955 ;
956 [label="till_end_utterance_in_words <= 15.5\ngini = 0.457\nsamples = 48\nvalue = [31, 17]"] ;
954 -> 956 ;
957 [label="till_end_utterance_in_words <= 9.5\ngini = 0.411\nsamples = 38\nvalue = [27, 11]"] ;
956 -> 957 ;
958 [label="gini = 0.337\nsamples = 14\nvalue = [11, 3]"] ;
957 -> 958 ;
959 [label="since_start_utterance_in_words <= 1.5\ngini = 0.444\nsamples = 24\nvalue = [16, 8]"] ;
957 -> 959 ;
960 [label="gini = 0.42\nsamples = 10\nvalue = [7, 3]"] ;
959 -> 960 ;
961 [label="gini = 0.459\nsamples = 14\nvalue = [9, 5]"] ;
959 -> 961 ;
962 [label="gini = 0.48\nsamples = 10\nvalue = [4, 6]"] ;
956 -> 962 ;
963 [label="L_vsm_d3 <= -0.009\ngini = 0.339\nsamples = 97\nvalue = [21, 76]"] ;
931 -> 963 ;
964 [label="gini = 0.499\nsamples = 19\nvalue = [10, 9]"] ;
963 -> 964 ;
965 [label="L_vsm_d10 <= -0.01\ngini = 0.242\nsamples = 78\nvalue = [11, 67]"] ;
963 -> 965 ;
966 [label="R_vsm_d10 <= -0.003\ngini = 0.4\nsamples = 29\nvalue = [8, 21]"] ;
965 -> 966 ;
967 [label="gini = 0.5\nsamples = 12\nvalue = [6, 6]"] ;
966 -> 967 ;
968 [label="gini = 0.208\nsamples = 17\nvalue = [2, 15]"] ;
966 -> 968 ;
969 [label="R_vsm_d1 <= 0.253\ngini = 0.115\nsamples = 49\nvalue = [3, 46]"] ;
965 -> 969 ;
970 [label="gini = 0.42\nsamples = 10\nvalue = [3, 7]"] ;
969 -> 970 ;
971 [label="gini = 0.0\nsamples = 39\nvalue = [0, 39]"] ;
969 -> 971 ;
972 [label="L_vsm_d7 <= 0.042\ngini = 0.401\nsamples = 930\nvalue = [258, 672]"] ;
930 -> 972 ;
973 [label="L_vsm_d4 <= 0.006\ngini = 0.384\nsamples = 893\nvalue = [231, 662]"] ;
972 -> 973 ;
974 [label="R_vsm_d9 <= 0.013\ngini = 0.169\nsamples = 204\nvalue = [19, 185]"] ;
973 -> 974 ;
975 [label="L_vsm_d2 <= -0.225\ngini = 0.136\nsamples = 191\nvalue = [14, 177]"] ;
974 -> 975 ;
976 [label="gini = 0.459\nsamples = 14\nvalue = [5, 9]"] ;
975 -> 976 ;
977 [label="R_vsm_d5 <= 0.15\ngini = 0.097\nsamples = 177\nvalue = [9, 168]"] ;
975 -> 977 ;
978 [label="L_vsm_d3 <= -0.044\ngini = 0.07\nsamples = 164\nvalue = [6, 158]"] ;
977 -> 978 ;
979 [label="gini = 0.32\nsamples = 10\nvalue = [2, 8]"] ;
978 -> 979 ;
980 [label="L_vsm_d2 <= 0.724\ngini = 0.051\nsamples = 154\nvalue = [4, 150]"] ;
978 -> 980 ;
981 [label="L_vsm_d2 <= -0.077\ngini = 0.019\nsamples = 106\nvalue = [1, 105]"] ;
980 -> 981 ;
982 [label="gini = 0.124\nsamples = 15\nvalue = [1, 14]"] ;
981 -> 982 ;
983 [label="gini = 0.0\nsamples = 91\nvalue = [0, 91]"] ;
981 -> 983 ;
984 [label="L_vsm_d10 <= -0.001\ngini = 0.117\nsamples = 48\nvalue = [3, 45]"] ;
980 -> 984 ;
985 [label="R_vsm_d7 <= 0.049\ngini = 0.053\nsamples = 37\nvalue = [1, 36]"] ;
984 -> 985 ;
986 [label="gini = 0.0\nsamples = 27\nvalue = [0, 27]"] ;
985 -> 986 ;
987 [label="gini = 0.18\nsamples = 10\nvalue = [1, 9]"] ;
985 -> 987 ;
988 [label="gini = 0.298\nsamples = 11\nvalue = [2, 9]"] ;
984 -> 988 ;
989 [label="gini = 0.355\nsamples = 13\nvalue = [3, 10]"] ;
977 -> 989 ;
990 [label="gini = 0.473\nsamples = 13\nvalue = [5, 8]"] ;
974 -> 990 ;
991 [label="till_end_utterance_in_words <= 2.5\ngini = 0.426\nsamples = 689\nvalue = [212, 477]"] ;
973 -> 991 ;
992 [label="R_vsm_d10 <= -0.0\ngini = 0.459\nsamples = 42\nvalue = [27, 15]"] ;
991 -> 992 ;
993 [label="gini = 0.26\nsamples = 13\nvalue = [11, 2]"] ;
992 -> 993 ;
994 [label="since_start_utterance_in_words <= 11.5\ngini = 0.495\nsamples = 29\nvalue = [16, 13]"] ;
992 -> 994 ;
995 [label="gini = 0.494\nsamples = 18\nvalue = [8, 10]"] ;
994 -> 995 ;
996 [label="gini = 0.397\nsamples = 11\nvalue = [8, 3]"] ;
994 -> 996 ;
997 [label="L_vsm_d9 <= 0.034\ngini = 0.408\nsamples = 647\nvalue = [185, 462]"] ;
991 -> 997 ;
998 [label="R_vsm_d2 <= -0.066\ngini = 0.432\nsamples = 579\nvalue = [183, 396]"] ;
997 -> 998 ;
999 [label="R_vsm_d7 <= -0.026\ngini = 0.313\nsamples = 170\nvalue = [33, 137]"] ;
998 -> 999 ;
1000 [label="gini = 0.48\nsamples = 10\nvalue = [6, 4]"] ;
999 -> 1000 ;
1001 [label="L_vsm_d1 <= 0.677\ngini = 0.281\nsamples = 160\nvalue = [27, 133]"] ;
999 -> 1001 ;
1002 [label="R_vsm_d5 <= 0.018\ngini = 0.248\nsamples = 145\nvalue = [21, 124]"] ;
1001 -> 1002 ;
1003 [label="R_vsm_d2 <= -0.399\ngini = 0.139\nsamples = 80\nvalue = [6, 74]"] ;
1002 -> 1003 ;
1004 [label="gini = 0.397\nsamples = 11\nvalue = [3, 8]"] ;
1003 -> 1004 ;
1005 [label="R_vsm_d5 <= -0.057\ngini = 0.083\nsamples = 69\nvalue = [3, 66]"] ;
1003 -> 1005 ;
1006 [label="gini = 0.337\nsamples = 14\nvalue = [3, 11]"] ;
1005 -> 1006 ;
1007 [label="gini = 0.0\nsamples = 55\nvalue = [0, 55]"] ;
1005 -> 1007 ;
1008 [label="R_vsm_d10 <= -0.023\ngini = 0.355\nsamples = 65\nvalue = [15, 50]"] ;
1002 -> 1008 ;
1009 [label="R_vsm_d10 <= -0.038\ngini = 0.224\nsamples = 39\nvalue = [5, 34]"] ;
1008 -> 1009 ;
1010 [label="R_vsm_d7 <= 0.155\ngini = 0.351\nsamples = 22\nvalue = [5, 17]"] ;
1009 -> 1010 ;
1011 [label="gini = 0.463\nsamples = 11\nvalue = [4, 7]"] ;
1010 -> 1011 ;
1012 [label="gini = 0.165\nsamples = 11\nvalue = [1, 10]"] ;
1010 -> 1012 ;
1013 [label="gini = 0.0\nsamples = 17\nvalue = [0, 17]"] ;
1009 -> 1013 ;
1014 [label="till_end_utterance_in_words <= 6.5\ngini = 0.473\nsamples = 26\nvalue = [10, 16]"] ;
1008 -> 1014 ;
1015 [label="gini = 0.42\nsamples = 10\nvalue = [7, 3]"] ;
1014 -> 1015 ;
1016 [label="gini = 0.305\nsamples = 16\nvalue = [3, 13]"] ;
1014 -> 1016 ;
1017 [label="gini = 0.48\nsamples = 15\nvalue = [6, 9]"] ;
1001 -> 1017 ;
1018 [label="R_vsm_d6 <= 0.289\ngini = 0.464\nsamples = 409\nvalue = [150, 259]"] ;
998 -> 1018 ;
1019 [label="L_vsm_d4 <= 0.011\ngini = 0.457\nsamples = 397\nvalue = [140, 257]"] ;
1018 -> 1019 ;
1020 [label="gini = 0.426\nsamples = 13\nvalue = [9, 4]"] ;
1019 -> 1020 ;
1021 [label="L_vsm_d1 <= 0.756\ngini = 0.45\nsamples = 384\nvalue = [131, 253]"] ;
1019 -> 1021 ;
1022 [label="L_vsm_d1 <= 0.697\ngini = 0.441\nsamples = 368\nvalue = [121, 247]"] ;
1021 -> 1022 ;
1023 [label="R_vsm_d3 <= -0.145\ngini = 0.449\nsamples = 355\nvalue = [121, 234]"] ;
1022 -> 1023 ;
1024 [label="gini = 0.42\nsamples = 10\nvalue = [7, 3]"] ;
1023 -> 1024 ;
1025 [label="since_start_utterance_in_words <= 10.5\ngini = 0.442\nsamples = 345\nvalue = [114, 231]"] ;
1023 -> 1025 ;
1026 [label="till_end_utterance_in_words <= 8.5\ngini = 0.41\nsamples = 215\nvalue = [62, 153]"] ;
1025 -> 1026 ;
1027 [label="till_end_utterance_in_words <= 5.5\ngini = 0.365\nsamples = 133\nvalue = [32, 101]"] ;
1026 -> 1027 ;
1028 [label="since_start_utterance_in_words <= 5.5\ngini = 0.41\nsamples = 73\nvalue = [21, 52]"] ;
1027 -> 1028 ;
1029 [label="till_end_utterance_in_words <= 4.5\ngini = 0.477\nsamples = 28\nvalue = [11, 17]"] ;
1028 -> 1029 ;
1030 [label="gini = 0.346\nsamples = 18\nvalue = [4, 14]"] ;
1029 -> 1030 ;
1031 [label="gini = 0.42\nsamples = 10\nvalue = [7, 3]"] ;
1029 -> 1031 ;
1032 [label="R_vsm_d3 <= 0.033\ngini = 0.346\nsamples = 45\nvalue = [10, 35]"] ;
1028 -> 1032 ;
1033 [label="gini = 0.459\nsamples = 14\nvalue = [5, 9]"] ;
1032 -> 1033 ;
1034 [label="since_start_utterance_in_words <= 7.5\ngini = 0.271\nsamples = 31\nvalue = [5, 26]"] ;
1032 -> 1034 ;
1035 [label="gini = 0.208\nsamples = 17\nvalue = [2, 15]"] ;
1034 -> 1035 ;
1036 [label="gini = 0.337\nsamples = 14\nvalue = [3, 11]"] ;
1034 -> 1036 ;
1037 [label="since_start_utterance_in_words <= 6.5\ngini = 0.299\nsamples = 60\nvalue = [11, 49]"] ;
1027 -> 1037 ;
1038 [label="till_end_utterance_in_words <= 6.5\ngini = 0.358\nsamples = 30\nvalue = [7, 23]"] ;
1037 -> 1038 ;
1039 [label="gini = 0.444\nsamples = 15\nvalue = [5, 10]"] ;
1038 -> 1039 ;
1040 [label="gini = 0.231\nsamples = 15\nvalue = [2, 13]"] ;
1038 -> 1040 ;
1041 [label="till_end_utterance_in_words <= 6.5\ngini = 0.231\nsamples = 30\nvalue = [4, 26]"] ;
1037 -> 1041 ;
1042 [label="gini = 0.133\nsamples = 14\nvalue = [1, 13]"] ;
1041 -> 1042 ;
1043 [label="gini = 0.305\nsamples = 16\nvalue = [3, 13]"] ;
1041 -> 1043 ;
1044 [label="till_end_utterance_in_words <= 15.5\ngini = 0.464\nsamples = 82\nvalue = [30, 52]"] ;
1026 -> 1044 ;
1045 [label="since_start_utterance_in_words <= 5.5\ngini = 0.48\nsamples = 65\nvalue = [26, 39]"] ;
1044 -> 1045 ;
1046 [label="till_end_utterance_in_words <= 10.5\ngini = 0.497\nsamples = 24\nvalue = [11, 13]"] ;
1045 -> 1046 ;
1047 [label="gini = 0.42\nsamples = 10\nvalue = [3, 7]"] ;
1046 -> 1047 ;
1048 [label="gini = 0.49\nsamples = 14\nvalue = [8, 6]"] ;
1046 -> 1048 ;
1049 [label="till_end_utterance_in_words <= 11.5\ngini = 0.464\nsamples = 41\nvalue = [15, 26]"] ;
1045 -> 1049 ;
1050 [label="since_start_utterance_in_words <= 7.5\ngini = 0.493\nsamples = 25\nvalue = [11, 14]"] ;
1049 -> 1050 ;
1051 [label="gini = 0.49\nsamples = 14\nvalue = [6, 8]"] ;
1050 -> 1051 ;
1052 [label="gini = 0.496\nsamples = 11\nvalue = [5, 6]"] ;
1050 -> 1052 ;
1053 [label="gini = 0.375\nsamples = 16\nvalue = [4, 12]"] ;
1049 -> 1053 ;
1054 [label="gini = 0.36\nsamples = 17\nvalue = [4, 13]"] ;
1044 -> 1054 ;
1055 [label="R_vsm_d5 <= 0.05\ngini = 0.48\nsamples = 130\nvalue = [52, 78]"] ;
1025 -> 1055 ;
1056 [label="gini = 0.266\nsamples = 19\nvalue = [3, 16]"] ;
1055 -> 1056 ;
1057 [label="till_end_utterance_in_words <= 4.5\ngini = 0.493\nsamples = 111\nvalue = [49, 62]"] ;
1055 -> 1057 ;
1058 [label="till_end_utterance_in_words <= 3.5\ngini = 0.473\nsamples = 26\nvalue = [16, 10]"] ;
1057 -> 1058 ;
1059 [label="gini = 0.492\nsamples = 16\nvalue = [9, 7]"] ;
1058 -> 1059 ;
1060 [label="gini = 0.42\nsamples = 10\nvalue = [7, 3]"] ;
1058 -> 1060 ;
1061 [label="since_start_utterance_in_words <= 23.5\ngini = 0.475\nsamples = 85\nvalue = [33, 52]"] ;
1057 -> 1061 ;
1062 [label="since_start_utterance_in_words <= 18.5\ngini = 0.462\nsamples = 69\nvalue = [25, 44]"] ;
1061 -> 1062 ;
1063 [label="since_start_utterance_in_words <= 15.5\ngini = 0.481\nsamples = 57\nvalue = [23, 34]"] ;
1062 -> 1063 ;
1064 [label="till_end_utterance_in_words <= 7.5\ngini = 0.457\nsamples = 34\nvalue = [12, 22]"] ;
1063 -> 1064 ;
1065 [label="gini = 0.497\nsamples = 13\nvalue = [6, 7]"] ;
1064 -> 1065 ;
1066 [label="since_start_utterance_in_words <= 12.5\ngini = 0.408\nsamples = 21\nvalue = [6, 15]"] ;
1064 -> 1066 ;
1067 [label="gini = 0.496\nsamples = 11\nvalue = [5, 6]"] ;
1066 -> 1067 ;
1068 [label="gini = 0.18\nsamples = 10\nvalue = [1, 9]"] ;
1066 -> 1068 ;
1069 [label="till_end_utterance_in_words <= 8.5\ngini = 0.499\nsamples = 23\nvalue = [11, 12]"] ;
1063 -> 1069 ;
1070 [label="gini = 0.5\nsamples = 12\nvalue = [6, 6]"] ;
1069 -> 1070 ;
1071 [label="gini = 0.496\nsamples = 11\nvalue = [5, 6]"] ;
1069 -> 1071 ;
1072 [label="gini = 0.278\nsamples = 12\nvalue = [2, 10]"] ;
1062 -> 1072 ;
1073 [label="gini = 0.5\nsamples = 16\nvalue = [8, 8]"] ;
1061 -> 1073 ;
1074 [label="gini = 0.0\nsamples = 13\nvalue = [0, 13]"] ;
1022 -> 1074 ;
1075 [label="gini = 0.469\nsamples = 16\nvalue = [10, 6]"] ;
1021 -> 1075 ;
1076 [label="gini = 0.278\nsamples = 12\nvalue = [10, 2]"] ;
1018 -> 1076 ;
1077 [label="R_vsm_d7 <= 0.087\ngini = 0.057\nsamples = 68\nvalue = [2, 66]"] ;
997 -> 1077 ;
1078 [label="since_start_utterance_in_words <= 5.5\ngini = 0.034\nsamples = 58\nvalue = [1, 57]"] ;
1077 -> 1078 ;
1079 [label="gini = 0.083\nsamples = 23\nvalue = [1, 22]"] ;
1078 -> 1079 ;
1080 [label="gini = 0.0\nsamples = 35\nvalue = [0, 35]"] ;
1078 -> 1080 ;
1081 [label="gini = 0.18\nsamples = 10\nvalue = [1, 9]"] ;
1077 -> 1081 ;
1082 [label="L_vsm_d3 <= 0.072\ngini = 0.394\nsamples = 37\nvalue = [27, 10]"] ;
972 -> 1082 ;
1083 [label="gini = 0.42\nsamples = 10\nvalue = [3, 7]"] ;
1082 -> 1083 ;
1084 [label="L_vsm_d10 <= -0.011\ngini = 0.198\nsamples = 27\nvalue = [24, 3]"] ;
1082 -> 1084 ;
1085 [label="gini = 0.42\nsamples = 10\nvalue = [7, 3]"] ;
1084 -> 1085 ;
1086 [label="gini = 0.0\nsamples = 17\nvalue = [17, 0]"] ;
1084 -> 1086 ;
}