~o
<STREAMINFO> 5 180 1 1 1 15
<MSDINFO> 5 0 1 1 1 0
<VECSIZE> 198<NULLD><USER><DIAGC>
~h "a"
<BEGINHMM>
<NUMSTATES> 7
<STATE> 2
<SWEIGHTS> 5
 1.000000e+00 0.000000e+00 0.000000e+00 0.000000e+00 0.000000e+00
<STREAM> 1
<MEAN> 180
 2.426385e+00 2.359664e+00 8.668560e-01 1.774118e+00 -4.063868e-01 -6.495376e-01 3.261290e-01 -3.409115e-01 -4.119744e-01 1.370218e-01 -3.301575e-02 -1.935673e-02 -1.940882e-01 1.950699e-01 -3.429987e-02 1.621035e-03 7.315854e-02 -8.936779e-02 9.713879e-03 -4.077289e-02 -2.133442e-02 -8.272360e-02 3.108500e-02 5.912257e-02 -7.386068e-04 2.330575e-02 -4.020512e-02 5.377818e-02 2.112587e-02 1.460236e-02 -3.486663e-02 -3.957123e-03 1.027146e-03 5.399922e-02 -5.105904e-02 1.825910e-02 -1.776127e-03 8.155997e-03 -2.005232e-02 2.424299e-03 4.009655e-02 -5.076888e-02 3.840436e-02 -1.303747e-02 -2.746769e-03 8.513843e-03 -9.144083e-03 7.941955e-03 7.443009e-03 -3.211368e-02 4.887329e-02 -2.569152e-02 -2.925286e-02 6.436529e-02 -6.831773e-02 6.074098e-02 -4.810645e-02 2.683059e-02 5.394291e-03 -3.324881e-02 6.096450e-03 1.925970e-02 2.135877e-02 2.460798e-02 -1.540475e-04 -9.673082e-03 -5.113512e-03 -2.148577e-02 -9.923599e-03 1.071384e-02 5.997748e-03 -6.954797e-03 -4.000971e-03 6.155939e-04 3.787495e-03 3.733649e-03 7.072228e-03 3.049366e-03 2.066114e-03 7.800085e-03 -8.454478e-04 -8.610869e-03 -2.239231e-03 9.296635e-04 2.455503e-03 2.168281e-03 1.702087e-03 -1.255341e-03 -1.474808e-03 -3.016970e-04 1.973724e-03 2.172467e-03 -4.033879e-03 3.752844e-03 2.743927e-03 -5.720254e-03 -3.537616e-03 3.208305e-03 1.333969e-03 -9.424885e-04 -2.272361e-03 1.735027e-03 2.172110e-03 -3.427385e-03 6.057213e-04 -5.255883e-04 -3.806250e-04 1.966368e-03 8.195511e-04 -2.874994e-03 -4.407906e-04 2.190440e-03 4.921927e-04 -1.034784e-03 -2.254708e-03 2.703201e-03 8.210278e-05 -9.451790e-04 -4.800386e-04 4.762353e-04 -1.167056e-02 -9.210078e-03 -1.278926e-03 -4.909715e-03 1.683587e-03 -9.689058e-03 -8.056051e-03 1.337632e-02 1.330436e-02 7.193329e-03 2.158014e-03 1.382711e-03 1.143219e-02 -3.811120e-03 -1.081597e-02 -8.017199e-03 -4.540432e-03 1.025104e-02 6.179387e-03 -4.785450e-03 -1.430253e-03 6.060753e-03 6.883586e-03 -6.118440e-03 -5.475718e-03 7.222551e-03 -7.649967e-04 -1.239559e-04 9.095151e-04 -2.730787e-03 3.328969e-03 1.462469e-03 2.581069e-03 -4.695828e-03 -2.748185e-03 7.351582e-03 -3.827631e-03 -2.757481e-03 2.274360e-03 -3.740924e-04 -4.680792e-03 1.838585e-03 -7.303194e-04 3.471833e-03 -2.343993e-03 -7.896889e-04 3.136088e-03 -2.287178e-03 2.613759e-04 1.587100e-03 -2.608450e-03 1.361923e-03 -1.318183e-04 5.610510e-04 -1.916514e-03 9.983915e-04 2.196376e-03 -3.378151e-03 8.537088e-04 1.410468e-03
<VARIANCE> 180
 4.067677e-01 9.257752e-02 8.534972e-02 1.411089e-01 6.342297e-02 7.771913e-02 3.061794e-02 5.072583e-02 2.445903e-02 4.089483e-02 1.529433e-02 1.968623e-02 2.147675e-02 1.720647e-02 8.498581e-03 1.380042e-02 2.173128e-02 9.604277e-03 6.671126e-03 1.169157e-02 9.385600e-03 1.474939e-02 3.057749e-03 9.140104e-03 2.805787e-03 4.621896e-03 6.173358e-03 3.463005e-03 3.358861e-03 6.226411e-03 3.131147e-03 2.554960e-03 1.771783e-03 1.972333e-03 4.092941e-03 2.419571e-03 1.701678e-03 1.040350e-03 1.467260e-03 1.691431e-03 6.660861e-04 1.613836e-03 1.274564e-03 1.436840e-03 1.279567e-03 1.391926e-03 1.474998e-03 2.442241e-03 1.621692e-03 1.005781e-03 1.692314e-03 1.692662e-03 8.226219e-04 1.137838e-03 1.665548e-03 1.772908e-03 9.392963e-04 7.393914e-04 7.297831e-04 8.044162e-04 3.164893e-02 1.875827e-02 9.430841e-03 1.325901e-02 7.768242e-03 8.156279e-03 6.497265e-03 9.074496e-03 5.733303e-03 6.874886e-03 3.830330e-03 3.403444e-03 3.983448e-03 2.276682e-03 3.025776e-03 2.979703e-03 2.677228e-03 2.147380e-03 2.054165e-03 1.938809e-03 2.706279e-03 3.167848e-03 6.738534e-04 1.684267e-03 1.031787e-03 1.543033e-03 1.407125e-03 7.882848e-04 1.564669e-03 1.881456e-03 1.107865e-03 7.525776e-04 7.704941e-04 9.162822e-04 1.385427e-03 4.301432e-04 7.563323e-04 4.399840e-04 5.212110e-04 4.744759e-04 4.385913e-04 5.320035e-04 6.273845e-04 6.781030e-04 4.745624e-04 4.129965e-04 2.576534e-04 4.154870e-04 2.848458e-04 3.293947e-04 5.567216e-04 5.227880e-04 4.249625e-04 4.424597e-04 5.662492e-04 3.198738e-04 3.583473e-04 3.625438e-04 3.698005e-04 3.436455e-04 1.971193e-02 3.420631e-02 3.264862e-02 2.443664e-02 3.572151e-02 2.233994e-02 4.236751e-02 2.576695e-02 2.728196e-02 2.693162e-02 2.606366e-02 1.813251e-02 2.386972e-02 1.109714e-02 2.057025e-02 1.377544e-02 1.087369e-02 9.896748e-03 1.726923e-02 7.279821e-03 8.904343e-03 8.074157e-03 5.143962e-03 7.699799e-03 4.267182e-03 8.297096e-03 1.158514e-02 4.769071e-03 5.029062e-03 8.202905e-03 5.655966e-03 4.734564e-03 5.683543e-03 5.386574e-03 5.851599e-03 4.006626e-03 5.654653e-03 1.719859e-03 2.255614e-03 2.155026e-03 1.863323e-03 2.858975e-03 2.886123e-03 2.939971e-03 1.557106e-03 1.445341e-03 1.334478e-03 2.791555e-03 2.275711e-03 1.793107e-03 2.000251e-03 2.150532e-03 2.171324e-03 1.567842e-03 1.799973e-03 1.556206e-03 2.055985e-03 1.656768e-03 1.750728e-03 1.604782e-03
<GCONST> -6.925818e+02
<STREAM> 2
<NUMMIXES> 2
<MIXTURE> 1 7.073424e-01
<MEAN> 1
 5.388600e+00
<VARIANCE> 1
 6.245084e-03
<GCONST> -3.238084e+00
<MIXTURE> 2 2.926577e-01
<MEAN> 0
<VARIANCE> 0
<GCONST> 0.000000e+00
<STREAM> 3
<NUMMIXES> 2
<MIXTURE> 1 6.585602e-01
<MEAN> 1
 6.584681e-03
<VARIANCE> 1
 5.222641e-04
<GCONST> -5.719460e+00
<MIXTURE> 2 3.414399e-01
<MEAN> 0
<VARIANCE> 0
<GCONST> 0.000000e+00
<STREAM> 4
<NUMMIXES> 2
<MIXTURE> 1 6.585602e-01
<MEAN> 1
 -8.135522e-03
<VARIANCE> 1
 1.019733e-03
<GCONST> -5.050337e+00
<MIXTURE> 2 3.414399e-01
<MEAN> 0
<VARIANCE> 0
<GCONST> 0.000000e+00
<STREAM> 5
<MEAN> 15
 -7.116632e+00 -2.174459e+00 -2.341484e+00 -2.110167e+00 -1.727733e+00 -1.901204e-02 1.338174e-02 5.030105e-02 -9.658891e-03 6.912635e-04 7.326616e-02 -9.605853e-02 4.404236e-02 1.408199e-01 -8.649334e-02
<VARIANCE> 15
 2.818473e+01 3.816133e+00 3.100616e+00 2.935462e+00 2.057407e+00 3.400113e+00 7.222936e-01 8.200262e-01 5.487008e-01 5.172963e-01 1.405942e+01 7.472799e+00 6.671372e+00 4.960295e+00 7.448427e+00
<GCONST> 4.477867e+01
<STATE> 3
<SWEIGHTS> 5
 1.000000e+00 0.000000e+00 0.000000e+00 0.000000e+00 0.000000e+00
<STREAM> 1
<MEAN> 180
 1.705748e+00 2.162626e+00 8.076776e-01 7.749365e-01 5.331708e-02 1.344219e-01 6.312987e-02 -2.308945e-01 -2.668981e-01 -2.412869e-02 -5.930432e-02 -2.820683e-02 -1.116854e-01 2.717554e-02 -1.898829e-01 -1.125035e-01 8.536838e-02 2.099936e-02 -3.433326e-02 4.761455e-02 -1.072359e-01 -1.774818e-02 -2.415316e-02 4.374703e-02 -9.892634e-03 1.530187e-02 8.282784e-02 1.171071e-02 5.314462e-02 6.725228e-02 1.662563e-02 -2.869808e-02 1.672356e-02 1.287134e-02 -4.418773e-02 3.160261e-02 -3.605564e-02 1.237582e-02 3.553452e-03 -3.074826e-03 -1.515512e-02 1.893979e-03 8.961943e-03 -2.272229e-02 2.336708e-02 -5.081796e-03 -1.957260e-02 3.438326e-02 -2.372056e-02 -1.866905e-02 4.589647e-02 8.386911e-04 -5.638383e-02 4.914023e-02 -1.293113e-02 1.381757e-03 -9.623746e-03 1.714499e-02 -6.631963e-03 -2.050833e-02 4.227675e-02 -3.557605e-02 -7.622406e-02 -1.582032e-01 -4.909941e-03 8.229616e-02 -5.474386e-02 4.469666e-02 6.808948e-02 -1.429050e-02 -3.932840e-02 -2.087861e-02 -2.739916e-02 -4.010335e-03 -3.908138e-02 -3.592132e-02 -3.301629e-03 5.603777e-03 1.373535e-02 6.324406e-04 -1.681778e-02 2.693549e-02 1.992302e-02 2.762818e-03 -2.450737e-02 2.726115e-03 4.838030e-03 9.412671e-03 1.601554e-02 -2.589848e-02 1.818937e-03 -1.707120e-03 1.775412e-03 -6.448199e-03 -2.298851e-02 2.962314e-02 1.209768e-02 -1.507006e-02 -8.540946e-04 -4.526801e-03 4.862020e-03 1.382492e-02 -1.860463e-02 2.540340e-03 1.480100e-02 -3.783093e-03 -1.869706e-04 -8.659903e-03 4.767348e-03 6.196283e-03 -3.487603e-03 2.898054e-04 -1.027183e-02 1.660460e-02 -2.514828e-04 -1.745724e-02 1.153764e-02 3.445134e-03 -8.273352e-03 5.463987e-03 -4.276013e-03 7.114425e-02 1.017179e-01 9.616192e-02 1.484764e-02 -4.919821e-02 -2.186965e-02 -9.301939e-02 -4.687252e-02 2.694758e-03 -1.241836e-04 -3.457467e-03 -3.415071e-03 2.905294e-02 3.749961e-02 1.103881e-02 1.504422e-02 -1.156487e-02 -1.404158e-02 3.719776e-03 4.576971e-02 3.288907e-02 -8.276553e-03 -1.439306e-02 -8.749217e-03 -1.925326e-03 -2.086999e-02 1.091767e-02 -7.362683e-03 -3.339047e-03 -1.885416e-02 3.956391e-03 -1.132858e-02 1.582256e-03 2.344183e-02 -2.997842e-02 3.030033e-02 -4.971581e-03 -1.584451e-02 1.212819e-02 1.023363e-02 -4.189881e-03 -5.616693e-03 4.138569e-03 -1.167878e-02 1.117552e-02 -6.585422e-03 -1.401794e-03 2.945630e-03 1.408744e-03 9.042465e-04 -9.044109e-03 1.570704e-02 -1.693872e-02 1.243304e-02 -5.695501e-03 9.666545e-04 -1.149411e-03 -7.147492e-04 8.805398e-03
<VARIANCE> 180
 1.122602e+00 1.522280e-01 3.488554e-01 3.120683e-01 1.010712e-01 2.539468e-01 5.959653e-02 6.975101e-02 3.062221e-02 1.613129e-02 5.964536e-03 4.885667e-02 1.001815e-02 1.556806e-02 1.487948e-02 6.236789e-03 1.824775e-02 4.369293e-03 3.490962e-03 4.168285e-03 1.124739e-02 1.539966e-02 7.418308e-03 2.636817e-03 3.358075e-03 3.183523e-03 5.572510e-03 5.578895e-03 3.111434e-03 7.334516e-03 1.723331e-03 9.070181e-04 5.804835e-04 1.462637e-03 1.436238e-03 4.164926e-03 3.529657e-03 2.305435e-03 3.746970e-03 3.901515e-04 1.267130e-03 1.826833e-03 3.252844e-03 1.204933e-03 3.240329e-03 5.882434e-04 1.257481e-03 2.137435e-03 1.497074e-03 3.895480e-04 4.208998e-03 2.636469e-03 1.601837e-03 1.352992e-03 1.511839e-03 3.400509e-03 1.761386e-03 2.277677e-03 9.998495e-04 1.334056e-04 2.153909e-01 3.001773e-02 7.861429e-02 4.400764e-02 3.561785e-02 6.819045e-03 1.099304e-02 1.444072e-02 1.208278e-02 6.291589e-03 3.392510e-03 6.022666e-03 6.784425e-03 6.346032e-03 5.816673e-03 2.126623e-03 5.602210e-03 1.014904e-03 1.951133e-03 2.058066e-03 4.655556e-03 2.888572e-03 1.158804e-03 2.459297e-03 7.159314e-04 3.680545e-04 3.199409e-03 1.481215e-03 9.138790e-04 1.420328e-04 1.521999e-03 7.307730e-04 6.185533e-04 1.599343e-03 1.262606e-03 2.293184e-03 2.243275e-03 4.812893e-04 2.083939e-03 3.620606e-04 6.141835e-04 4.500178e-04 1.360495e-03 4.691091e-04 8.453577e-04 5.434124e-04 5.420885e-04 2.421112e-04 7.191588e-04 7.429578e-04 1.484643e-03 8.799106e-04 8.584657e-04 6.906349e-04 7.802082e-04 1.235195e-03 2.785854e-04 6.100388e-04 3.617509e-04 2.447953e-04 5.329599e-01 5.287001e-02 3.190210e-01 1.233934e-01 5.528842e-02 8.487821e-02 9.766046e-02 9.700801e-03 5.953868e-02 1.101951e-02 2.557736e-02 1.379740e-02 5.573570e-02 2.037742e-02 3.433307e-02 1.876339e-02 3.401132e-02 7.853867e-03 9.669147e-03 1.376249e-02 2.031595e-02 9.951794e-03 7.083018e-03 5.909502e-03 9.897990e-03 4.995916e-03 1.856429e-02 7.057948e-03 3.388675e-03 2.587377e-03 1.507506e-03 4.098450e-03 2.137159e-03 3.618034e-03 3.503383e-03 8.979944e-03 1.264011e-02 4.236325e-03 1.126807e-02 1.057391e-03 3.721236e-03 2.207093e-03 8.994028e-03 1.742563e-03 4.244825e-03 1.200174e-03 1.765500e-03 2.552720e-03 1.954290e-03 2.235608e-03 5.251145e-03 5.573384e-03 6.018352e-03 3.933543e-03 2.159626e-03 2.313501e-03 6.458235e-04 1.477490e-03 1.688817e-03 1.573944e-03
<GCONST> -6.506935e+02
<STREAM> 2
<NUMMIXES> 2
<MIXTURE> 1 5.555616e-01
<MEAN> 1
 5.367128e+00
<VARIANCE> 1
 2.896877e-03
<GCONST> -4.006246e+00
<MIXTURE> 2 4.444384e-01
<MEAN> 0
<VARIANCE> 0
<GCONST> 0.000000e+00
<STREAM> 3
<NUMMIXES> 2
<MIXTURE> 1 5.555616e-01
<MEAN> 1
 3.069368e-02
<VARIANCE> 1
 1.028333e-03
<GCONST> -5.041940e+00
<MIXTURE> 2 4.444384e-01
<MEAN> 0
<VARIANCE> 0
<GCONST> 0.000000e+00
<STREAM> 4
<NUMMIXES> 2
<MIXTURE> 1 5.555616e-01
<MEAN> 1
 3.749336e-02
<VARIANCE> 1
 6.839229e-03
<GCONST> -3.147203e+00
<MIXTURE> 2 4.444384e-01
<MEAN> 0
<VARIANCE> 0
<GCONST> 0.000000e+00
<STREAM> 5
<MEAN> 15
 -1.701591e+00 -1.754839e+00 -9.925441e-01 -1.440779e+00 -1.209791e+00 -4.610583e-01 -2.328366e-01 1.595994e-02 9.620850e-02 -5.457461e-02 -8.860191e-02 8.189934e-01 -6.879251e-01 -2.574828e-01 1.847690e-01
<VARIANCE> 15
 3.217283e+00 4.602465e+00 1.029625e+00 2.074346e+00 1.578196e+00 4.116759e-01 7.926326e-01 3.194249e-01 1.547319e-01 1.507735e-01 1.238224e+00 1.578226e+01 3.355428e+00 4.793942e+00 3.456563e+00
<GCONST> 3.244999e+01
<STATE> 4
<SWEIGHTS> 5
 1.000000e+00 0.000000e+00 0.000000e+00 0.000000e+00 0.000000e+00
<STREAM> 1
<MEAN> 180
 1.746703e+00 2.323280e+00 9.386464e-01 7.639683e-01 1.094220e-01 1.712073e-01 -6.079013e-02 -3.398604e-01 -2.628720e-01 -5.648843e-03 -9.941441e-02 -7.608006e-02 -8.983818e-02 9.184960e-02 -1.254218e-01 -1.517553e-01 6.027192e-02 -1.301863e-02 -3.751493e-02 7.301010e-03 -1.773224e-02 1.169126e-01 1.883946e-02 -1.936818e-02 -4.928269e-02 8.947922e-02 -2.146672e-02 3.154027e-02 7.511257e-02 -1.393409e-02 -2.008639e-02 3.824936e-03 -1.579428e-02 3.894286e-03 -9.417195e-03 1.337847e-02 3.089066e-03 6.051191e-03 -1.596753e-02 9.710538e-03 -4.642253e-03 3.051204e-02 -2.808750e-02 -1.929738e-02 2.285492e-02 8.001753e-03 -3.309193e-02 1.809674e-02 -5.427732e-04 -4.786829e-03 1.757563e-02 -5.548718e-04 -3.176402e-02 2.886049e-02 7.447843e-03 -3.060029e-02 1.881079e-02 3.769484e-03 -1.557326e-02 1.231135e-02 5.310192e-02 -1.121254e-02 -9.638133e-03 8.538584e-02 -3.139859e-02 -7.259176e-02 -7.617024e-02 -9.051935e-02 -5.612424e-02 7.327800e-04 3.405861e-03 1.770053e-02 -1.638638e-02 -1.845305e-02 7.344014e-02 5.084455e-03 -1.803008e-02 -6.895692e-02 -1.107948e-02 -3.578757e-02 1.507264e-02 2.960928e-02 -5.665429e-03 -1.148436e-02 7.171503e-04 5.926101e-02 -5.280980e-03 1.258799e-02 8.537672e-03 -2.390210e-02 -1.415837e-02 3.840358e-02 -1.043660e-02 -2.106043e-02 2.170092e-02 -2.395079e-02 -2.789117e-02 1.402767e-02 1.942951e-02 1.597196e-02 -3.531242e-03 3.086806e-03 -6.740034e-03 5.412769e-03 -5.377459e-03 1.491566e-03 8.044823e-03 -1.062257e-02 -3.171064e-04 1.156023e-02 -8.515865e-03 2.457833e-03 4.191213e-03 -1.399422e-02 1.056676e-02 -2.138122e-03 2.981109e-03 -7.282322e-03 1.748115e-03 9.068559e-03 1.694794e-01 -1.660782e-01 -3.177762e-01 -9.956337e-02 -4.483233e-02 4.915849e-02 3.384146e-02 2.914552e-02 -4.013195e-03 -2.269811e-02 -3.296206e-02 5.992298e-02 -7.441847e-02 -5.918103e-02 -2.034573e-02 -2.484339e-02 -1.477872e-02 -6.487622e-02 -1.343533e-02 7.265666e-03 -7.952969e-02 -6.531850e-02 -1.959085e-02 6.244519e-02 1.809965e-03 -1.436103e-02 9.682789e-02 -9.488632e-03 -2.703646e-02 2.040871e-02 1.401550e-02 1.501818e-02 1.152609e-02 -7.432302e-03 -4.180260e-02 5.762361e-03 -2.929235e-02 3.172082e-03 2.957874e-02 6.509967e-03 -3.481094e-04 -1.332377e-02 2.811882e-02 -5.759684e-03 1.483950e-02 -1.997610e-02 1.783176e-02 6.559699e-03 -9.474310e-03 -9.397566e-04 8.823133e-04 1.051327e-02 -2.231447e-02 2.370962e-02 -1.320559e-02 1.591448e-03 5.466293e-04 1.402504e-03 6.775162e-03 -1.916831e-02
<VARIANCE> 180
 1.819729e+00 4.451180e-01 1.179496e-01 1.258067e-01 1.561755e-01 1.889460e-01 7.352346e-02 1.724046e-02 3.835923e-02 1.065530e-02 1.770490e-02 6.830624e-02 3.487614e-02 2.162798e-02 1.351049e-02 6.124060e-03 7.748193e-03 1.224403e-02 3.180327e-03 9.357317e-03 3.488819e-03 6.471703e-03 1.866101e-02 1.054203e-02 1.099336e-03 5.063973e-03 2.039388e-03 2.043292e-03 6.211513e-03 2.252747e-03 1.693545e-03 1.954561e-03 3.400851e-04 4.223934e-03 3.996521e-03 6.985294e-04 2.391901e-03 2.672793e-03 1.455867e-03 1.525016e-03 1.433562e-03 4.540189e-04 7.050093e-04 5.556572e-04 5.173660e-04 3.719373e-04 1.725716e-04 8.997736e-04 7.039652e-04 2.745977e-04 9.166487e-04 5.868354e-04 2.878999e-04 7.183495e-04 4.509531e-04 2.462005e-04 7.707753e-04 1.687255e-03 3.464451e-04 5.031880e-04 7.907306e-02 4.462917e-02 4.589208e-02 3.522915e-02 4.092895e-03 1.151581e-02 3.327468e-03 1.408956e-02 1.069534e-02 1.372266e-02 2.821145e-03 2.813771e-03 4.781387e-03 7.351039e-03 3.158459e-04 2.417736e-03 5.745749e-03 3.879939e-03 4.444800e-03 8.451455e-03 1.991642e-03 3.342747e-03 6.319882e-04 2.607634e-03 2.593134e-03 5.940123e-04 3.457760e-03 1.578650e-03 7.470899e-04 6.207202e-04 2.766657e-04 4.927491e-04 2.199898e-04 1.634025e-03 1.100919e-03 4.503158e-04 6.981351e-04 1.340236e-04 7.274815e-04 3.784781e-04 2.018294e-04 6.174351e-04 4.944574e-04 5.746277e-04 6.408783e-04 4.418422e-04 4.752395e-04 1.130563e-03 8.816646e-04 3.583846e-04 1.425076e-03 7.824540e-04 3.826671e-04 2.682107e-04 5.997001e-04 7.458128e-04 2.999355e-04 4.238711e-04 1.963168e-04 1.996591e-04 1.187799e-01 3.487072e-02 7.588629e-02 2.154936e-02 1.280500e-02 1.877236e-02 7.722742e-02 5.346059e-02 4.296064e-02 2.044135e-02 1.700721e-02 1.918106e-02 6.909742e-02 5.360862e-02 1.443848e-02 2.698845e-02 2.095893e-02 4.594344e-02 1.076329e-02 1.590799e-02 3.591576e-03 1.769199e-02 8.908572e-03 8.590128e-03 4.139945e-03 1.186226e-02 4.996457e-03 7.206225e-03 3.461909e-03 5.094219e-03 5.899970e-03 3.364377e-03 2.218670e-03 1.160298e-02 8.959563e-03 4.355280e-03 1.120354e-02 9.383991e-03 3.068741e-03 1.353622e-02 1.280765e-03 4.152386e-03 3.858278e-03 2.025418e-03 2.206672e-03 1.866746e-03 1.455504e-03 2.459311e-03 2.607590e-03 1.749315e-03 6.099271e-03 4.681150e-03 1.654884e-03 1.416163e-03 1.746284e-03 2.211397e-03 1.611805e-03 1.707192e-03 2.337281e-03 2.216686e-03
<GCONST> -6.891793e+02
<STREAM> 2
<NUMMIXES> 2
<MIXTURE> 1 6.666717e-01
<MEAN> 1
 5.445984e+00
<VARIANCE> 1
 1.158274e-03
<GCONST> -4.922948e+00
<MIXTURE> 2 3.333283e-01
<MEAN> 0
<VARIANCE> 0
<GCONST> 0.000000e+00
<STREAM> 3
<NUMMIXES> 2
<MIXTURE> 1 5.000053e-01
<MEAN> 1
 3.637620e-02
<VARIANCE> 1
 2.749872e-04
<GCONST> -6.360909e+00
<MIXTURE> 2 4.999947e-01
<MEAN> 0
<VARIANCE> 0
<GCONST> 0.000000e+00
<STREAM> 4
<NUMMIXES> 2
<MIXTURE> 1 5.000053e-01
<MEAN> 1
 2.670892e-02
<VARIANCE> 1
 6.287771e-03
<GCONST> -3.231272e+00
<MIXTURE> 2 4.999947e-01
<MEAN> 0
<VARIANCE> 0
<GCONST> 0.000000e+00
<STREAM> 5
<MEAN> 15
 -2.505227e+00 -1.596734e+00 -2.897881e+00 -1.442515e+00 -1.806126e+00 -1.611052e-01 3.431890e-01 -8.494728e-01 1.537474e-01 1.845497e-01 -1.139234e+00 -3.600966e-01 7.832291e-01 4.740198e-02 6.642525e-01
<VARIANCE> 15
 4.484546e+00 1.759948e+00 8.043686e+00 1.092230e+00 2.469200e+00 3.421222e+00 9.233282e-01 2.518209e+00 2.215900e-01 6.109861e-01 1.251740e+01 1.286310e+01 2.539258e+00 2.169734e+00 6.747157e+00
<GCONST> 4.148233e+01
<STATE> 5
<SWEIGHTS> 5
 1.000000e+00 0.000000e+00 0.000000e+00 0.000000e+00 0.000000e+00
<STREAM> 1
<MEAN> 180
 2.886714e+00 2.394820e+00 3.798355e-01 8.133091e-01 -2.709007e-02 4.437843e-02 -8.137134e-02 -4.374270e-01 -2.976157e-01 9.156699e-02 -1.613680e-01 3.028152e-02 -2.695270e-01 1.279703e-01 -4.956552e-03 -1.720593e-01 9.394790e-03 -2.105332e-01 3.367813e-02 1.784905e-02 -1.257132e-01 9.509306e-02 -1.056023e-01 1.112120e-01 -9.417117e-02 1.356654e-01 1.232729e-02 5.856692e-02 4.590520e-02 -3.043933e-02 -4.244650e-02 8.175083e-02 -3.316280e-02 8.994886e-03 -4.728275e-02 3.297229e-02 -3.703241e-02 2.548051e-02 3.376740e-02 -1.302626e-02 1.461667e-02 -6.032608e-03 -3.148973e-03 1.761724e-02 1.302670e-02 -3.929704e-02 2.530525e-02 5.879313e-03 -6.126072e-03 -8.395351e-03 5.923624e-03 3.473303e-02 -6.005468e-02 2.370837e-02 3.293872e-02 -5.622412e-02 4.319190e-02 -2.234569e-02 3.016303e-03 1.561639e-02 -9.052660e-02 -9.473368e-02 5.940942e-03 1.626396e-02 5.680149e-02 9.488562e-04 -1.997824e-02 2.456515e-02 3.782657e-03 -2.628754e-02 -3.127290e-02 -2.049471e-02 -2.034605e-03 -2.324358e-03 -1.420951e-02 9.114617e-03 -1.997958e-02 -2.124323e-02 -2.073028e-02 -1.656163e-02 -1.340658e-02 -2.074294e-02 -1.789484e-02 1.071562e-02 1.112900e-02 -2.610221e-03 2.165712e-02 1.982564e-02 -7.853992e-03 1.194693e-03 3.235524e-03 -2.937053e-04 -4.834106e-04 5.437554e-03 -3.775746e-04 7.401395e-03 1.480356e-03 -3.078874e-03 9.951842e-03 -8.107611e-03 3.898076e-03 -1.014414e-02 6.605659e-04 1.928696e-02 -7.959506e-03 -8.461516e-03 6.885382e-03 5.297511e-04 3.285140e-03 -4.882006e-03 -3.993377e-03 9.859459e-03 -5.944208e-03 -1.542645e-03 5.872671e-03 -3.754328e-03 -3.364103e-04 5.873766e-04 9.639093e-04 4.528259e-04 -6.715491e-02 2.308520e-03 8.975334e-02 1.506195e-02 2.246604e-02 2.363208e-02 2.945463e-04 2.596556e-02 1.117949e-02 6.910414e-03 8.693586e-03 -1.613777e-02 1.731965e-02 -3.076321e-03 1.035439e-05 2.775446e-02 2.311194e-02 3.190848e-02 -3.924950e-03 -7.162057e-04 6.319050e-03 4.000597e-03 1.178409e-03 -3.618069e-03 4.009362e-03 7.606354e-04 -1.530873e-02 -1.506306e-02 9.688199e-03 1.371499e-02 1.173203e-02 -1.861659e-02 -5.714848e-03 1.028771e-02 6.139458e-03 9.658440e-03 1.035100e-02 -8.567096e-03 -9.691824e-03 -1.155116e-02 4.902271e-03 2.241699e-03 -6.159013e-03 3.675068e-03 -5.908708e-03 3.791671e-03 -1.187206e-03 -5.424532e-03 4.616637e-03 2.143826e-03 -3.200879e-03 -8.530760e-03 1.624026e-02 -7.691384e-03 -3.800709e-03 7.512513e-03 -2.964223e-03 -1.175564e-03 2.142871e-03 -4.370645e-03
<VARIANCE> 180
 4.564990e+00 6.558185e-01 2.814713e-01 1.580806e-02 9.772611e-02 2.872377e-02 2.706559e-02 7.292636e-03 2.023834e-02 1.163734e-01 1.155159e-02 4.857676e-02 1.640286e-02 5.250103e-02 1.838554e-02 2.575719e-03 2.515493e-02 8.816325e-03 3.204338e-02 1.325393e-02 6.543824e-03 9.960648e-03 5.234431e-03 1.185758e-02 1.324822e-02 4.330046e-03 1.413046e-02 8.067426e-03 2.334945e-03 1.519342e-03 8.391821e-04 2.042325e-03 2.544272e-03 5.668791e-03 2.208629e-03 2.026636e-03 9.423773e-04 3.884521e-04 2.238430e-03 2.370692e-03 6.493755e-04 9.691043e-04 7.082049e-04 1.613210e-03 5.055956e-04 1.422925e-03 1.080030e-03 2.032363e-03 1.456696e-03 1.335634e-03 3.132853e-03 7.508649e-04 3.475509e-03 1.423556e-03 8.742311e-04 5.769244e-04 1.284095e-03 2.171130e-03 1.409244e-03 1.148458e-03 5.508227e-02 1.112124e-02 2.249527e-02 6.735818e-03 5.036332e-03 1.267602e-02 9.788842e-03 4.459474e-03 8.186951e-03 7.493313e-03 2.315255e-03 2.028686e-03 2.408555e-03 3.153094e-03 2.567064e-03 1.539659e-03 2.909898e-03 3.859044e-03 3.574636e-03 9.250208e-04 1.423741e-03 1.438956e-03 2.789425e-03 2.248459e-03 1.649799e-03 2.003732e-03 2.066704e-03 1.435115e-03 1.209773e-03 1.292420e-03 9.424919e-04 1.765052e-03 6.182499e-04 2.947318e-03 1.771432e-03 7.831857e-04 1.163527e-03 4.884593e-04 5.707041e-04 6.954893e-04 3.429528e-04 1.268005e-03 5.311363e-04 4.522991e-04 2.196630e-04 4.891112e-04 3.807089e-04 4.542305e-04 3.083123e-04 4.113720e-04 3.602588e-04 2.761225e-04 1.196234e-03 5.223375e-04 4.496517e-04 4.499900e-04 4.427824e-04 5.957253e-04 4.374586e-04 5.096373e-04 1.911584e-02 2.044092e-02 2.401909e-02 2.415545e-02 1.895862e-02 1.502685e-02 3.671052e-02 1.223079e-02 2.583174e-02 5.937899e-03 1.378259e-02 1.418852e-02 9.985376e-03 1.303289e-02 1.047022e-02 6.143005e-03 1.000549e-02 2.477480e-02 1.156659e-02 1.300873e-02 5.545367e-03 4.490403e-03 5.320847e-03 8.673797e-03 2.294797e-03 8.300168e-03 4.125353e-03 4.429715e-03 8.552334e-03 5.347463e-03 5.354031e-03 3.796571e-03 3.003909e-03 1.255133e-02 4.306981e-03 4.415261e-03 5.832561e-03 2.993639e-03 4.089119e-03 4.035447e-03 2.220051e-03 4.300250e-03 1.776400e-03 2.270745e-03 2.285343e-03 3.099546e-03 2.485662e-03 1.941488e-03 1.106271e-03 2.452259e-03 2.337655e-03 1.990431e-03 2.812271e-03 1.197681e-03 1.008549e-03 9.880367e-04 1.029173e-03 1.384139e-03 2.332420e-03 3.140573e-03
<GCONST> -6.911130e+02
<STREAM> 2
<NUMMIXES> 2
<MIXTURE> 1 5.714372e-01
<MEAN> 1
 5.558595e+00
<VARIANCE> 1
 1.157432e-03
<GCONST> -4.923674e+00
<MIXTURE> 2 4.285629e-01
<MEAN> 0
<VARIANCE> 0
<GCONST> 0.000000e+00
<STREAM> 3
<NUMMIXES> 2
<MIXTURE> 1 5.714372e-01
<MEAN> 1
 -9.598821e-03
<VARIANCE> 1
 8.638453e-04
<GCONST> -5.216240e+00
<MIXTURE> 2 4.285629e-01
<MEAN> 0
<VARIANCE> 0
<GCONST> 0.000000e+00
<STREAM> 4
<NUMMIXES> 2
<MIXTURE> 1 5.714372e-01
<MEAN> 1
 -2.246755e-02
<VARIANCE> 1
 2.049223e-03
<GCONST> -4.352418e+00
<MIXTURE> 2 4.285629e-01
<MEAN> 0
<VARIANCE> 0
<GCONST> 0.000000e+00
<STREAM> 5
<MEAN> 15
 -8.077269e+00 -2.548624e+00 -2.974977e+00 -2.133498e+00 -1.739411e+00 4.550545e-01 4.928669e-02 4.386465e-01 -5.668742e-03 9.079462e-02 7.222465e-01 -1.521431e-01 -3.837908e-02 5.632711e-02 -4.410080e-01
<VARIANCE> 15
 6.647874e+01 6.204684e+00 9.288808e+00 4.380309e+00 3.147287e+00 8.797944e+00 1.055019e+00 8.194893e-01 4.978620e-01 6.625099e-01 7.047713e+00 7.466807e+00 4.515109e+00 6.256357e+00 6.044689e+00
<GCONST> 4.846604e+01
<STATE> 6
<SWEIGHTS> 5
 1.000000e+00 0.000000e+00 0.000000e+00 0.000000e+00 0.000000e+00
<STREAM> 1
<MEAN> 180
 1.045627e+00 1.747195e+00 5.540869e-01 6.755357e-01 4.375547e-01 6.843042e-02 -7.865144e-02 -2.705879e-01 -3.457757e-01 -1.433755e-01 -1.921494e-01 -1.432444e-01 -9.161920e-02 -3.381238e-02 -4.945760e-02 -3.555343e-02 -1.123754e-01 -1.640345e-01 -1.902456e-01 -1.022765e-01 -1.008617e-01 -3.797057e-03 -9.610408e-03 6.921920e-02 7.622413e-02 5.410827e-02 7.033885e-02 7.263886e-02 4.602564e-02 7.374024e-02 5.685321e-03 -7.517985e-03 -4.928138e-02 -7.646501e-03 3.791022e-02 2.433966e-02 -1.454884e-02 7.338661e-03 4.502410e-04 4.300629e-02 -1.769705e-02 -2.772106e-02 3.237868e-02 2.731527e-02 -3.413541e-02 1.078296e-02 1.362951e-02 -1.303275e-02 2.155444e-04 1.811451e-03 1.543167e-02 -1.148095e-02 -2.163296e-02 2.370404e-02 4.022356e-03 -2.653674e-02 3.287417e-02 -1.393883e-02 -1.645515e-02 2.657619e-02 5.778307e-02 3.935110e-02 -1.180842e-02 5.041602e-03 1.794095e-02 8.144807e-03 1.273004e-02 1.096236e-02 -6.164352e-03 4.216600e-03 8.658294e-03 -7.259290e-03 -1.038417e-02 4.370941e-03 1.171306e-02 1.046994e-02 -1.444518e-03 1.470709e-02 1.514301e-02 1.073764e-02 -9.279842e-03 -1.143538e-03 8.409061e-03 -7.739283e-04 -1.019720e-03 -3.451552e-03 -1.222761e-02 -1.664987e-02 3.113764e-03 1.205097e-02 1.104928e-03 -2.385145e-04 -2.604118e-03 -1.791820e-03 4.376720e-03 -1.426805e-03 -2.055611e-03 7.309013e-04 -9.342033e-03 -3.093841e-03 7.037610e-03 5.107757e-03 -3.174623e-03 -4.928568e-03 6.320397e-04 7.263226e-04 8.470678e-04 1.585834e-05 -3.364230e-03 4.547550e-03 2.988313e-03 -1.204432e-02 1.070700e-02 -2.799162e-04 -9.816078e-03 1.064199e-02 -1.543955e-05 -9.390067e-03 8.427246e-03 -3.544104e-03 2.084289e-02 1.242798e-02 -3.908372e-03 2.217874e-03 1.692149e-03 6.445828e-03 1.960478e-02 8.728269e-03 5.529341e-04 2.609289e-03 6.228488e-03 1.372030e-02 8.717812e-03 1.410365e-02 1.719287e-02 1.484988e-03 -2.279065e-02 7.992387e-03 1.930114e-02 7.302043e-03 1.119756e-02 1.009897e-02 1.224541e-02 -1.204158e-02 -8.162104e-03 -2.793991e-03 -1.141910e-02 5.294255e-03 -1.022629e-02 -1.224097e-02 -4.781110e-03 4.379113e-03 3.969450e-03 -1.035980e-02 6.136709e-03 -3.166354e-03 -1.301130e-02 1.969190e-02 1.616643e-03 -2.200777e-03 -5.155052e-03 1.013866e-03 -1.093060e-03 -7.984893e-03 1.026755e-02 -3.225013e-03 -8.729114e-03 1.134956e-02 -1.324448e-03 -9.339317e-03 7.529406e-03 6.246889e-03 -1.297445e-02 5.379871e-03 3.927350e-03 -2.800150e-03 -4.100215e-03 2.006629e-03 4.740374e-03 -2.673469e-03
<VARIANCE> 180
 8.146902e-01 2.030192e-01 2.337830e-01 2.108226e-02 4.211001e-02 1.612405e-02 3.086426e-02 2.977566e-02 1.514734e-02 3.048763e-02 2.545468e-02 2.793142e-02 1.138525e-02 1.082574e-02 7.441371e-03 6.323952e-03 9.325481e-03 3.903861e-03 9.475561e-03 7.677113e-03 1.052115e-02 3.785349e-03 6.682515e-03 5.420150e-03 1.135066e-02 5.176248e-03 1.149780e-02 6.415828e-03 2.400966e-03 6.019134e-03 3.672270e-03 3.846982e-03 3.147903e-03 3.029904e-03 4.353920e-03 4.979520e-04 2.899903e-03 1.847635e-03 3.693733e-03 2.678687e-03 3.919913e-03 3.704610e-03 4.746722e-03 2.481144e-03 1.303825e-03 1.943564e-03 1.173992e-03 1.763624e-03 1.776253e-03 1.678315e-03 1.229816e-03 1.906894e-03 1.647520e-03 6.901784e-04 1.075743e-03 1.452600e-03 6.551394e-04 1.776719e-03 1.208919e-03 4.513747e-04 5.651324e-02 3.862060e-02 2.798641e-02 5.976045e-03 5.430777e-03 1.172918e-02 1.426847e-02 1.456012e-02 4.585080e-03 6.937633e-03 6.002014e-03 9.408821e-03 4.250311e-03 4.728348e-03 3.090535e-03 3.623704e-03 3.653491e-03 3.423721e-03 5.840784e-03 2.321503e-03 3.418796e-03 7.753032e-04 2.759234e-03 2.398619e-03 4.136895e-03 1.620931e-03 3.443534e-03 1.371093e-03 1.812708e-03 1.666574e-03 2.088947e-03 8.367773e-04 1.113495e-03 1.156239e-03 1.826030e-03 3.257520e-04 1.083347e-03 7.929577e-04 8.458902e-04 4.677089e-04 6.549454e-04 1.160387e-03 1.104877e-03 1.003446e-03 9.817125e-04 9.195101e-04 5.777562e-04 9.660979e-04 7.438639e-04 8.519192e-04 5.539145e-04 7.725123e-04 9.879547e-04 3.519877e-04 5.018351e-04 6.642084e-04 4.188803e-04 6.383233e-04 4.415085e-04 2.548599e-04 6.708063e-02 3.826274e-02 3.193678e-02 1.059464e-02 1.240459e-02 1.797402e-02 3.867163e-02 4.387882e-02 1.488439e-02 2.009385e-02 1.428562e-02 1.813494e-02 7.561196e-03 7.759530e-03 8.272074e-03 9.928942e-03 8.217494e-03 1.067561e-02 1.304709e-02 4.423910e-03 1.430293e-02 5.777332e-03 8.436467e-03 1.113806e-02 1.040829e-02 7.297231e-03 7.948854e-03 8.710101e-03 6.221437e-03 3.056497e-03 6.400185e-03 3.801373e-03 4.151814e-03 4.804912e-03 5.633939e-03 1.677738e-03 4.617042e-03 4.134888e-03 6.910033e-03 2.110599e-03 3.769383e-03 3.388848e-03 3.509184e-03 4.799366e-03 3.357908e-03 4.997197e-03 1.997498e-03 3.717880e-03 2.074181e-03 3.828735e-03 1.383774e-03 2.919971e-03 3.526397e-03 8.287994e-04 1.947947e-03 1.609098e-03 7.930093e-04 1.339413e-03 1.140130e-03 8.143558e-04
<GCONST> -6.682925e+02
<STREAM> 2
<NUMMIXES> 2
<MIXTURE> 1 5.263245e-02
<MEAN> 1
 5.422074e+00
<VARIANCE> 1
 0.000000e+00
<MIXTURE> 2 9.473675e-01
<MEAN> 0
<VARIANCE> 0
<GCONST> 0.000000e+00
<STREAM> 3
<NUMMIXES> 2
<MIXTURE> 1 5.263245e-02
<MEAN> 1
 -7.069993e-02
<VARIANCE> 1
 0.000000e+00
<MIXTURE> 2 9.473675e-01
<MEAN> 0
<VARIANCE> 0
<GCONST> 0.000000e+00
<STREAM> 4
<NUMMIXES> 2
<MIXTURE> 1 5.263245e-02
<MEAN> 1
 -2.154684e-02
<VARIANCE> 1
 0.000000e+00
<MIXTURE> 2 9.473675e-01
<MEAN> 0
<VARIANCE> 0
<GCONST> 0.000000e+00
<STREAM> 5
<MEAN> 15
 -9.139650e-02 -1.463596e-01 -1.820130e-01 -1.711264e-01 -1.964427e-01 -3.587336e-02 -1.978742e-02 1.190730e-02 7.495926e-02 -7.766069e-02 -4.087019e-01 -2.142974e-01 -7.469227e-02 1.872692e-02 8.366533e-02
<VARIANCE> 15
 1.503571e-01 3.855738e-01 5.963070e-01 5.271071e-01 6.946031e-01 4.680058e-01 1.897986e-01 1.391519e-01 2.014863e-01 1.024015e-01 1.518140e+00 4.960488e-01 2.403249e-01 1.472320e-01 1.472901e+00
<GCONST> 1.168661e+01
<TRANSP> 7
 0.000000e+00 1.000000e+00 0.000000e+00 0.000000e+00 0.000000e+00 0.000000e+00 0.000000e+00
 0.000000e+00 9.268258e-01 7.317422e-02 0.000000e+00 0.000000e+00 0.000000e+00 0.000000e+00
 0.000000e+00 0.000000e+00 6.666670e-01 3.333330e-01 0.000000e+00 0.000000e+00 0.000000e+00
 0.000000e+00 0.000000e+00 0.000000e+00 5.000007e-01 4.999993e-01 0.000000e+00 0.000000e+00
 0.000000e+00 0.000000e+00 0.000000e+00 0.000000e+00 7.857155e-01 2.142845e-01 0.000000e+00
 0.000000e+00 0.000000e+00 0.000000e+00 0.000000e+00 0.000000e+00 8.421046e-01 1.578954e-01
 0.000000e+00 0.000000e+00 0.000000e+00 0.000000e+00 0.000000e+00 0.000000e+00 0.000000e+00
<ENDHMM>
~h "f"
<BEGINHMM>
<NUMSTATES> 7
<STATE> 2
<SWEIGHTS> 5
 1.000000e+00 0.000000e+00 0.000000e+00 0.000000e+00 0.000000e+00
<STREAM> 1
<MEAN> 180
 1.371559e+00 1.858453e+00 8.257165e-01 4.055539e-01 2.556252e-01 -5.406767e-03 -5.109908e-02 1.810819e-02 -1.854401e-01 -3.225600e-02 -1.938006e-01 7.574130e-02 -6.107891e-02 1.854610e-01 -1.083051e-01 1.640653e-02 -2.817189e-02 -3.378745e-02 -7.040770e-02 -2.168263e-02 -8.400247e-02 -1.801541e-02 4.425681e-02 1.651073e-02 -1.956156e-02 1.270553e-01 -4.994892e-02 -2.724211e-02 -8.626641e-03 3.046451e-02 8.260208e-03 5.452937e-02 -5.847849e-02 -4.126306e-02 9.405597e-02 -1.628215e-02 -4.322282e-02 3.604252e-02 1.725556e-02 -6.130178e-02 6.586923e-02 -1.099264e-02 -4.398471e-02 5.576676e-02 -1.697235e-02 -2.601883e-02 1.783849e-02 1.119692e-02 -3.196183e-02 1.743430e-02 2.547072e-02 -5.126485e-02 2.815267e-02 9.729460e-03 -2.644674e-02 2.213901e-02 -1.585961e-02 7.218935e-03 6.847744e-03 -2.776233e-02 4.691991e-02 1.052014e-01 3.678266e-02 -2.152520e-02 -5.626144e-02 -2.798712e-02 5.421003e-03 1.050483e-02 9.263335e-03 -8.192805e-03 -6.631078e-03 7.613599e-04 7.484436e-03 1.660568e-03 8.144037e-03 -3.587772e-03 1.027127e-02 -3.449991e-03 -3.152043e-03 8.428202e-03 1.919982e-03 -3.936518e-03 8.481540e-03 -1.852797e-03 -1.058116e-02 5.071877e-03 5.027847e-04 -2.852113e-03 4.716087e-03 -2.109078e-03 -9.317801e-04 -4.167445e-03 4.057946e-03 -8.932306e-04 -1.930437e-03 -7.811214e-04 -2.934535e-03 2.814123e-03 4.818985e-03 -4.543961e-03 -8.197100e-05 3.874463e-03 -6.776578e-03 2.248700e-03 3.680636e-03 -2.456689e-03 -3.079942e-03 4.281343e-03 -1.368007e-03 -1.487436e-03 1.041013e-03 1.826392e-03 -3.248187e-03 1.868176e-03 1.140622e-03 -5.237234e-04 -1.644080e-03 3.123007e-04 2.958806e-03 -3.773071e-03 7.027714e-03 -1.603871e-03 -7.360953e-03 9.362311e-05 1.765496e-03 -2.658628e-03 -8.796634e-03 3.847643e-03 3.943792e-04 -4.572568e-03 2.055628e-02 8.742983e-03 -7.107923e-04 -7.951242e-03 -5.348490e-03 2.546128e-03 -5.105962e-03 -3.537774e-05 -6.524986e-03 7.048050e-03 8.845815e-03 3.930623e-03 -3.749147e-03 -7.752405e-03 -9.026630e-04 2.054907e-03 8.038068e-03 7.130316e-04 -8.187643e-03 -4.622303e-03 4.710082e-03 -6.614924e-03 4.346950e-03 9.091692e-03 -1.118685e-02 -1.704677e-03 9.918979e-03 -4.148184e-03 -9.130063e-03 9.138824e-03 -1.349146e-03 -2.953202e-03 3.050324e-03 6.534351e-04 -3.426801e-03 1.476154e-03 6.421380e-03 -6.426057e-03 -2.946696e-03 5.026528e-03 -1.884440e-03 -3.013606e-04 1.644694e-03 3.084894e-04 -2.203504e-03 -3.204295e-03 7.462861e-03 -1.890742e-03 -4.716632e-03 7.088830e-03
<VARIANCE> 180
 4.246772e-01 1.282659e+00 2.716304e-01 8.553918e-02 3.178709e-01 1.325059e-01 3.751298e-02 2.575282e-02 2.679347e-02 2.127095e-02 5.387743e-02 2.282769e-02 1.167647e-02 2.503049e-02 3.335651e-02 1.007977e-02 7.817821e-03 1.848805e-02 1.003831e-02 7.550611e-03 5.056968e-03 8.386112e-03 1.245596e-02 6.227785e-03 6.270422e-03 5.867958e-03 5.276691e-03 5.466825e-03 4.318745e-03 3.137604e-03 9.460551e-03 1.687842e-03 5.487571e-03 2.795506e-03 1.072472e-03 2.746121e-03 2.289378e-03 1.767751e-03 2.651356e-03 3.905199e-03 1.520697e-03 3.435271e-03 3.343532e-03 2.360728e-03 2.952656e-03 2.562382e-03 1.641789e-03 2.132626e-03 1.045665e-03 1.117394e-03 2.006238e-03 2.894781e-03 1.323798e-03 6.067424e-04 1.467830e-03 1.099879e-03 6.983180e-04 9.993385e-04 1.971113e-03 1.452942e-03 1.157885e-02 1.996386e-02 1.738296e-02 9.108601e-03 1.447903e-02 9.588489e-03 7.912966e-03 6.982488e-03 2.611857e-03 3.081142e-03 6.816403e-03 6.162532e-03 3.117343e-03 5.667299e-03 5.471191e-03 2.645076e-03 2.182679e-03 3.504501e-03 2.586260e-03 1.928010e-03 2.535504e-03 2.268293e-03 2.432690e-03 1.504540e-03 1.941276e-03 2.949397e-03 1.725424e-03 2.602841e-03 1.882528e-03 1.269325e-03 1.963937e-03 1.093891e-03 1.618190e-03 1.447426e-03 8.163935e-04 1.150324e-03 1.063030e-03 7.159902e-04 9.337839e-04 1.285048e-03 4.371381e-04 9.945373e-04 1.310152e-03 9.564335e-04 8.763177e-04 7.510230e-04 5.810863e-04 8.746146e-04 4.692425e-04 5.356026e-04 7.429799e-04 6.071093e-04 3.689325e-04 3.275824e-04 4.894749e-04 3.515075e-04 3.490426e-04 5.685534e-04 8.091653e-04 4.832224e-04 1.936629e-02 1.548009e-02 1.906984e-02 2.364333e-02 2.566574e-02 4.541366e-02 3.744485e-02 2.858356e-02 2.306419e-02 1.777023e-02 3.536349e-02 1.994340e-02 1.441003e-02 1.673622e-02 1.800565e-02 1.722430e-02 2.081177e-02 1.516305e-02 1.903277e-02 2.094189e-02 1.291831e-02 9.529677e-03 9.963523e-03 1.384162e-02 1.922382e-02 1.082451e-02 1.482656e-02 1.074515e-02 8.550293e-03 9.347330e-03 1.355489e-02 8.670829e-03 5.698838e-03 5.812495e-03 3.191396e-03 7.354205e-03 7.418648e-03 7.282581e-03 4.426755e-03 7.336329e-03 7.257386e-03 5.080421e-03 6.155519e-03 7.038051e-03 3.973968e-03 5.582691e-03 4.683862e-03 3.943282e-03 4.849949e-03 4.729126e-03 4.896092e-03 5.888944e-03 3.132879e-03 3.127309e-03 3.782628e-03 2.518793e-03 3.813040e-03 1.818444e-03 2.872269e-03 2.694476e-03
<GCONST> -6.336889e+02
<STREAM> 2
<NUMMIXES> 2
<MIXTURE> 1 8.457068e-01
<MEAN> 1
 5.250486e+00
<VARIANCE> 1
 2.058663e-02
<GCONST> -2.045237e+00
<MIXTURE> 2 1.542933e-01
<MEAN> 0
<VARIANCE> 0
<GCONST> 0.000000e+00
<STREAM> 3
<NUMMIXES> 2
<MIXTURE> 1 7.685599e-01
<MEAN> 1
 9.630182e-03
<VARIANCE> 1
 5.178766e-04
<GCONST> -5.727897e+00
<MIXTURE> 2 2.314402e-01
<MEAN> 0
<VARIANCE> 0
<GCONST> 0.000000e+00
<STREAM> 4
<NUMMIXES> 2
<MIXTURE> 1 7.685599e-01
<MEAN> 1
 -1.003467e-02
<VARIANCE> 1
 3.946161e-03
<GCONST> -3.697135e+00
<MIXTURE> 2 2.314402e-01
<MEAN> 0
<VARIANCE> 0
<GCONST> 0.000000e+00
<STREAM> 5
<MEAN> 15
 -2.118008e+00 -2.134883e+00 -2.572664e+00 -2.167636e+00 -2.110717e+00 -2.263526e-02 4.071390e-03 -4.879261e-03 -1.332128e-03 -1.071609e-03 -8.409632e-02 -8.449479e-02 5.972874e-02 7.924623e-02 -2.546630e-03
<VARIANCE> 15
 1.451232e+00 2.136644e+00 1.858223e+00 1.781564e+00 2.109116e+00 4.809455e-01 9.370031e-01 7.805325e-01 8.521518e-01 6.943975e-01 2.176813e+00 6.169247e+00 7.959750e+00 7.288998e+00 7.261226e+00
<GCONST> 3.771439e+01
<STATE> 3
<SWEIGHTS> 5
 1.000000e+00 0.000000e+00 0.000000e+00 0.000000e+00 0.000000e+00
<STREAM> 1
<MEAN> 180
 1.521780e+00 2.927488e+00 1.573075e+00 6.204205e-01 -7.002751e-02 -2.430222e-01 -1.959622e-01 -1.002482e-02 -5.018341e-02 -1.149711e-01 -1.077992e-01 8.167489e-02 -8.996047e-02 5.418786e-02 2.645240e-02 2.929120e-03 8.482537e-03 -3.849720e-02 -2.992593e-02 4.018248e-02 -1.040980e-01 -1.968943e-02 5.942431e-02 -4.798537e-02 -2.787593e-02 8.877138e-02 2.759688e-03 1.139781e-02 1.539959e-02 6.309577e-03 -1.603518e-02 6.775979e-04 9.512011e-03 -5.038688e-03 -9.446208e-03 -1.030777e-02 1.174659e-02 4.366368e-03 -1.111202e-02 8.652120e-03 5.483573e-03 3.675805e-03 -1.099963e-02 1.586890e-02 -1.177622e-02 7.851130e-03 -1.776157e-02 8.645949e-03 1.220771e-02 -3.482428e-02 3.724829e-02 -1.010208e-02 -2.486684e-02 3.992226e-02 -2.195504e-02 -1.444783e-03 2.070446e-02 -3.561645e-02 2.770855e-02 -2.536733e-03 -4.714832e-02 -1.808807e-02 1.240820e-02 3.969966e-02 6.828515e-02 3.203451e-02 2.184244e-02 5.120858e-02 1.679206e-02 1.604584e-02 6.016931e-02 1.578568e-02 2.110551e-02 -8.551556e-03 -8.014151e-03 6.484833e-03 -1.500958e-02 2.034399e-02 3.127293e-02 -6.696925e-03 7.946789e-03 3.785278e-02 -1.531527e-02 -2.957491e-03 6.732748e-03 -2.098506e-02 -4.237507e-03 -1.171318e-02 -1.126080e-02 -6.528646e-03 -4.433331e-03 -1.341928e-02 9.886308e-03 2.483827e-02 -2.238622e-02 1.343201e-03 1.873734e-02 -1.504455e-02 -1.008376e-02 1.621461e-02 -8.447563e-03 -4.456662e-03 -3.102146e-04 3.502086e-03 -2.866988e-03 -1.234125e-03 1.298061e-02 -1.606077e-02 1.548706e-03 5.557556e-03 -4.549928e-03 -1.734214e-03 7.923077e-03 2.567533e-03 -1.445065e-02 8.486911e-03 -1.117316e-03 4.272528e-03 -1.794733e-03 -4.400980e-03 -1.581585e-02 6.774158e-03 2.118669e-03 2.057614e-02 9.411213e-03 3.105230e-02 8.147487e-02 2.868073e-02 -3.326770e-03 -2.130833e-02 -4.538375e-02 -1.290985e-02 7.317123e-03 8.128227e-03 -1.619725e-02 -5.373444e-02 -3.673562e-03 -1.616571e-03 3.558719e-02 -3.325830e-02 -2.513404e-02 2.696015e-02 -4.725802e-03 1.191316e-02 1.487472e-02 -6.888438e-04 -1.388767e-03 -1.245871e-02 -1.494041e-02 2.156902e-02 7.301731e-03 2.330972e-02 -2.080593e-02 -1.481784e-02 2.233004e-02 3.746305e-03 -1.337216e-02 -5.195086e-03 1.165328e-02 -8.424753e-03 7.176812e-03 -5.048339e-03 1.983500e-03 1.010221e-02 -1.295121e-02 4.543450e-03 -2.771527e-03 -1.194659e-03 1.600204e-02 -7.719954e-03 -8.973181e-03 8.634534e-03 3.356845e-03 -1.978168e-02 1.463570e-02 9.466037e-03 -2.503630e-02 2.332540e-02 -7.900876e-03 -6.979036e-03
<VARIANCE> 180
 5.168311e-01 7.410148e-01 9.398395e-02 2.703830e-02 2.202893e-01 9.786636e-02 8.839088e-03 3.608845e-02 4.707716e-02 3.745805e-02 3.814437e-02 2.323715e-02 2.033138e-02 4.099774e-03 3.176865e-03 3.456100e-03 3.299128e-03 1.240550e-02 3.380623e-03 3.478911e-03 3.036168e-03 7.710203e-03 2.823460e-03 4.792512e-03 1.646425e-03 3.768239e-03 4.985958e-03 3.073226e-03 4.475140e-04 3.906158e-03 2.833105e-03 1.481211e-03 2.916157e-03 2.942673e-03 4.578683e-04 3.002887e-03 4.406917e-03 9.983984e-04 1.168993e-03 1.670816e-03 1.127938e-03 8.495350e-04 7.034746e-04 7.162619e-04 2.346920e-03 1.449226e-03 1.844043e-03 2.962417e-03 2.679185e-03 2.545629e-03 1.615575e-03 7.803930e-04 7.967239e-04 3.969124e-04 1.246642e-03 1.093028e-03 7.768502e-04 4.049708e-04 9.594326e-04 7.031552e-04 5.119105e-03 3.023906e-03 2.110703e-03 2.812197e-03 2.709763e-03 3.505875e-03 1.422622e-02 4.854540e-03 7.555604e-03 9.001565e-03 3.551791e-03 6.590297e-03 7.124422e-03 5.143740e-03 1.735419e-03 2.705604e-03 2.077064e-03 9.370354e-04 7.723445e-04 2.260344e-03 1.716057e-03 3.744657e-03 8.588262e-04 3.120533e-03 9.186385e-04 1.997686e-03 1.135268e-03 2.763196e-03 6.427768e-04 2.442524e-03 1.740894e-03 1.459536e-03 1.618506e-03 3.820302e-04 9.569598e-04 6.858029e-04 2.692581e-04 8.052026e-04 5.379760e-04 1.126362e-03 1.659175e-03 1.232403e-03 3.253550e-04 1.169382e-03 1.000389e-03 2.182294e-04 5.078456e-04 9.260754e-04 8.474508e-04 5.321333e-04 2.862489e-04 4.924124e-04 6.104084e-04 2.407589e-04 4.301654e-04 6.087968e-04 5.249003e-04 3.686715e-04 4.643460e-04 2.915076e-04 4.834765e-03 1.015285e-02 2.433373e-02 1.078415e-02 2.012909e-02 1.713092e-02 2.269877e-02 1.471884e-02 3.495296e-02 3.668494e-02 2.248888e-02 2.234677e-02 3.541713e-02 1.718579e-02 1.052667e-02 1.026546e-02 8.774522e-03 8.674209e-03 1.613520e-02 1.037582e-02 2.219924e-02 3.280301e-02 1.005619e-02 2.001575e-02 2.026189e-02 1.570938e-02 1.091104e-02 1.296750e-02 4.633624e-03 9.392027e-03 5.501786e-03 1.150856e-02 6.821694e-03 6.383067e-03 4.340210e-03 6.003072e-03 3.422296e-03 3.620103e-03 1.922233e-03 2.962128e-03 3.356173e-03 2.193998e-03 3.095121e-03 3.354212e-03 2.499145e-03 1.099675e-03 2.362055e-03 1.866359e-03 2.098892e-03 3.553942e-03 2.129590e-03 1.416000e-03 1.734370e-03 7.805584e-04 4.055356e-03 1.939258e-03 3.648455e-03 4.541785e-03 1.541675e-03 9.120535e-04
<GCONST> -7.020651e+02
<STREAM> 2
<NUMMIXES> 2
<MIXTURE> 1 8.888903e-01
<MEAN> 1
 5.406192e+00
<VARIANCE> 1
 8.893251e-03
<GCONST> -2.884586e+00
<MIXTURE> 2 1.111097e-01
<MEAN> 0
<VARIANCE> 0
<GCONST> 0.000000e+00
<STREAM> 3
<NUMMIXES> 2
<MIXTURE> 1 7.777806e-01
<MEAN> 1
 -4.560149e-03
<VARIANCE> 1
 7.216256e-05
<GCONST> -7.698712e+00
<MIXTURE> 2 2.222195e-01
<MEAN> 0
<VARIANCE> 0
<GCONST> 0.000000e+00
<STREAM> 4
<NUMMIXES> 2
<MIXTURE> 1 7.777806e-01
<MEAN> 1
 1.022664e-03
<VARIANCE> 1
 2.506953e-04
<GCONST> -6.453395e+00
<MIXTURE> 2 2.222195e-01
<MEAN> 0
<VARIANCE> 0
<GCONST> 0.000000e+00
<STREAM> 5
<MEAN> 15
 -3.200501e+00 -1.906071e+00 -2.038861e+00 -1.991278e+00 -1.910250e+00 -2.295958e-01 -2.824646e-01 -2.887289e-01 -2.469304e-01 2.751850e-03 3.160603e-01 1.496894e-01 -2.453568e-01 -1.888888e-01 2.263770e-01
<VARIANCE> 15
 2.502508e+00 9.609430e-01 8.911034e-01 8.783047e-01 8.843426e-01 1.256736e+00 6.196063e-01 4.408190e-01 8.266663e-01 4.976105e-01 7.366854e+00 4.294527e+00 2.249587e+00 4.553020e+00 4.639866e+00
<GCONST> 3.343563e+01
<STATE> 4
<SWEIGHTS> 5
 1.000000e+00 0.000000e+00 0.000000e+00 0.000000e+00 0.000000e+00
<STREAM> 1
<MEAN> 180
 1.139759e+00 2.735560e+00 1.657061e+00 7.798101e-01 2.376321e-01 4.222177e-02 1.197589e-01 1.193847e-01 -1.006073e-01 -9.216644e-02 -1.566777e-01 -1.448144e-01 -2.667605e-02 9.003760e-02 -3.836731e-02 -6.186803e-02 -6.501978e-02 -3.244985e-02 5.653024e-02 3.882877e-02 -7.637981e-02 2.926818e-02 2.884630e-02 -1.891663e-02 9.611595e-03 4.155600e-02 -5.561446e-03 3.892236e-04 -3.611029e-02 4.610656e-02 -1.031957e-02 -1.622744e-02 9.956320e-03 2.046059e-02 -2.889241e-02 7.225443e-03 -1.086380e-04 -7.526583e-03 -3.442722e-03 -5.149092e-04 -9.667110e-04 1.470967e-02 -2.531774e-02 1.375157e-02 3.216286e-03 -4.907706e-03 -3.583914e-03 4.493180e-03 6.752163e-03 -1.167711e-02 9.194996e-03 1.985949e-03 -1.322571e-02 1.879594e-02 -2.414331e-02 2.605726e-02 -1.685015e-02 3.902500e-03 1.091607e-02 -1.646594e-02 -4.005634e-02 -5.632604e-02 -2.808182e-02 1.595524e-05 2.213941e-02 4.851259e-02 7.327580e-02 4.392571e-02 1.129285e-02 -1.452808e-02 -3.743504e-02 -4.952615e-02 9.550673e-03 4.496945e-02 -9.312058e-03 -3.903125e-02 -2.433467e-02 9.274260e-04 1.226253e-02 1.108952e-02 1.628999e-02 -1.616876e-02 -2.226047e-02 9.528664e-03 2.821141e-02 -1.043653e-03 -1.811530e-02 -3.322032e-03 1.181875e-02 -8.093382e-03 -1.886945e-03 2.681915e-02 -1.580489e-02 -1.741060e-02 1.840422e-02 2.647188e-03 -7.614214e-03 1.983196e-03 -8.404566e-04 1.176875e-03 -1.667305e-03 -6.741658e-04 -3.621743e-03 3.870066e-03 7.743954e-04 -4.370258e-03 5.200668e-03 -3.707473e-03 5.214312e-03 -1.712957e-04 -7.247233e-03 9.795922e-03 -6.230179e-03 -5.353313e-03 1.083792e-02 -5.560090e-03 -4.528143e-03 1.278890e-02 -1.457634e-02 7.588722e-03 1.033591e-02 -2.562811e-02 -8.628240e-03 -1.844803e-02 -5.164106e-02 -3.944898e-02 -5.596101e-02 -4.378168e-02 3.697493e-02 2.428376e-02 3.301572e-03 3.537892e-02 5.137844e-03 -1.157017e-03 3.065585e-02 3.402459e-02 7.325341e-03 -8.230543e-03 -5.436647e-02 2.729418e-02 3.090869e-02 -8.714385e-02 -1.533233e-02 5.034506e-02 3.065134e-03 -2.586599e-02 1.425862e-02 -7.206867e-04 1.277257e-02 -7.865760e-03 3.187856e-04 1.001833e-02 -1.869723e-02 5.379152e-03 9.604476e-03 -1.194274e-02 9.403330e-03 8.245481e-03 -9.086352e-03 -4.223797e-03 4.771470e-03 2.135375e-03 3.253201e-03 -1.328138e-02 8.318786e-03 7.843786e-04 -7.916952e-03 1.225099e-02 -7.732411e-03 -2.151286e-03 7.477331e-03 -6.808323e-03 -1.965308e-03 7.409279e-03 -3.671606e-03 -4.660081e-03 9.310018e-03 -1.137250e-02 2.108265e-03 7.688331e-03
<VARIANCE> 180
 3.035717e-01 5.087087e-01 1.433308e-01 8.407726e-03 1.164275e-01 5.818199e-02 1.678859e-02 1.405556e-02 2.693190e-02 6.728629e-03 4.337548e-02 2.092510e-02 1.586237e-02 8.490375e-03 5.940469e-03 3.888234e-03 1.126404e-02 1.651276e-02 4.675131e-03 1.004587e-02 7.751373e-03 5.487193e-03 2.950487e-03 1.480027e-03 2.562604e-03 2.316308e-03 4.867136e-03 8.497459e-04 4.512507e-03 3.735596e-03 1.611450e-03 2.599090e-03 2.025080e-03 3.396594e-03 2.283639e-03 1.631584e-03 2.225639e-03 1.817274e-03 5.701616e-04 8.523275e-04 2.324141e-03 2.518144e-03 7.327956e-04 2.075922e-03 2.700505e-03 2.475192e-03 1.172321e-03 7.268686e-04 1.355132e-03 1.420626e-03 4.782888e-04 1.276636e-03 2.247787e-03 1.217938e-03 6.907223e-04 1.626495e-03 1.289561e-03 4.642605e-04 6.186156e-04 9.019838e-04 3.958718e-03 1.666450e-03 4.969803e-03 2.490903e-03 6.420072e-03 5.400333e-03 5.908195e-03 6.451879e-03 6.393845e-03 6.275996e-03 4.016011e-03 5.842227e-03 8.979177e-03 3.206847e-03 4.818832e-03 3.275329e-03 4.035948e-03 4.875630e-03 4.021925e-03 3.039323e-03 2.494168e-03 2.017107e-03 1.451536e-03 1.633011e-03 2.648730e-03 3.985321e-04 2.056206e-03 9.076316e-04 2.720698e-03 3.047802e-03 8.879785e-04 1.309398e-03 1.651544e-03 9.707573e-04 7.788665e-04 9.848149e-04 5.975403e-04 4.397799e-04 2.326539e-04 2.619347e-04 9.203824e-04 9.263013e-04 4.329582e-04 6.097827e-04 1.380776e-03 1.719883e-03 3.921030e-04 2.523582e-04 1.018763e-03 8.144542e-04 2.109078e-04 5.352983e-04 1.038361e-03 9.870750e-04 6.159529e-04 3.986341e-04 6.831996e-04 7.262071e-04 4.154235e-04 3.556568e-04 1.073286e-02 3.083596e-03 1.628208e-02 2.133572e-02 4.663347e-02 2.640782e-02 5.784608e-02 1.490387e-02 3.584063e-02 3.001151e-02 4.800781e-02 5.011868e-02 5.015739e-02 5.740182e-02 4.255483e-02 2.455296e-02 3.482365e-02 3.015281e-02 2.702750e-02 4.766783e-02 3.743446e-02 2.608640e-02 6.479151e-03 1.303126e-02 9.942413e-03 1.404148e-02 3.444026e-02 5.498616e-03 2.412271e-02 2.721127e-02 1.256749e-02 1.836134e-03 8.388513e-03 6.787529e-03 1.279912e-02 8.768735e-03 4.179411e-03 9.882906e-03 3.349794e-03 3.002782e-03 4.929853e-03 8.614683e-03 6.046146e-03 3.024778e-03 1.019212e-02 1.317164e-02 3.560390e-03 3.396023e-03 7.117326e-03 3.248491e-03 2.237808e-03 7.849171e-03 8.063667e-03 3.739648e-03 1.561937e-03 4.659810e-03 5.050226e-03 3.214491e-03 1.415633e-03 1.150156e-03
<GCONST> -6.655071e+02
<STREAM> 2
<NUMMIXES> 2
<MIXTURE> 1 1.000000e+00
<MEAN> 1
 5.400839e+00
<VARIANCE> 1
 6.593417e-03
<GCONST> -3.183807e+00
<MIXTURE> 2 0.000000e+00
<MEAN> 0
<VARIANCE> 0
<GCONST> 0.000000e+00
<STREAM> 3
<NUMMIXES> 2
<MIXTURE> 1 1.000000e+00
<MEAN> 1
 -1.216297e-02
<VARIANCE> 1
 6.557069e-04
<GCONST> -5.491920e+00
<MIXTURE> 2 0.000000e+00
<MEAN> 0
<VARIANCE> 0
<GCONST> 0.000000e+00
<STREAM> 4
<NUMMIXES> 2
<MIXTURE> 1 1.000000e+00
<MEAN> 1
 -2.902915e-02
<VARIANCE> 1
 7.099803e-03
<GCONST> -3.109811e+00
<MIXTURE> 2 0.000000e+00
<MEAN> 0
<VARIANCE> 0
<GCONST> 0.000000e+00
<STREAM> 5
<MEAN> 15
 -2.531555e+00 -2.665465e+00 -2.964999e+00 -2.385377e+00 -1.658152e+00 3.142273e-02 -2.344070e-01 7.751617e-02 2.368512e-01 3.783584e-02 -3.363723e-01 -1.646953e-01 7.224914e-01 -2.192014e-02 -2.589679e-01
<VARIANCE> 15
 9.537504e-01 1.110291e+00 7.573969e-01 4.384437e-01 1.678567e-01 3.677822e-01 4.725354e-01 4.790151e-01 3.557553e-01 1.338959e-01 9.710113e+00 3.433307e+00 6.149775e+00 2.031857e+00 1.120906e+00
<GCONST> 2.535445e+01
<STATE> 5
<SWEIGHTS> 5
 1.000000e+00 0.000000e+00 0.000000e+00 0.000000e+00 0.000000e+00
<STREAM> 1
<MEAN> 180
 1.035068e+00 2.474744e+00 1.485636e+00 8.064197e-01 3.043781e-01 1.608267e-01 1.597886e-01 1.097371e-01 -7.528367e-02 -2.077091e-01 -1.653435e-01 -4.033526e-02 -4.129830e-02 5.806661e-02 -1.271212e-02 -1.929639e-02 -3.723276e-02 -3.199480e-02 -4.156451e-02 2.314321e-03 1.662014e-03 -6.691625e-04 -6.084396e-02 1.491158e-02 7.651579e-02 1.248519e-02 -5.096598e-03 1.337988e-03 -1.152493e-02 4.803030e-03 7.375691e-03 2.795651e-02 -3.454999e-02 8.497402e-03 3.611968e-03 3.776794e-03 -1.217840e-02 1.677080e-02 -2.013224e-02 -7.285622e-03 1.371850e-02 -3.858577e-03 -1.442333e-02 1.112041e-02 5.664694e-03 -1.562048e-02 9.142092e-03 3.664108e-03 -1.366904e-02 1.512906e-02 -7.389605e-03 -1.685377e-03 3.676835e-03 -9.824230e-04 -1.055171e-03 3.364235e-03 -3.732170e-03 5.230525e-03 -6.491984e-03 4.745657e-03 2.357850e-02 -4.463481e-02 -3.122450e-02 -1.916960e-02 -1.836986e-02 3.762399e-03 -3.181809e-02 -1.929102e-02 1.862135e-02 2.881688e-02 1.111422e-02 1.653097e-02 -2.748294e-02 -3.184246e-02 3.392660e-02 3.082658e-02 2.552755e-02 -4.965368e-03 -4.496287e-02 -2.001411e-02 5.021635e-03 1.208969e-03 -2.107065e-03 1.180936e-02 3.470914e-03 -1.464758e-02 1.517474e-02 1.188274e-02 -2.099189e-02 1.715330e-03 1.097860e-02 -7.075734e-03 -1.390260e-03 5.269066e-03 -6.144546e-04 -1.038952e-02 1.149422e-02 2.115418e-03 -1.164451e-02 8.522741e-03 4.407027e-04 -6.466212e-03 6.229989e-03 5.459271e-04 -4.664369e-03 6.884622e-03 -4.714702e-03 -8.762599e-04 1.541502e-03 -2.547719e-03 -1.579472e-03 3.012263e-03 9.095286e-04 7.996236e-04 1.230062e-03 -9.038952e-03 1.404074e-02 -1.408788e-02 4.323890e-03 8.851795e-03 3.836573e-02 2.532788e-03 -1.102640e-02 -2.879554e-02 2.261010e-02 3.704055e-02 -2.684400e-02 4.051629e-03 -2.004993e-02 4.561563e-02 1.507105e-02 -2.211501e-02 -3.359956e-02 -2.880420e-02 -2.770963e-02 -1.171400e-02 2.455455e-02 1.571272e-02 3.591022e-02 -4.923708e-03 -2.550368e-02 3.807273e-02 2.085409e-02 -4.382203e-02 -1.170567e-02 2.518705e-02 -1.337156e-02 1.510479e-02 -7.374622e-03 1.006048e-02 -7.270497e-03 -2.265216e-02 1.362364e-02 1.417923e-02 -2.175244e-03 -2.282885e-02 1.832597e-02 -6.660611e-03 -4.747689e-03 1.462466e-02 8.578509e-04 -1.849833e-02 8.909550e-03 1.443367e-02 -1.968318e-02 3.846093e-03 8.575819e-03 -1.367834e-02 5.819580e-03 -8.459925e-04 -4.190222e-03 1.200718e-02 -7.294633e-03 7.282817e-03 -3.671564e-03 2.655110e-03 2.222246e-03 -1.069409e-02 1.550813e-02 -1.471003e-02
<VARIANCE> 180
 3.445844e-01 4.475180e-01 1.172323e-01 1.043470e-02 4.556002e-02 2.777041e-02 1.118920e-02 2.377979e-02 5.612008e-03 3.879036e-02 1.856378e-02 8.267247e-03 1.033524e-02 5.939863e-03 4.294517e-03 6.087736e-03 8.694333e-03 1.253711e-02 1.099691e-02 4.478350e-03 3.209158e-03 4.557563e-03 1.679303e-03 2.628045e-03 2.898574e-03 1.880314e-03 2.011783e-03 1.235716e-03 1.609118e-03 2.393927e-03 5.941237e-04 3.242592e-03 1.529015e-03 2.410445e-03 9.428585e-04 1.778779e-03 1.269446e-03 8.844620e-04 5.950403e-04 3.835490e-04 1.851312e-03 1.038486e-03 2.031831e-03 1.742699e-03 7.814880e-04 1.045240e-03 5.704531e-04 1.420856e-04 2.934402e-04 7.121918e-04 5.752456e-04 7.286544e-04 4.956364e-04 1.439008e-04 6.939272e-04 7.316209e-04 8.025624e-04 1.381774e-03 1.991907e-03 1.597982e-03 8.749041e-03 1.371892e-02 4.670681e-03 5.282524e-03 2.485983e-03 6.938632e-03 4.112365e-03 6.183533e-03 3.138429e-03 7.711516e-03 6.179366e-03 3.695536e-03 1.169680e-03 3.936463e-03 1.355726e-03 2.328748e-03 8.097651e-04 1.070934e-03 2.303491e-03 1.486777e-03 1.414538e-03 3.224077e-03 1.433825e-03 2.219096e-03 1.208371e-03 3.296168e-04 1.247120e-03 1.904372e-04 4.114652e-04 8.479641e-04 5.929448e-04 7.041272e-04 1.522156e-03 7.554328e-04 4.277126e-04 9.184405e-04 7.571022e-04 5.769851e-04 2.192181e-04 2.308948e-04 6.489404e-04 1.185268e-03 7.557166e-04 1.944600e-04 6.477662e-04 5.295107e-04 1.892219e-04 6.838307e-05 1.993225e-04 3.721910e-04 2.518015e-04 7.524943e-04 7.004566e-04 2.859285e-04 1.373249e-04 2.372776e-04 2.961598e-04 4.056689e-04 6.068594e-04 7.428671e-04 1.661427e-02 2.777740e-02 1.823409e-02 2.516335e-02 3.978527e-02 4.417862e-02 6.715849e-03 3.211673e-02 5.649135e-02 3.438665e-02 2.455849e-02 2.381053e-02 1.812030e-02 9.692390e-03 6.872327e-03 1.964753e-02 1.539647e-02 1.052599e-02 3.103638e-02 1.507699e-02 1.209340e-02 3.320561e-02 1.070396e-02 1.430187e-02 3.107592e-03 1.539236e-02 8.645096e-03 2.648166e-03 4.898293e-03 6.568850e-03 2.623201e-03 5.809668e-03 3.500097e-03 6.449656e-03 2.974773e-03 5.171403e-03 6.708311e-03 5.629396e-03 1.757877e-03 2.426209e-03 3.004624e-03 4.130592e-03 4.096794e-03 1.042228e-03 5.882977e-03 3.981113e-03 3.514988e-03 1.832821e-03 2.711008e-03 4.327342e-03 2.601077e-03 5.167529e-03 4.693814e-03 1.122348e-03 2.630245e-03 5.251153e-03 6.468012e-03 3.996079e-03 5.857169e-03 9.497901e-03
<GCONST> -7.312110e+02
<STREAM> 2
<NUMMIXES> 2
<MIXTURE> 1 1.000000e+00
<MEAN> 1
 5.340359e+00
<VARIANCE> 1
 6.072221e-03
<GCONST> -3.266154e+00
<MIXTURE> 2 0.000000e+00
<MEAN> 0
<VARIANCE> 0
<GCONST> 0.000000e+00
<STREAM> 3
<NUMMIXES> 2
<MIXTURE> 1 1.000000e+00
<MEAN> 1
 -3.667563e-03
<VARIANCE> 1
 4.681218e-04
<GCONST> -5.828905e+00
<MIXTURE> 2 0.000000e+00
<MEAN> 0
<VARIANCE> 0
<GCONST> 0.000000e+00
<STREAM> 4
<NUMMIXES> 2
<MIXTURE> 1 1.000000e+00
<MEAN> 1
 1.309119e-02
<VARIANCE> 1
 1.818404e-03
<GCONST> -4.471919e+00
<MIXTURE> 2 0.000000e+00
<MEAN> 0
<VARIANCE> 0
<GCONST> 0.000000e+00
<STREAM> 5
<MEAN> 15
 -2.286298e+00 -2.581041e+00 -2.246852e+00 -2.105738e+00 -2.242845e+00 -5.862575e-02 2.786859e-01 2.436604e-01 -3.316145e-01 -2.767780e-01 -5.212854e-01 2.531703e-01 -6.509029e-01 -2.686410e-01 -1.417486e-01
<VARIANCE> 15
 4.819848e-01 8.574514e-01 6.898382e-01 4.606974e-01 2.558219e-01 5.272734e-01 6.580034e-01 5.643436e-01 2.969567e-01 2.285559e-01 2.064513e+00 7.339398e+00 3.956120e+00 2.262166e+00 1.726163e+00
<GCONST> 2.530976e+01
<STATE> 6
<SWEIGHTS> 5
 1.000000e+00 0.000000e+00 0.000000e+00 0.000000e+00 0.000000e+00
<STREAM> 1
<MEAN> 180
 1.258903e+00 2.356454e+00 1.121673e+00 4.265224e-01 1.625642e-01 3.674939e-01 1.627930e-01 7.933902e-03 -3.952095e-02 -1.021828e-02 -4.640387e-02 5.330342e-02 -1.510103e-01 -3.902935e-03 -4.441814e-02 -9.169834e-02 1.205247e-02 -3.130739e-02 -2.043289e-02 -1.716665e-02 -8.486606e-02 3.732584e-02 -6.565267e-04 -2.468915e-02 8.145563e-02 -4.088784e-03 2.117644e-03 5.528311e-02 -4.609624e-02 6.419212e-03 1.694937e-02 -1.174766e-02 1.079003e-02 -3.611909e-03 -6.316938e-03 -3.445099e-04 9.562939e-03 3.701636e-03 -3.451468e-02 3.687556e-02 -1.239815e-02 -1.107020e-02 -3.805798e-03 2.180631e-02 -2.373291e-02 7.374755e-03 -2.528494e-03 -8.227207e-03 1.981371e-02 -2.831775e-02 1.203329e-02 1.249655e-02 -2.499186e-02 3.414097e-02 -2.113963e-02 3.168138e-03 2.000026e-02 -4.004609e-02 3.172212e-02 -2.396635e-03 1.460215e-01 5.591287e-02 -9.911107e-02 -1.640917e-01 -1.336093e-01 9.047952e-02 2.946359e-02 -1.304020e-02 7.919265e-02 4.619008e-02 1.652591e-02 5.903352e-02 -6.302310e-02 -3.542454e-02 -2.736804e-02 -4.177565e-02 5.434736e-03 1.246435e-02 3.756538e-02 -1.530406e-02 -6.119486e-02 3.029164e-02 4.776577e-02 -3.137236e-02 1.449827e-02 9.041677e-03 -2.715755e-02 1.299418e-02 1.716581e-02 -6.412117e-03 -1.114817e-02 -2.788638e-03 1.840579e-02 -1.556501e-02 -1.141560e-03 1.556521e-02 -1.198599e-02 -1.202251e-02 1.888563e-02 1.950288e-03 -1.562608e-02 9.566704e-03 -1.249983e-03 1.266915e-05 -1.043722e-02 8.829284e-03 -9.554604e-04 -4.580704e-03 1.200058e-02 -1.464322e-02 1.655564e-02 -9.341131e-03 -3.300261e-03 1.610382e-02 -1.672736e-02 1.238671e-02 3.451368e-04 -1.245916e-02 1.364928e-02 -9.914677e-03 -3.430667e-02 5.779317e-02 9.737274e-02 1.038218e-01 -1.392993e-03 -3.968175e-02 5.098277e-04 -3.340264e-02 1.354452e-02 -2.802648e-02 -1.581157e-02 -4.733660e-02 -3.561342e-02 5.620646e-02 6.254917e-02 3.523534e-02 -2.352599e-02 -2.605189e-02 -7.711434e-03 -7.692257e-03 -3.648192e-02 2.268440e-02 3.520379e-02 -7.741062e-04 -2.883527e-02 1.033353e-02 1.212433e-02 -1.028123e-02 1.454830e-02 -5.735077e-03 -2.152722e-02 2.288632e-02 1.312205e-02 -4.218099e-02 3.033801e-02 1.791960e-02 -5.463013e-02 3.276435e-02 1.769077e-02 -4.402201e-02 8.317440e-03 4.285809e-02 -2.950345e-02 -1.868388e-02 3.443920e-02 -1.372913e-02 -6.037507e-03 1.657811e-02 -2.371678e-02 1.777033e-02 9.783167e-03 -3.324155e-02 2.705603e-02 -4.501813e-03 -1.128204e-02 1.353422e-02 -7.729399e-03 1.745524e-02 -1.740680e-02 6.924232e-03
<VARIANCE> 180
 3.119459e-01 1.892091e-01 6.554877e-02 1.482337e-01 8.288019e-02 2.496932e-01 1.001433e-01 1.351805e-02 1.187637e-02 4.087174e-02 7.665272e-03 2.040276e-02 4.851157e-03 1.090510e-02 6.750668e-03 9.119736e-03 8.027687e-03 9.565731e-03 5.098138e-03 1.041123e-02 3.887702e-03 5.459105e-03 4.669964e-03 9.477843e-03 6.008086e-03 2.676831e-03 1.358397e-02 8.064120e-04 5.234533e-03 4.638720e-03 2.110276e-03 8.851791e-03 6.658576e-03 2.038519e-03 2.032026e-03 3.628920e-03 5.259222e-03 2.969544e-03 1.512285e-03 3.075115e-03 3.721670e-03 1.324877e-03 8.520158e-04 2.493988e-03 3.505395e-04 1.297051e-03 1.110473e-03 5.874038e-04 1.775321e-03 2.586971e-03 2.714650e-03 1.106541e-03 8.441793e-04 1.122552e-03 9.005204e-04 3.627935e-04 5.542851e-04 1.020055e-03 5.102766e-04 3.080080e-04 1.136730e-02 3.170624e-02 3.049536e-02 2.633914e-02 1.783379e-02 6.145603e-02 1.453650e-02 9.899875e-03 8.244665e-03 3.070653e-03 2.145231e-03 2.468926e-03 3.190451e-03 2.598415e-03 2.878731e-03 2.323690e-03 9.559868e-04 1.109329e-03 6.796592e-03 1.377117e-03 6.389037e-04 1.472100e-03 2.972147e-04 1.118899e-03 1.008446e-03 6.195640e-04 1.319548e-03 1.950402e-03 1.448641e-03 1.605670e-03 2.703074e-03 1.760218e-03 1.720173e-03 1.460399e-03 2.567538e-04 8.108899e-04 3.985694e-04 2.180929e-04 1.885419e-04 6.770878e-04 1.374744e-03 6.119484e-04 3.783337e-04 4.704887e-04 1.734870e-04 3.781560e-04 2.251572e-04 2.406555e-04 8.499378e-04 1.021258e-03 1.113136e-03 7.021019e-04 5.097350e-04 4.008604e-04 1.677279e-04 9.961193e-05 3.116360e-04 3.429209e-04 3.210775e-04 3.884987e-04 4.552711e-02 1.955867e-02 8.371966e-02 1.187282e-01 2.566211e-02 1.490604e-01 6.993386e-02 4.435969e-03 1.369080e-02 2.684991e-02 1.659032e-02 1.980643e-02 2.580403e-02 7.966136e-03 2.514616e-02 1.159726e-02 1.617146e-02 9.597364e-03 5.356092e-02 6.157296e-03 1.197770e-02 1.538495e-02 1.261447e-02 2.286576e-02 9.818717e-03 1.311856e-02 2.259336e-02 7.429452e-03 1.050120e-02 1.768151e-02 1.403691e-02 4.489215e-03 8.130849e-03 2.782632e-03 1.761425e-02 1.717718e-02 1.273344e-02 6.737960e-03 1.023841e-02 1.831725e-02 1.033991e-02 3.642877e-03 2.426179e-03 8.540245e-04 1.850815e-03 3.437459e-03 1.511832e-03 4.883355e-03 8.260095e-03 6.663709e-03 6.627319e-03 3.271524e-03 4.516329e-03 8.630582e-03 3.955435e-03 1.027050e-03 5.388623e-03 5.043818e-03 1.789713e-03 2.717612e-03
<GCONST> -6.685199e+02
<STREAM> 2
<NUMMIXES> 2
<MIXTURE> 1 1.000000e+00
<MEAN> 1
 5.326357e+00
<VARIANCE> 1
 1.008891e-02
<GCONST> -2.758441e+00
<MIXTURE> 2 0.000000e+00
<MEAN> 0
<VARIANCE> 0
<GCONST> 0.000000e+00
<STREAM> 3
<NUMMIXES> 2
<MIXTURE> 1 1.000000e+00
<MEAN> 1
 1.386406e-02
<VARIANCE> 1
 8.655796e-04
<GCONST> -5.214234e+00
<MIXTURE> 2 0.000000e+00
<MEAN> 0
<VARIANCE> 0
<GCONST> 0.000000e+00
<STREAM> 4
<NUMMIXES> 2
<MIXTURE> 1 1.000000e+00
<MEAN> 1
 7.504189e-03
<VARIANCE> 1
 1.694251e-03
<GCONST> -4.542638e+00
<MIXTURE> 2 0.000000e+00
<MEAN> 0
<VARIANCE> 0
<GCONST> 0.000000e+00
<STREAM> 5
<MEAN> 15
 -3.816480e+00 -1.816189e+00 -2.832422e+00 -3.291847e+00 -2.396030e+00 -1.396111e-01 1.816091e-01 -2.952829e-01 -4.405494e-01 7.562256e-02 1.086208e+00 -3.812664e-01 2.621031e-01 4.328373e-01 3.821327e-01
<VARIANCE> 15
 3.047285e-01 2.845558e-01 1.473002e+00 9.229639e-01 1.109358e+00 5.683752e-01 1.950000e-01 8.583713e-01 1.662049e-01 6.919171e-01 1.809594e-01 3.382246e+00 5.362321e+00 6.343550e+00 3.172052e+00
<GCONST> 2.520891e+01
<TRANSP> 7
 0.000000e+00 1.000000e+00 0.000000e+00 0.000000e+00 0.000000e+00 0.000000e+00 0.000000e+00
 0.000000e+00 8.842790e-01 1.157210e-01 0.000000e+00 0.000000e+00 0.000000e+00 0.000000e+00
 0.000000e+00 0.000000e+00 6.666643e-01 3.333357e-01 0.000000e+00 0.000000e+00 0.000000e+00
 0.000000e+00 0.000000e+00 0.000000e+00 6.666636e-01 3.333365e-01 0.000000e+00 0.000000e+00
 0.000000e+00 0.000000e+00 0.000000e+00 0.000000e+00 6.249975e-01 3.750025e-01 0.000000e+00
 0.000000e+00 0.000000e+00 0.000000e+00 0.000000e+00 0.000000e+00 4.999986e-01 5.000015e-01
 0.000000e+00 0.000000e+00 0.000000e+00 0.000000e+00 0.000000e+00 0.000000e+00 0.000000e+00
<ENDHMM>
~h "g"
<BEGINHMM>
<NUMSTATES> 7
<STATE> 2
<SWEIGHTS> 5
 1.000000e+00 0.000000e+00 0.000000e+00 0.000000e+00 0.000000e+00
<STREAM> 1
<MEAN> 180
 2.977215e+00 3.025718e+00 9.586205e-01 9.925488e-01 -2.857342e-01 -1.172761e-01 2.451050e-01 -1.024843e-01 -2.094916e-01 -2.935160e-02 -3.564311e-01 1.560815e-01 -1.082159e-01 2.287481e-01 1.739081e-01 -8.004826e-02 2.367813e-02 -1.372646e-01 4.832052e-02 2.071374e-02 -1.189749e-01 -9.979589e-04 2.244648e-02 4.787585e-02 -2.000088e-02 6.892356e-02 -6.792913e-02 3.734026e-02 -4.394003e-02 8.152989e-02 -8.138676e-02 1.676063e-02 4.748005e-02 -5.861069e-02 2.438674e-02 -1.562742e-02 4.611280e-02 -7.671913e-02 5.070423e-02 1.531835e-02 -5.573234e-02 4.336268e-02 6.290728e-04 -2.009674e-02 5.294065e-03 1.022875e-02 -2.429989e-02 2.117336e-02 -2.199526e-02 3.237668e-02 -2.712909e-02 7.624822e-03 2.281467e-02 -4.361739e-02 3.689274e-02 -5.470514e-03 -2.512932e-02 3.120259e-02 -9.442321e-03 -2.299878e-02 8.491015e-02 1.190572e-01 5.298010e-02 8.719536e-03 -1.230655e-01 -2.960459e-02 5.502999e-02 -7.038222e-02 3.027731e-02 -6.174674e-03 -3.161099e-02 2.810604e-02 -1.282702e-02 1.702356e-02 4.246558e-02 1.109516e-02 1.541874e-02 -4.282543e-02 -2.299268e-02 1.602411e-02 1.154214e-02 -8.677391e-03 -7.722497e-03 1.583621e-02 -1.100752e-03 7.040938e-03 -1.285680e-02 -8.455902e-03 7.989083e-03 1.067332e-02 -1.848987e-02 1.009811e-02 7.229160e-03 -2.294918e-02 1.542777e-02 1.114705e-02 -2.248503e-02 6.850664e-03 1.813408e-02 -2.176082e-02 4.614473e-06 1.771901e-02 -1.815964e-02 9.388346e-04 1.759939e-02 -1.465115e-02 9.215951e-04 1.095886e-02 -1.374424e-02 1.098115e-02 -5.506224e-03 5.753936e-04 2.296313e-03 -6.676912e-03 6.001542e-03 -2.770724e-03 2.266445e-03 -1.019568e-03 7.969100e-04 -3.549634e-03 -1.245502e-01 -1.706022e-01 -3.008961e-02 4.482840e-02 5.071043e-02 -3.061968e-02 -6.892534e-02 1.056388e-02 3.412659e-02 7.974967e-03 4.350660e-02 -1.034173e-02 1.523157e-02 -3.052882e-02 -1.102804e-01 9.450712e-03 1.068132e-01 -1.763050e-03 -5.765643e-02 -3.468709e-03 4.070142e-02 4.578063e-02 -5.390953e-02 -1.160470e-02 2.279942e-02 -2.941773e-02 1.969311e-02 1.301831e-02 -2.432280e-02 1.212373e-02 8.149718e-03 -1.128141e-02 -9.873472e-03 2.037390e-02 -3.311397e-03 -7.167981e-03 -1.615570e-02 3.325816e-02 -1.521013e-02 -2.007117e-02 3.300622e-02 -1.115272e-02 -1.152904e-02 1.573913e-02 -2.604211e-03 -7.948969e-03 6.141867e-03 3.432949e-03 -1.029486e-02 2.683596e-03 8.640808e-03 -9.836348e-03 -1.152743e-03 1.598624e-02 -1.449218e-02 -6.384918e-03 2.598285e-02 -2.896230e-02 1.481381e-02 5.809427e-03
<VARIANCE> 180
 5.546562e-01 2.012699e-01 1.452941e-01 5.354242e-01 3.583427e-02 1.209825e-02 4.684722e-02 5.404694e-02 1.886242e-02 1.233525e-02 1.413521e-02 4.243318e-03 2.383472e-03 1.416434e-02 7.999553e-03 4.403998e-02 9.883489e-03 1.009453e-02 4.190696e-03 5.404565e-03 2.275982e-03 1.889011e-03 1.314940e-03 2.142096e-03 2.870370e-03 6.026432e-03 6.419600e-03 2.421144e-03 1.812374e-03 1.171974e-03 4.543177e-04 1.270280e-03 7.422238e-04 6.260489e-04 8.319177e-04 7.933359e-04 1.034793e-03 7.830463e-04 2.408388e-04 1.461137e-03 5.021982e-04 8.242174e-04 2.675446e-03 1.390000e-03 4.145179e-04 1.749400e-03 1.114901e-03 5.259900e-04 1.972194e-03 2.030195e-03 1.384441e-03 3.640472e-04 8.305284e-04 1.920666e-03 1.725527e-03 9.540159e-04 6.962870e-04 1.056425e-03 1.042769e-03 8.031073e-04 2.792096e-02 4.207051e-02 1.040141e-02 2.678712e-03 1.814343e-02 1.241905e-02 1.201134e-02 1.712398e-03 7.130980e-03 9.634513e-04 9.746737e-03 2.197528e-03 1.409074e-03 4.650450e-03 1.002855e-02 4.059878e-03 6.527182e-03 9.710570e-04 4.273602e-03 1.842829e-03 1.996463e-03 1.216477e-03 1.705175e-03 6.317980e-04 3.178069e-03 2.366445e-03 1.788176e-03 9.822145e-04 4.725987e-04 3.039024e-04 2.891925e-04 6.144418e-04 4.145268e-04 3.823908e-04 3.518540e-04 2.022020e-04 5.789256e-04 5.240505e-04 4.409170e-04 3.786252e-04 2.954597e-04 6.814874e-04 1.221555e-03 6.586679e-04 5.939994e-05 3.583270e-04 1.492139e-04 2.129108e-04 4.988311e-04 2.392403e-04 2.628774e-04 3.638137e-04 2.674037e-04 2.481284e-04 1.897030e-04 1.529554e-04 3.020698e-04 4.783358e-04 3.392335e-04 2.166282e-04 3.720661e-02 4.892338e-02 1.021740e-01 4.108569e-02 6.243980e-02 4.222006e-02 2.713554e-02 2.581946e-02 4.728198e-02 1.733208e-02 4.705193e-02 2.427126e-02 2.271091e-02 2.012904e-02 6.535923e-02 3.286643e-02 4.155199e-02 2.078480e-02 1.848862e-02 4.463621e-02 2.069499e-02 3.814639e-03 8.976297e-03 1.403915e-02 9.055431e-03 8.076000e-03 6.831709e-03 6.074369e-03 6.397908e-03 2.858532e-03 1.822817e-03 2.914792e-03 6.201378e-03 4.080075e-03 1.010869e-03 3.430528e-03 1.140888e-02 9.875327e-03 1.234456e-03 9.650330e-03 6.242622e-03 5.661435e-03 1.269105e-02 7.921062e-03 9.830779e-04 6.062911e-03 5.053511e-03 3.992698e-03 3.196203e-03 4.386192e-03 4.509790e-03 2.326055e-03 1.233308e-03 3.357281e-03 2.268841e-03 7.765163e-04 4.571669e-03 9.391657e-03 4.859936e-03 1.003735e-03
<GCONST> -7.111124e+02
<STREAM> 2
<NUMMIXES> 2
<MIXTURE> 1 1.000000e+00
<MEAN> 1
 5.415421e+00
<VARIANCE> 1
 3.869080e-04
<GCONST> -6.019446e+00
<MIXTURE> 2 0.000000e+00
<MEAN> 0
<VARIANCE> 0
<GCONST> 0.000000e+00
<STREAM> 3
<NUMMIXES> 2
<MIXTURE> 1 1.000000e+00
<MEAN> 1
 7.673379e-03
<VARIANCE> 1
 3.606185e-04
<GCONST> -6.089813e+00
<MIXTURE> 2 0.000000e+00
<MEAN> 0
<VARIANCE> 0
<GCONST> 0.000000e+00
<STREAM> 4
<NUMMIXES> 2
<MIXTURE> 1 1.000000e+00
<MEAN> 1
 8.975239e-04
<VARIANCE> 1
 2.114690e-03
<GCONST> -4.320971e+00
<MIXTURE> 2 0.000000e+00
<MEAN> 0
<VARIANCE> 0
<GCONST> 0.000000e+00
<STREAM> 5
<MEAN> 15
 -6.154476e+00 -2.289374e+00 -2.597391e+00 -3.030987e+00 -2.045909e+00 -1.188511e+00 -1.297559e-01 -3.688931e-01 2.909478e-01 8.824643e-02 9.502198e-01 -2.208764e-01 -1.061168e-01 6.738037e-01 -8.487156e-01
<VARIANCE> 15
 7.102217e+00 7.480400e-01 1.035716e+00 6.633528e-01 1.023783e+00 3.110494e+00 3.262197e-01 1.198387e+00 6.066540e-01 6.345728e-01 4.062067e+01 5.178958e+00 6.404528e+00 2.206699e+00 7.569379e+00
<GCONST> 3.814888e+01
<STATE> 3
<SWEIGHTS> 5
 1.000000e+00 0.000000e+00 0.000000e+00 0.000000e+00 0.000000e+00
<STREAM> 1
<MEAN> 180
 2.635265e+00 2.887344e+00 1.301588e+00 1.335586e+00 -3.393848e-01 -1.499795e-01 2.321157e-01 -3.592754e-01 -1.372743e-01 5.117800e-02 -2.555090e-01 1.680430e-01 -1.441542e-01 2.501215e-01 2.518409e-02 -1.248292e-01 1.382100e-01 -1.526845e-01 -3.746928e-02 5.931432e-02 -8.457449e-02 5.498168e-02 9.426153e-03 1.671788e-02 -8.268454e-03 4.339738e-02 -2.217979e-02 9.408898e-03 -8.118875e-02 1.439514e-01 -1.056742e-01 2.437784e-03 6.592979e-02 -7.524709e-02 3.135594e-02 1.011303e-02 -2.273452e-02 -1.652897e-03 3.165312e-02 -3.514383e-02 1.756786e-02 -5.744032e-03 5.362213e-04 -6.136652e-03 1.189753e-02 -4.578257e-03 -1.610712e-02 4.333358e-02 -5.306645e-02 4.268636e-02 -1.620184e-02 -1.124435e-03 2.094524e-03 1.261323e-03 4.847201e-04 -8.139047e-03 1.171024e-02 -6.870028e-03 4.519276e-04 -2.837037e-03 -8.799176e-02 2.035010e-03 4.195326e-02 -1.095257e-02 3.505299e-02 1.484713e-02 -1.015888e-02 -1.503411e-02 7.616263e-03 3.439081e-02 4.436126e-02 -1.021095e-02 -1.770261e-02 -3.231627e-02 -2.990245e-02 -6.249622e-03 -2.765179e-03 1.952892e-02 1.471612e-02 1.763770e-02 -2.506976e-02 2.900528e-03 1.159633e-02 -9.112535e-03 -2.913607e-03 -1.592186e-03 1.000092e-02 -6.341121e-03 -4.490789e-04 2.614728e-03 -3.538965e-03 5.001015e-03 -4.606257e-03 2.563300e-03 1.044534e-03 -3.972254e-03 1.397382e-05 9.509129e-03 -1.290060e-02 5.622748e-06 1.625723e-02 -1.901448e-02 6.849481e-03 3.270842e-03 -4.181320e-05 -5.015045e-03 5.468525e-03 1.505934e-03 -7.092746e-03 3.673317e-03 -2.428216e-03 4.891194e-03 -7.266330e-03 8.590519e-03 -4.519502e-03 -2.333048e-03 4.408438e-03 -3.088921e-03 6.597850e-04 1.857174e-03 -4.352306e-02 2.361952e-02 -3.372384e-02 -5.340392e-02 4.561576e-02 2.745949e-02 -1.433791e-03 -4.590426e-03 1.797721e-02 9.138208e-03 -2.541617e-03 -1.095591e-02 4.952130e-03 -1.411633e-02 2.075106e-02 4.233655e-03 -3.323769e-02 -3.477549e-03 2.913459e-02 4.031488e-03 -2.705329e-02 -1.743174e-03 5.590003e-03 5.364740e-03 3.693318e-03 -1.821085e-03 3.840036e-03 -1.701991e-02 2.088553e-02 -1.902878e-02 1.321650e-02 8.374581e-04 -1.027615e-02 6.197334e-03 2.498798e-03 -6.538749e-03 8.079236e-03 -9.015130e-04 -5.961560e-03 6.796617e-03 -3.868081e-03 -3.430160e-03 5.214947e-03 -6.838449e-03 1.875404e-03 9.475855e-03 -1.091750e-02 2.141964e-03 1.093388e-02 -1.521891e-02 4.287345e-03 4.896041e-03 -2.515502e-03 -6.319045e-03 1.078781e-02 -3.225634e-03 -1.065965e-02 1.602564e-02 -8.373901e-03 -2.289366e-03
<VARIANCE> 180
 9.234123e-01 3.904290e-01 1.369184e-01 5.301698e-01 6.891324e-02 1.884417e-02 4.057079e-02 3.512597e-02 3.737619e-02 1.234039e-02 1.426948e-02 2.270744e-02 1.446027e-02 7.543145e-03 7.606338e-03 7.168153e-03 1.069172e-02 5.560605e-03 5.499934e-03 4.668149e-03 9.668326e-03 3.769526e-03 2.694868e-03 1.331402e-03 6.091613e-03 7.694985e-03 1.895308e-03 1.255754e-03 1.284622e-03 1.183940e-03 1.361515e-03 1.771977e-03 1.270452e-03 1.243589e-03 1.280475e-03 3.873440e-03 4.123846e-03 1.469772e-03 1.063969e-03 4.403456e-04 1.546494e-03 3.231939e-03 1.123502e-03 5.073385e-04 6.246404e-04 5.065970e-04 5.916721e-04 1.373608e-03 1.335892e-03 1.858649e-03 3.232969e-03 2.959661e-03 5.601501e-04 1.194571e-03 3.993860e-03 4.984480e-03 2.911766e-03 9.426854e-04 6.624992e-04 9.424961e-04 1.194752e-02 1.881826e-03 3.006863e-03 7.651513e-03 2.139841e-03 3.160473e-03 2.929363e-03 3.494945e-03 4.654397e-03 3.124585e-03 3.315506e-03 6.948451e-03 2.151482e-03 3.666311e-03 3.484585e-03 3.152447e-03 2.415319e-03 2.348700e-03 3.127448e-03 1.812755e-03 2.738137e-03 2.031907e-03 9.606660e-04 5.858750e-04 6.580932e-04 9.809328e-04 3.383806e-04 9.688613e-04 9.316314e-04 1.133989e-03 8.059196e-04 9.425383e-04 6.698751e-04 4.932818e-04 7.281528e-04 8.338804e-04 7.287487e-04 5.254202e-04 4.316329e-04 5.870964e-04 3.711404e-04 4.799299e-04 3.813158e-04 3.335040e-04 3.052941e-04 1.023546e-04 2.537807e-04 6.901594e-04 6.048904e-04 2.057188e-04 2.879098e-04 4.316772e-04 2.121362e-04 2.501165e-04 3.659082e-04 2.508629e-04 3.623774e-04 5.449742e-04 2.595729e-04 2.447929e-04 1.229197e-02 9.254767e-03 2.382527e-02 1.598361e-02 2.062347e-02 2.360725e-02 1.548273e-02 2.336890e-02 4.151645e-02 1.685536e-02 3.988444e-02 2.782966e-02 2.011063e-02 2.021941e-02 1.919828e-02 2.306038e-02 2.782733e-02 3.119307e-02 2.678348e-02 1.606522e-02 8.125633e-03 1.739463e-02 5.068807e-03 6.883915e-03 1.023818e-02 9.707174e-03 6.208786e-03 1.271312e-02 6.058308e-03 4.842994e-03 4.720103e-03 4.695131e-03 4.507998e-03 6.161674e-03 6.205235e-03 1.331317e-03 4.538242e-03 6.551143e-03 6.815710e-03 3.190629e-03 4.610712e-03 1.122708e-02 3.083141e-03 3.508711e-03 6.259982e-03 5.009799e-03 2.922170e-03 5.103475e-03 4.785958e-03 3.432860e-03 1.626648e-03 1.137188e-03 5.889996e-04 3.321676e-04 6.202143e-04 9.583406e-04 1.972508e-03 3.892066e-03 4.218493e-03 3.117135e-03
<GCONST> -7.139940e+02
<STREAM> 2
<NUMMIXES> 2
<MIXTURE> 1 1.000000e+00
<MEAN> 1
 5.455219e+00
<VARIANCE> 1
 1.967611e-04
<GCONST> -6.695643e+00
<MIXTURE> 2 0.000000e+00
<MEAN> 0
<VARIANCE> 0
<GCONST> 0.000000e+00
<STREAM> 3
<NUMMIXES> 2
<MIXTURE> 1 1.000000e+00
<MEAN> 1
 1.430445e-03
<VARIANCE> 1
 2.646529e-04
<GCONST> -6.399214e+00
<MIXTURE> 2 0.000000e+00
<MEAN> 0
<VARIANCE> 0
<GCONST> 0.000000e+00
<STREAM> 4
<NUMMIXES> 2
<MIXTURE> 1 1.000000e+00
<MEAN> 1
 -7.609049e-03
<VARIANCE> 1
 5.029478e-04
<GCONST> -5.757147e+00
<MIXTURE> 2 0.000000e+00
<MEAN> 0
<VARIANCE> 0
<GCONST> 0.000000e+00
<STREAM> 5
<MEAN> 15
 -5.985988e+00 -2.363645e+00 -3.287946e+00 -2.418082e+00 -2.629867e+00 3.294449e-01 6.203375e-02 1.563990e-01 -4.224542e-02 -4.004126e-02 4.382120e-03 1.110453e-02 3.365827e-01 -2.393567e-01 3.455614e-01
<VARIANCE> 15
 1.089411e+01 5.666975e-01 5.727032e+00 9.909156e-01 1.311524e+00 2.893898e+00 2.652986e-01 3.135319e+00 6.293513e-01 5.776292e-01 7.651561e+00 2.809420e+00 2.026107e+01 4.961117e+00 6.183161e+00
<GCONST> 4.076231e+01
<STATE> 4
<SWEIGHTS> 5
 1.000000e+00 0.000000e+00 0.000000e+00 0.000000e+00 0.000000e+00
<STREAM> 1
<MEAN> 180
 2.058592e+00 3.038574e+00 1.420115e+00 9.655210e-01 -9.967571e-02 -4.210361e-02 1.137440e-01 -2.727415e-01 1.690440e-02 1.708313e-01 -7.295450e-02 5.912769e-02 -1.814859e-01 -1.338587e-02 -5.207127e-02 -9.921236e-02 9.062693e-02 -6.387483e-02 2.910639e-02 1.006534e-01 -1.435450e-01 6.886785e-02 -2.081293e-02 7.128651e-03 -1.844001e-03 5.970693e-02 9.008112e-03 -5.821169e-02 -4.228650e-02 1.356688e-01 -7.151355e-02 -3.700052e-02 4.029217e-02 7.508416e-03 -8.711364e-03 -2.206131e-02 2.698942e-02 -1.147718e-02 9.294616e-03 -2.176441e-02 1.069270e-02 -1.054795e-02 1.275293e-02 -3.736765e-02 4.763471e-02 -1.321635e-02 -3.153913e-02 6.676304e-02 -5.634353e-02 1.601708e-02 6.574689e-03 4.224633e-03 -2.661146e-02 3.681036e-02 -1.360204e-02 -2.206216e-02 3.124890e-02 -2.128788e-02 9.221748e-03 -3.947714e-03 -2.778424e-01 -4.389510e-02 5.482756e-02 -1.048496e-01 1.050444e-01 5.063956e-02 -7.256950e-02 4.903882e-02 1.982925e-02 -1.255606e-02 2.098430e-02 -5.341725e-02 2.363413e-02 -4.662467e-02 -3.359929e-03 4.379168e-02 4.034501e-03 8.078679e-03 -5.635221e-02 -2.390971e-02 8.331955e-02 -1.019481e-02 -4.810896e-02 2.246203e-02 6.068402e-03 -1.145775e-02 1.715950e-02 -1.028493e-02 7.283363e-03 -2.152257e-02 3.747142e-02 -2.141073e-02 -2.435620e-02 4.865894e-02 -2.304807e-02 -4.253341e-03 8.917009e-03 -7.973744e-03 1.121645e-02 -4.604725e-04 -2.625740e-02 3.110862e-02 -1.593171e-02 -8.850200e-03 1.015245e-02 6.241659e-03 -1.653413e-02 1.683775e-02 2.951890e-03 -2.497409e-02 3.612443e-02 -3.099600e-02 9.453822e-03 1.058292e-02 -1.660581e-02 9.960830e-03 2.848198e-03 -7.348972e-03 -1.979118e-04 1.147537e-02 1.436745e-02 -5.063468e-02 3.622957e-02 4.569583e-02 -6.200060e-02 -2.077556e-02 2.238281e-02 -1.266785e-02 -9.311634e-02 -4.656734e-02 1.416206e-02 4.090905e-02 2.257258e-02 5.825304e-02 3.683019e-03 -2.990712e-02 5.744052e-03 1.061164e-02 -4.329035e-02 1.712960e-02 6.298071e-02 -7.539228e-02 -2.694641e-03 3.525133e-02 5.558295e-04 -4.030432e-02 1.599517e-02 3.668059e-02 -1.993073e-02 -1.096983e-02 -1.992074e-02 4.332993e-02 -1.470030e-02 -8.808926e-03 -1.001905e-02 2.594381e-02 -6.986416e-03 -1.360012e-02 7.104358e-03 1.188157e-02 -1.671235e-03 -1.597041e-02 8.656360e-03 1.589798e-02 -2.641714e-02 8.852353e-03 8.436900e-03 -1.224942e-02 8.301577e-04 8.357614e-03 -1.025700e-03 -4.534201e-03 2.243310e-03 3.733688e-03 -1.232780e-02 9.680158e-03 6.789644e-03 -1.387434e-02 4.291802e-03 1.197628e-02
<VARIANCE> 180
 5.654348e-01 5.126867e-01 3.147932e-02 2.562343e-01 7.058319e-02 2.673795e-02 2.672263e-02 8.591780e-03 5.111805e-02 1.447793e-02 1.982468e-02 1.357679e-02 1.510252e-02 2.607324e-02 9.020304e-03 1.268538e-02 1.004850e-02 1.524102e-02 1.136649e-02 9.149897e-04 8.832789e-03 3.779764e-04 5.261034e-03 1.747984e-03 2.716821e-03 9.231396e-03 1.145156e-03 3.751468e-03 2.374638e-04 5.678761e-03 2.352235e-03 3.289956e-03 3.081584e-03 3.491065e-03 7.565734e-03 3.259285e-03 1.409713e-03 2.279909e-03 2.511105e-03 1.482453e-03 2.421607e-03 3.031476e-03 5.854642e-04 8.217841e-04 1.563967e-03 2.706758e-04 4.976617e-04 1.315038e-03 5.126424e-04 9.177889e-04 4.154603e-03 5.122964e-03 2.906749e-03 2.366372e-03 2.268076e-03 4.023866e-03 5.673880e-03 3.858362e-03 8.105251e-04 1.018675e-03 3.190970e-03 2.454816e-03 9.321164e-03 2.361710e-02 2.761835e-03 7.333759e-03 8.058898e-03 1.643353e-03 3.452378e-03 3.875359e-03 2.234905e-03 7.781159e-03 3.226865e-03 4.199990e-03 1.995768e-03 7.368102e-03 2.869611e-03 3.164764e-03 3.375148e-03 8.694219e-04 1.025570e-03 2.839336e-03 8.459880e-04 1.651469e-03 7.583966e-04 3.351243e-03 1.175208e-03 1.479960e-03 1.957178e-04 9.281894e-04 5.972481e-04 1.126525e-03 1.435403e-03 2.621682e-04 6.463273e-04 1.552251e-03 4.516875e-04 3.701856e-04 4.943776e-04 1.388815e-04 7.896132e-04 8.354746e-04 7.979006e-05 2.846838e-04 8.846134e-04 3.608869e-04 1.281084e-04 5.752075e-04 2.929661e-04 1.865056e-04 1.039063e-03 9.641466e-04 6.507778e-04 1.250213e-03 1.194708e-03 3.147180e-04 8.641355e-05 3.604446e-04 2.629903e-04 1.653455e-04 1.368811e-02 7.684734e-03 5.456913e-03 1.664884e-03 1.177229e-02 2.464281e-02 3.503102e-03 5.829184e-03 8.116885e-03 3.125731e-02 3.829597e-02 1.870734e-02 4.045126e-02 2.197861e-02 2.717478e-02 3.741554e-02 4.446708e-02 1.356281e-02 7.174682e-02 2.005597e-03 4.025606e-02 1.015963e-03 6.050853e-03 5.800519e-03 2.741654e-02 1.280774e-02 1.500030e-02 1.520064e-02 2.733532e-03 1.277902e-02 3.137094e-03 5.802694e-03 5.848839e-03 9.433963e-03 5.156781e-03 5.752543e-03 7.153584e-03 2.093727e-03 4.455380e-03 5.359218e-03 5.618287e-03 1.134995e-02 5.446465e-03 4.736296e-03 5.822546e-03 1.314680e-03 1.463913e-03 2.982506e-03 2.304371e-03 1.450618e-03 5.620844e-03 8.494652e-03 3.838663e-03 7.270639e-03 1.066024e-02 3.770206e-03 1.242705e-03 7.070201e-03 6.156775e-03 2.460163e-03
<GCONST> -6.971921e+02
<STREAM> 2
<NUMMIXES> 2
<MIXTURE> 1 1.000000e+00
<MEAN> 1
 5.427422e+00
<VARIANCE> 1
 2.652472e-04
<GCONST> -6.396971e+00
<MIXTURE> 2 0.000000e+00
<MEAN> 0
<VARIANCE> 0
<GCONST> 0.000000e+00
<STREAM> 3
<NUMMIXES> 2
<MIXTURE> 1 1.000000e+00
<MEAN> 1
 -3.808356e-03
<VARIANCE> 1
 1.065806e-04
<GCONST> -7.308732e+00
<MIXTURE> 2 0.000000e+00
<MEAN> 0
<VARIANCE> 0
<GCONST> 0.000000e+00
<STREAM> 4
<NUMMIXES> 2
<MIXTURE> 1 1.000000e+00
<MEAN> 1
 4.575372e-03
<VARIANCE> 1
 3.642529e-04
<GCONST> -6.079785e+00
<MIXTURE> 2 0.000000e+00
<MEAN> 0
<VARIANCE> 0
<GCONST> 0.000000e+00
<STREAM> 5
<MEAN> 15
 -2.680654e+00 -2.387444e+00 -2.171803e+00 -2.468424e+00 -2.878129e+00 7.422935e-01 2.665867e-01 1.100005e-01 -2.506692e-01 -5.321220e-01 -1.329283e+00 -5.729964e-02 -4.154796e-02 6.965320e-02 -5.885486e-01
<VARIANCE> 15
 6.641547e-01 7.732874e-01 7.221023e-01 1.149178e+00 7.337319e-01 1.707602e+00 5.957155e-01 2.458556e-01 1.916277e-01 4.253334e-01 3.384802e+00 6.709538e+00 9.493916e+00 3.414727e+00 1.086316e+00
<GCONST> 2.919703e+01
<STATE> 5
<SWEIGHTS> 5
 1.000000e+00 0.000000e+00 0.000000e+00 0.000000e+00 0.000000e+00
<STREAM> 1
<MEAN> 180
 1.277227e+00 2.488899e+00 1.500155e+00 1.015464e+00 2.610831e-01 1.790632e-01 1.048038e-01 -9.536339e-02 -9.166574e-02 -5.210757e-02 -8.558379e-02 -2.449755e-02 -9.025138e-02 -3.026017e-02 -6.734099e-02 2.117274e-02 -1.292562e-02 -4.597475e-02 -9.204045e-02 1.538138e-02 1.528659e-02 6.756081e-02 1.033599e-02 -1.734596e-02 2.990522e-02 2.737686e-02 -9.504505e-03 -1.534745e-02 -1.380377e-02 4.812569e-02 -3.415341e-02 6.243164e-03 1.887944e-03 2.100107e-03 -5.746447e-03 8.423433e-03 -1.475121e-02 1.588232e-03 1.411800e-02 -1.465740e-02 -1.321181e-02 1.742797e-02 -6.014087e-03 -2.165540e-02 1.998416e-02 3.913031e-03 -2.799191e-02 3.543827e-02 -1.196493e-02 -6.948806e-03 1.394621e-02 1.428677e-03 -1.374977e-02 1.776426e-02 -1.207422e-02 2.648409e-03 2.139855e-03 -2.513656e-03 -2.600349e-03 1.171845e-02 -4.977269e-02 -1.583876e-01 -4.504777e-02 3.950317e-02 2.541261e-02 7.781556e-02 2.390469e-02 3.055418e-02 -7.704475e-03 -4.372861e-02 -7.139334e-03 2.299424e-02 2.513374e-02 -1.919512e-02 -2.786427e-02 -5.198899e-03 -1.463859e-02 1.108356e-02 2.366334e-03 -1.941246e-02 -1.125417e-03 1.718437e-02 1.276905e-02 -1.073129e-02 -4.542168e-03 4.638674e-03 -8.479690e-04 7.039548e-04 6.347219e-03 -3.233521e-03 -6.108941e-03 6.111384e-03 9.645557e-03 -1.740366e-02 3.168180e-03 1.002862e-02 -1.039599e-02 6.914678e-03 -5.479732e-03 2.216710e-03 3.745192e-03 -4.636216e-03 2.868118e-03 4.484098e-03 -1.173291e-02 6.619167e-03 4.449380e-03 -1.820789e-02 1.747349e-02 -2.680972e-03 -1.121868e-02 1.595724e-02 -8.110583e-03 -2.519027e-03 6.748565e-03 -2.757389e-03 -2.965786e-03 5.835277e-03 -4.266119e-03 1.089250e-03 5.178368e-02 -3.700443e-02 -1.947790e-02 1.322012e-02 -3.830530e-02 2.960589e-02 1.436776e-02 -1.259001e-02 -2.255583e-02 -6.074389e-03 2.511596e-02 2.230467e-02 -1.226004e-02 -2.257309e-03 1.303580e-02 3.841058e-03 1.698558e-03 -6.954103e-03 -9.078094e-03 6.512858e-03 -2.521197e-02 4.215927e-03 5.270593e-03 4.675610e-03 -4.095985e-03 9.100515e-03 3.387234e-03 -1.730906e-02 5.105509e-03 1.694132e-02 -9.641640e-03 -1.834323e-02 2.045004e-02 5.903648e-03 -1.299219e-02 -9.110610e-03 2.222914e-02 -7.618212e-03 -1.153957e-02 1.173538e-02 -1.215142e-04 -7.048776e-03 5.468752e-03 2.047744e-04 -3.577423e-03 -1.168736e-03 4.112326e-03 1.232926e-03 -5.843876e-03 2.357236e-03 8.926213e-03 -1.718776e-02 1.262156e-02 -3.442484e-04 -1.010501e-02 1.144996e-02 -5.552860e-03 -1.230266e-03 6.900228e-03 -1.012167e-02
<VARIANCE> 180
 3.983456e-01 6.401562e-01 2.113846e-02 1.350379e-01 6.822189e-02 4.097267e-02 1.691210e-02 4.397281e-02 4.335419e-02 3.099823e-02 1.244123e-02 2.172984e-02 2.647830e-02 2.905559e-02 2.064095e-02 6.546406e-03 8.802508e-03 4.262710e-03 1.367365e-02 5.833051e-03 7.099377e-03 1.106725e-02 3.273556e-03 8.105068e-03 3.255053e-03 3.158757e-03 5.542845e-03 3.167329e-03 4.113377e-03 3.554203e-03 3.280458e-03 5.243109e-03 2.542961e-03 4.790782e-03 2.926416e-03 1.487807e-03 2.910321e-03 1.377025e-03 8.329031e-04 6.597887e-04 6.553163e-04 9.517958e-04 8.545956e-04 9.245579e-04 1.809338e-03 1.434674e-03 5.393075e-04 1.372441e-03 1.707343e-03 4.531363e-04 8.501300e-04 2.024501e-03 1.464428e-03 7.790769e-04 8.233468e-04 1.295032e-03 1.103623e-03 6.803647e-04 5.308260e-04 7.944030e-04 9.973163e-03 1.422780e-02 9.316536e-03 1.680173e-02 2.812210e-02 3.771218e-03 9.648733e-03 5.017851e-03 6.566913e-03 6.117285e-03 3.199310e-03 1.001544e-02 6.725417e-03 6.841127e-03 3.354229e-03 6.779355e-03 4.088150e-03 3.972166e-03 9.001920e-03 2.502863e-03 4.099067e-03 5.233338e-03 1.646555e-03 4.705005e-03 1.663927e-03 2.167204e-03 2.950874e-03 2.060001e-03 2.786061e-03 1.573793e-03 2.293079e-03 2.075157e-03 1.108221e-03 9.139183e-04 3.704622e-04 8.102871e-04 1.095570e-03 4.859441e-04 5.199117e-04 4.828318e-04 3.962681e-04 5.588573e-04 4.512140e-04 2.263602e-04 4.275432e-04 5.765758e-04 3.260459e-04 5.751177e-04 5.056164e-04 2.845588e-04 1.946047e-04 2.302764e-04 3.876613e-04 3.327041e-04 2.406845e-04 5.003766e-04 4.332791e-04 6.706117e-05 1.990200e-04 5.477442e-04 9.031690e-03 1.414826e-02 3.589615e-02 4.498466e-02 7.373030e-02 1.924389e-02 5.722365e-02 3.249955e-02 3.039225e-02 6.228754e-02 2.939040e-02 5.010829e-02 2.376080e-02 9.516039e-02 4.938138e-02 3.510542e-02 2.997561e-02 4.119102e-02 6.179190e-02 2.272023e-02 4.737868e-02 3.421851e-02 2.033659e-02 2.183779e-02 1.557481e-02 1.197595e-02 2.020189e-02 1.195277e-02 2.074823e-02 7.126695e-03 1.259191e-02 8.017807e-03 1.167447e-02 8.139391e-03 6.797095e-03 5.148915e-03 8.933706e-03 5.582719e-03 3.700997e-03 5.339080e-03 2.387540e-03 5.799264e-03 9.143783e-03 2.584921e-03 5.033270e-03 7.226023e-03 2.877133e-03 5.312192e-03 6.805726e-03 1.051437e-03 4.143327e-03 8.716146e-03 6.053107e-03 3.820755e-03 5.026808e-03 5.877964e-03 2.480221e-03 5.145934e-04 2.132897e-03 4.225960e-03
<GCONST> -6.512241e+02
<STREAM> 2
<NUMMIXES> 2
<MIXTURE> 1 1.000000e+00
<MEAN> 1
 5.384223e+00
<VARIANCE> 1
 2.594655e-03
<GCONST> -4.116425e+00
<MIXTURE> 2 0.000000e+00
<MEAN> 0
<VARIANCE> 0
<GCONST> 0.000000e+00
<STREAM> 3
<NUMMIXES> 2
<MIXTURE> 1 1.000000e+00
<MEAN> 1
 -1.977931e-02
<VARIANCE> 1
 1.292118e-04
<GCONST> -7.116180e+00
<MIXTURE> 2 0.000000e+00
<MEAN> 0
<VARIANCE> 0
<GCONST> 0.000000e+00
<STREAM> 4
<NUMMIXES> 2
<MIXTURE> 1 1.000000e+00
<MEAN> 1
 -6.073936e-03
<VARIANCE> 1
 4.952840e-04
<GCONST> -5.772502e+00
<MIXTURE> 2 0.000000e+00
<MEAN> 0
<VARIANCE> 0
<GCONST> 0.000000e+00
<STREAM> 5
<MEAN> 15
 -2.738376e+00 -2.172114e+00 -2.292101e+00 -2.798463e+00 -2.672498e+00 3.668446e-02 -1.254751e-01 -1.116906e-01 4.681616e-02 2.972478e-01 3.788320e-01 -3.594783e-02 -3.574245e-02 7.312194e-03 2.601403e-01
<VARIANCE> 15
 4.552400e-01 6.501649e-01 6.659906e-01 1.915542e+00 1.427899e+00 3.764487e-01 2.249728e-01 2.739376e-01 7.782574e-01 4.754643e-01 4.253571e+00 2.191979e+00 2.761116e+00 2.018073e+01 7.932947e+00
<GCONST> 3.051661e+01
<STATE> 6
<SWEIGHTS> 5
 1.000000e+00 0.000000e+00 0.000000e+00 0.000000e+00 0.000000e+00
<STREAM> 1
<MEAN> 180
 1.431832e+00 1.040546e+00 9.161096e-01 1.542777e+00 -1.581915e-01 1.739804e-01 6.322285e-02 -2.384868e-01 -2.573639e-01 -1.046330e-01 -1.764551e-01 -2.520345e-02 -8.884847e-02 8.445341e-02 -9.800409e-02 -1.628137e-01 -3.973456e-02 -1.663411e-01 -7.516646e-02 -6.471319e-02 -6.987736e-02 4.294317e-02 -1.186170e-03 7.748021e-02 -2.735554e-02 1.421912e-02 1.845532e-02 4.786234e-02 -6.640014e-03 3.546685e-02 -4.889772e-03 6.614546e-03 4.342897e-02 6.150382e-03 -2.027452e-02 -2.011847e-02 5.279038e-02 -3.893154e-02 1.546496e-02 1.263712e-02 -3.121947e-02 5.957732e-02 -2.248562e-02 -1.126300e-02 1.868213e-02 2.906890e-02 -4.457746e-02 1.470042e-02 1.259174e-02 -1.091477e-02 2.225220e-03 1.208926e-02 4.719181e-03 -3.283551e-02 1.804204e-02 1.987876e-02 -2.941305e-02 9.811631e-03 1.067225e-02 -2.252275e-02 1.073216e-01 1.219628e-01 -4.599040e-02 -5.573936e-02 2.303275e-02 -2.691692e-02 -1.669324e-02 -3.087185e-02 -2.222625e-02 2.627074e-02 8.712312e-03 -2.096846e-03 -2.017452e-03 2.934135e-02 1.080241e-02 -8.719135e-03 3.287741e-03 -2.268609e-03 -6.896265e-03 3.167261e-03 7.456595e-03 -6.867551e-03 -7.875118e-03 4.674400e-03 2.368636e-03 6.133217e-04 -2.570823e-03 -9.886874e-04 -1.443736e-03 2.660935e-03 1.672247e-03 -5.041895e-03 -2.743751e-04 4.781534e-03 1.249687e-03 -9.663489e-03 9.276581e-03 -1.440975e-03 -1.274470e-03 4.059898e-04 2.899874e-04 -8.107063e-04 6.352946e-04 -2.275114e-03 2.862888e-03 -9.704720e-04 -2.872847e-03 9.338424e-03 -1.114628e-02 5.376492e-03 3.639417e-03 -9.986795e-03 8.618603e-03 -2.667258e-03 -1.692502e-03 1.790444e-03 9.480140e-04 -3.728076e-03 5.344903e-03 -6.068233e-03 -4.156042e-02 4.720731e-02 1.417117e-02 -2.293590e-02 3.117466e-02 3.759614e-03 1.708652e-02 1.122287e-02 1.215626e-02 -5.212435e-03 -1.298723e-02 -3.599205e-02 -3.563436e-02 -6.905170e-03 2.718029e-02 2.806852e-02 -4.230907e-03 -1.051541e-02 8.877869e-03 6.311670e-03 9.144490e-03 -7.696645e-03 -1.081182e-02 -1.943653e-03 1.707827e-02 -7.849195e-03 -9.545412e-03 1.415726e-02 -1.497003e-03 -1.076550e-02 3.891585e-03 1.026829e-02 -1.511314e-02 1.564183e-03 1.395181e-02 -4.603002e-03 -1.772963e-02 1.339675e-02 8.899330e-03 -1.633653e-02 3.155467e-03 1.018321e-02 -3.705595e-03 -1.048641e-02 1.387549e-02 -2.239377e-03 -1.002979e-02 8.202330e-03 1.277107e-03 -4.198447e-03 -3.525866e-03 1.271457e-02 -1.017965e-02 -9.475364e-04 1.040170e-02 -9.555329e-03 -3.444511e-04 8.519978e-03 -9.979395e-03 5.162099e-03
<VARIANCE> 180
 2.342438e-01 9.058024e-01 5.562070e-02 1.059946e-01 1.274218e-01 1.022823e-01 2.382579e-02 5.059213e-02 2.746574e-02 3.065035e-02 1.777316e-02 2.212542e-02 1.885291e-02 4.750512e-02 5.687480e-03 2.172780e-02 2.204913e-02 1.645264e-02 3.524495e-02 1.326304e-02 3.527486e-03 5.599363e-03 3.991812e-03 8.247301e-03 2.821878e-03 8.196728e-03 1.068404e-02 7.055050e-03 4.426561e-03 5.225965e-03 3.018292e-03 2.183313e-03 3.327544e-03 2.459875e-03 4.614313e-03 3.297202e-03 1.448944e-03 2.080436e-03 1.471558e-03 2.475578e-03 2.428368e-03 3.963204e-03 2.290905e-03 3.703597e-03 3.187263e-03 1.289449e-03 1.139523e-03 1.387797e-03 3.240738e-03 2.765260e-03 1.279584e-03 8.531324e-04 1.342361e-03 1.012326e-03 9.538960e-04 2.338827e-03 2.617221e-03 1.881376e-03 3.176783e-03 1.432329e-03 2.160301e-02 9.196177e-02 1.865378e-02 1.324312e-02 2.842018e-02 1.702267e-02 1.039577e-02 2.007651e-02 1.202198e-02 1.073912e-02 1.006405e-02 5.478692e-03 8.589538e-03 1.043022e-02 2.134936e-03 6.794505e-03 1.120137e-02 3.621636e-03 1.404700e-02 6.280945e-03 1.120662e-03 2.033653e-03 3.055409e-03 4.592745e-03 2.073935e-03 3.473520e-03 3.868616e-03 2.031455e-03 1.902002e-03 2.262816e-03 1.590387e-03 1.446628e-03 2.149021e-03 1.786566e-03 1.322193e-03 1.567356e-03 1.310540e-03 1.132755e-03 4.626652e-04 1.505325e-03 9.009106e-04 1.098884e-03 5.616041e-04 1.431427e-03 1.758989e-03 7.174284e-04 6.294572e-04 4.975484e-04 5.892127e-04 5.234160e-04 8.464506e-04 3.509551e-04 4.170201e-04 4.580273e-04 4.575881e-04 1.050396e-03 1.381480e-03 1.071161e-03 2.006917e-03 6.197357e-04 4.279486e-02 3.426665e-02 3.538195e-02 6.718084e-02 3.729817e-02 3.319253e-02 2.287469e-02 2.859700e-02 2.902786e-02 8.208030e-02 4.291220e-02 2.665874e-02 3.591376e-02 4.382522e-02 3.177128e-02 4.026939e-02 3.294102e-02 1.611956e-02 1.200481e-02 3.455048e-02 5.499898e-03 1.958634e-02 1.300589e-02 2.655806e-02 1.447418e-02 1.505551e-02 7.975599e-03 5.195417e-03 7.246365e-03 2.133511e-02 1.625216e-02 7.835575e-03 1.168202e-02 5.780024e-03 6.758327e-03 8.315627e-03 7.013638e-03 6.266567e-03 2.742566e-03 6.389769e-03 8.733713e-03 5.986485e-03 6.892804e-03 6.098175e-03 5.031925e-03 3.122872e-03 2.648193e-03 1.748387e-03 2.924391e-03 2.926246e-03 4.641829e-03 2.803343e-03 2.167874e-03 2.212257e-03 3.652059e-03 6.040964e-03 5.504436e-03 4.718598e-03 7.902857e-03 5.641888e-03
<GCONST> -6.011832e+02
<STREAM> 2
<NUMMIXES> 2
<MIXTURE> 1 5.384622e-01
<MEAN> 1
 5.406551e+00
<VARIANCE> 1
 1.403775e-02
<GCONST> -2.428128e+00
<MIXTURE> 2 4.615378e-01
<MEAN> 0
<VARIANCE> 0
<GCONST> 0.000000e+00
<STREAM> 3
<NUMMIXES> 2
<MIXTURE> 1 3.846163e-01
<MEAN> 1
 -1.823590e-02
<VARIANCE> 1
 2.079718e-03
<GCONST> -4.337646e+00
<MIXTURE> 2 6.153838e-01
<MEAN> 0
<VARIANCE> 0
<GCONST> 0.000000e+00
<STREAM> 4
<NUMMIXES> 2
<MIXTURE> 1 3.846163e-01
<MEAN> 1
 -1.148596e-02
<VARIANCE> 1
 5.185150e-03
<GCONST> -3.424080e+00
<MIXTURE> 2 6.153838e-01
<MEAN> 0
<VARIANCE> 0
<GCONST> 0.000000e+00
<STREAM> 5
<MEAN> 15
 -1.281545e+00 -1.779897e+00 -1.503016e+00 -9.842381e-01 -1.332449e+00 8.190654e-02 5.122574e-03 -1.004313e-01 -3.033061e-02 -5.070914e-02 -3.961749e-01 1.864729e-01 8.243844e-02 -3.102396e-01 1.274570e-01
<VARIANCE> 15
 2.324340e+00 3.340970e+00 2.346181e+00 8.875399e-01 1.787373e+00 1.244338e+00 1.329977e+00 5.007821e-01 4.991827e-01 5.079845e-01 5.922408e+00 1.053152e+01 1.118222e+00 1.925351e+00 3.917568e+00
<GCONST> 3.563762e+01
<TRANSP> 7
 0.000000e+00 1.000000e+00 0.000000e+00 0.000000e+00 0.000000e+00 0.000000e+00 0.000000e+00
 0.000000e+00 6.666687e-01 3.333314e-01 0.000000e+00 0.000000e+00 0.000000e+00 0.000000e+00
 0.000000e+00 0.000000e+00 8.000007e-01 1.999994e-01 0.000000e+00 0.000000e+00 0.000000e+00
 0.000000e+00 0.000000e+00 0.000000e+00 6.000025e-01 3.999975e-01 0.000000e+00 0.000000e+00
 0.000000e+00 0.000000e+00 0.000000e+00 0.000000e+00 8.333333e-01 1.666668e-01 0.000000e+00
 0.000000e+00 0.000000e+00 0.000000e+00 0.000000e+00 0.000000e+00 8.461517e-01 1.538483e-01
 0.000000e+00 0.000000e+00 0.000000e+00 0.000000e+00 0.000000e+00 0.000000e+00 0.000000e+00
<ENDHMM>
~h "i"
<BEGINHMM>
<NUMSTATES> 7
<STATE> 2
<SWEIGHTS> 5
 1.000000e+00 0.000000e+00 0.000000e+00 0.000000e+00 0.000000e+00
<STREAM> 1
<MEAN> 180
 2.461685e+00 1.440078e+00 -6.128433e-01 9.441558e-01 -1.234022e-01 -1.278662e-01 -5.802371e-02 -1.078337e-02 4.774876e-02 -2.264878e-01 -2.354771e-01 9.411579e-03 -3.989445e-02 6.750434e-02 7.801637e-03 7.498158e-02 -6.589938e-02 -8.534627e-02 -2.968675e-02 -1.358239e-01 -9.355159e-02 1.268672e-03 2.308520e-02 5.797096e-02 3.271396e-02 7.889737e-02 6.422371e-02 7.762028e-02 -8.424918e-03 3.731701e-02 -7.540789e-02 2.805022e-02 -5.644831e-02 -2.485087e-02 2.975108e-02 -1.055045e-02 3.550955e-02 -1.343500e-02 5.894511e-03 -1.218132e-03 -8.631544e-03 4.406666e-03 -7.284645e-03 -1.045446e-02 5.485277e-03 2.091449e-02 -4.212370e-03 -2.450545e-03 -9.290299e-03 1.820267e-02 -1.583725e-02 1.578505e-02 -8.079798e-03 -8.127242e-03 1.081039e-02 -5.280005e-03 2.689463e-03 -5.806365e-03 4.241014e-03 -2.733998e-03 -1.213579e-02 -1.127007e-02 -3.711494e-03 2.407905e-03 5.225860e-03 -4.599181e-03 1.168492e-02 5.179463e-03 -2.097203e-04 1.073990e-02 9.406862e-03 4.434488e-03 -6.273168e-04 6.063048e-03 -4.587153e-03 -1.535853e-04 7.903677e-03 5.512224e-03 -1.261601e-03 -3.861469e-03 3.817416e-03 -1.436044e-03 -2.238520e-03 4.569827e-04 -2.253065e-03 1.099542e-03 3.013124e-03 -2.139192e-03 -3.544295e-03 7.193459e-04 -1.043056e-04 -1.152005e-03 -2.111545e-03 -2.380216e-03 4.441736e-03 -1.735521e-03 1.119263e-03 7.150322e-04 -3.653006e-03 3.086427e-03 1.512409e-03 -5.567393e-03 2.173030e-03 -4.811649e-04 2.164169e-03 -9.815217e-04 -2.157178e-04 -7.535810e-04 -5.130647e-04 2.052334e-03 -1.237189e-03 8.665352e-04 -9.525624e-04 -2.569287e-04 9.831975e-04 -3.192303e-04 -3.501269e-04 5.805132e-04 -1.113168e-03 1.599458e-03 -1.172590e-02 -1.103190e-03 2.387924e-02 5.326865e-03 2.138368e-03 6.003318e-03 -7.358269e-03 -1.067043e-02 -1.890126e-03 2.170844e-02 1.792988e-02 -7.780517e-03 -5.024251e-04 -3.461640e-03 -6.916647e-03 -2.647100e-03 9.552632e-03 7.481064e-03 9.304400e-06 1.992708e-03 3.980223e-03 -7.808943e-04 -1.431382e-02 -6.567564e-03 3.788789e-04 -9.881045e-03 -2.362040e-03 -3.237891e-03 6.426066e-04 -7.114157e-03 9.973401e-03 3.785463e-03 -2.527699e-03 5.218760e-03 4.709150e-03 -2.913641e-03 -8.368277e-03 5.685214e-03 -1.417809e-03 2.031231e-03 -7.043848e-04 -2.970315e-03 4.549625e-03 -2.557490e-03 2.130046e-03 -1.531533e-03 -8.283001e-04 1.109903e-03 2.630067e-03 -1.613642e-03 -2.346835e-04 -6.017408e-04 8.228170e-04 -2.347348e-04 1.354611e-03 -2.426200e-03 2.740930e-04 2.448350e-03 -1.244367e-03 -2.513551e-03
<VARIANCE> 180
 7.731393e-01 4.653151e-01 1.992371e-01 1.091684e-01 8.711868e-02 3.399269e-02 3.094280e-02 1.378401e-02 2.649003e-02 1.703416e-02 1.155901e-02 1.529270e-02 9.961499e-03 1.531301e-02 1.692017e-02 8.329657e-03 2.846542e-02 8.950660e-03 1.088550e-02 1.028025e-02 1.316581e-02 1.262453e-02 5.026727e-03 7.336156e-03 5.169197e-03 4.610924e-03 4.426120e-03 7.051960e-03 5.777952e-03 6.084294e-03 3.769961e-03 4.615290e-03 3.014425e-03 2.272067e-03 2.356309e-03 4.033301e-03 3.152621e-03 3.352760e-03 1.833820e-03 1.992840e-03 1.119377e-03 1.976375e-03 1.626201e-03 2.328276e-03 1.364862e-03 2.170942e-03 1.927882e-03 1.514060e-03 2.067846e-03 2.767823e-03 1.397160e-03 1.207772e-03 1.895733e-03 1.222097e-03 1.078382e-03 1.724086e-03 1.170775e-03 1.187650e-03 1.043630e-03 1.456325e-03 1.923979e-02 8.460363e-03 1.275707e-02 7.223230e-03 5.538709e-03 7.686626e-03 5.195174e-03 5.255212e-03 4.611346e-03 4.143160e-03 4.970204e-03 3.079860e-03 3.856426e-03 3.507172e-03 4.473470e-03 2.560540e-03 2.414363e-03 3.255202e-03 3.232634e-03 2.014196e-03 3.947546e-03 4.631863e-03 2.184951e-03 3.051632e-03 1.799932e-03 2.057116e-03 1.639511e-03 2.165953e-03 1.939717e-03 1.625333e-03 2.109908e-03 1.750337e-03 1.305397e-03 1.024852e-03 1.167181e-03 8.734603e-04 1.213956e-03 6.157689e-04 7.785226e-04 1.022376e-03 4.401413e-04 1.159454e-03 8.742801e-04 9.860180e-04 5.915805e-04 1.005244e-03 5.026835e-04 6.564170e-04 6.168748e-04 9.277317e-04 5.990081e-04 6.500460e-04 6.818624e-04 4.463519e-04 3.815177e-04 5.449082e-04 4.975320e-04 4.829920e-04 4.932355e-04 5.386538e-04 1.344919e-02 1.644352e-02 1.562812e-02 1.165419e-02 1.756987e-02 1.366619e-02 1.356285e-02 1.770676e-02 1.504851e-02 1.322296e-02 9.930843e-03 1.606606e-02 1.104436e-02 1.248963e-02 1.494977e-02 1.218384e-02 9.489872e-03 1.351072e-02 1.206595e-02 7.045373e-03 1.137969e-02 9.576864e-03 1.155248e-02 1.223755e-02 5.525554e-03 6.126515e-03 6.445583e-03 5.100665e-03 4.378660e-03 7.071666e-03 5.787449e-03 6.499860e-03 5.770065e-03 5.468527e-03 3.270416e-03 4.256001e-03 4.705834e-03 3.505568e-03 2.736258e-03 4.603147e-03 2.279444e-03 4.193346e-03 2.492184e-03 4.101151e-03 2.887897e-03 3.318213e-03 2.008962e-03 3.224654e-03 1.686772e-03 3.014448e-03 2.010547e-03 2.263555e-03 1.759820e-03 2.233829e-03 1.735266e-03 2.011831e-03 2.058604e-03 1.774785e-03 1.628217e-03 1.968404e-03
<GCONST> -6.709662e+02
<STREAM> 2
<NUMMIXES> 2
<MIXTURE> 1 2.830172e-01
<MEAN> 1
 5.194582e+00
<VARIANCE> 1
 8.074545e-02
<GCONST> -6.785767e-01
<MIXTURE> 2 7.169829e-01
<MEAN> 0
<VARIANCE> 0
<GCONST> 0.000000e+00
<STREAM> 3
<NUMMIXES> 2
<MIXTURE> 1 2.452812e-01
<MEAN> 1
 8.543269e-03
<VARIANCE> 1
 2.275298e-03
<GCONST> -4.247767e+00
<MIXTURE> 2 7.547189e-01
<MEAN> 0
<VARIANCE> 0
<GCONST> 0.000000e+00
<STREAM> 4
<NUMMIXES> 2
<MIXTURE> 1 2.452812e-01
<MEAN> 1
 3.171958e-03
<VARIANCE> 1
 9.818173e-03
<GCONST> -2.785643e+00
<MIXTURE> 2 7.547189e-01
<MEAN> 0
<VARIANCE> 0
<GCONST> 0.000000e+00
<STREAM> 5
<MEAN> 15
 -1.145861e+00 -6.530344e-01 -8.585022e-01 -7.015778e-01 -6.441454e-01 -1.675446e-01 -4.710912e-02 -2.348498e-02 -2.578598e-02 -2.361986e-04 -2.788083e-01 -1.136488e-01 1.199324e-01 -1.389870e-01 1.844231e-01
<VARIANCE> 15
 8.069550e+00 1.256586e+00 2.276551e+00 1.389634e+00 1.289414e+00 8.235108e-01 3.803680e-01 3.265963e-01 3.439814e-01 2.017622e-01 3.803083e+00 8.893035e-01 2.430464e+00 1.382817e+00 1.278027e+00
<GCONST> 2.901890e+01
<STATE> 3
<SWEIGHTS> 5
 1.000000e+00 0.000000e+00 0.000000e+00 0.000000e+00 0.000000e+00
<STREAM> 1
<MEAN> 180
 3.682468e+00 2.490986e+00 8.445459e-02 1.412158e+00 2.564375e-01 2.041318e-02 1.381306e-01 -2.369512e-01 -2.009719e-01 7.609601e-02 -1.502007e-01 1.456338e-01 -2.223856e-01 1.841452e-01 -2.424240e-02 -5.290370e-02 -2.308552e-02 -2.064507e-02 3.351373e-03 9.876193e-03 1.440935e-02 2.884516e-02 -5.071420e-02 7.979810e-02 -4.244591e-02 5.334139e-02 -3.468452e-02 4.122008e-02 -5.364900e-02 5.660371e-02 -6.560422e-02 4.688179e-02 -4.156444e-02 -4.772004e-03 2.194957e-02 -3.708080e-02 1.220595e-02 1.021232e-02 -1.564261e-02 7.672424e-03 1.171164e-02 -3.181471e-02 3.227272e-02 -3.002670e-02 2.897575e-02 -1.325741e-02 5.121723e-03 -5.258258e-03 1.054596e-03 6.319534e-03 -1.297677e-02 2.101471e-02 -2.343991e-02 2.172523e-02 -1.904142e-02 6.578728e-03 5.006777e-03 -6.485699e-03 2.504789e-03 -9.046536e-04 4.582909e-03 -1.157773e-02 3.576928e-02 1.012850e-02 -6.204030e-03 3.461330e-02 1.268362e-02 -2.269054e-02 -1.443435e-02 2.135256e-02 1.220900e-02 -1.012362e-02 -1.366465e-02 -1.110874e-02 -1.012416e-02 6.970523e-04 -1.735731e-03 5.523234e-03 1.313172e-03 2.774171e-03 9.822794e-03 6.748057e-03 -4.631068e-03 -5.042886e-03 -9.579376e-04 -1.183582e-03 -3.344671e-03 3.549058e-03 9.797382e-04 -3.113984e-03 -2.328814e-03 9.081234e-03 -7.433231e-03 3.424002e-03 7.112282e-03 -9.194724e-03 2.305141e-03 4.190220e-03 -8.569827e-03 4.281820e-03 2.393810e-04 -6.209357e-03 7.513587e-03 -1.504201e-03 -1.763272e-03 2.871535e-03 -1.493226e-03 -4.924338e-04 1.709999e-03 -1.392158e-03 1.815674e-03 -2.416426e-03 -7.414260e-04 4.142771e-03 -4.095073e-03 2.429020e-03 -1.448535e-03 6.431415e-04 4.899618e-04 -1.331146e-03 -3.089233e-02 4.554235e-03 1.574703e-02 -2.254134e-02 6.480883e-03 3.223539e-02 -1.464774e-02 3.785019e-03 2.041257e-03 -1.782507e-02 -6.479472e-03 -2.029603e-03 9.675485e-04 -9.776995e-03 1.091409e-02 1.013485e-03 -3.347525e-03 -4.277590e-03 -6.122156e-03 4.243205e-03 -9.582408e-03 -2.237886e-03 1.234302e-02 -1.912898e-03 5.234059e-03 8.124497e-03 -8.957158e-03 3.205721e-03 7.702548e-03 3.511981e-04 -2.341313e-03 5.114096e-03 -5.001804e-03 3.209263e-04 -4.038854e-04 2.452700e-03 8.320012e-04 -5.644971e-03 3.551434e-03 -4.334670e-03 -2.106740e-04 9.739552e-03 -5.185376e-03 6.601460e-04 -8.397478e-04 -1.890153e-03 -5.362843e-04 4.092518e-03 -3.586959e-03 -1.613383e-03 3.308170e-03 -3.451469e-03 -7.485563e-04 9.094750e-03 -1.080235e-02 6.629141e-03 3.970820e-04 -7.701617e-03 8.028465e-03 -2.851266e-03
<VARIANCE> 180
