~o
<STREAMINFO> 5 180 1 1 1 15
<MSDINFO> 5 0 1 1 1 0
<VECSIZE> 198<NULLD><USER><DIAGC>
~h "a"
<BEGINHMM>
<NUMSTATES> 7
<STATE> 2
<SWEIGHTS> 5
 1.000000e+00 0.000000e+00 0.000000e+00 0.000000e+00 0.000000e+00
<STREAM> 1
<MEAN> 180
 1.391069e+00 1.168909e+00 5.780119e-01 6.580284e-01 8.483623e-02 3.839735e-01 -5.668646e-02 2.017361e-01 8.295090e-02 3.121836e-02 -8.207249e-02 6.063438e-03 -3.303042e-02 3.109174e-02 2.018147e-03 4.224805e-04 -5.585853e-02 1.837244e-02 -1.162214e-01 -4.516402e-02 -6.349026e-03 2.102608e-02 1.325990e-02 5.171625e-02 -4.136886e-02 4.686783e-02 -2.465081e-02 7.408240e-05 -1.514583e-02 3.174216e-02 -1.019989e-02 -4.444027e-03 3.914954e-03 -5.504985e-03 -2.312673e-02 2.826620e-02 -4.673897e-03 -2.345106e-02 2.990941e-02 -9.886665e-03 -1.301001e-02 7.409938e-03 -2.418154e-02 2.238102e-02 -1.398267e-02 5.918041e-03 -6.242872e-03 5.099725e-03 -5.753362e-04 -1.153464e-02 1.261093e-02 -4.530505e-03 1.876985e-03 4.895301e-03 -3.242725e-03 -4.840986e-03 1.080216e-02 -1.597082e-03 -1.639367e-02 2.158543e-02 -1.650436e-02 6.254522e-03 1.103920e-02 -1.430723e-02 8.137880e-03 3.266438e-03 -7.747062e-03 3.678488e-03 -3.809996e-03 2.749063e-03 -4.104594e-03 -2.335948e-03 7.568705e-03 -1.414121e-02 -3.165861e-03 -3.342561e-03 -4.451946e-03 -7.176932e-04 -6.573413e-03 -1.595062e-03 -1.904070e-03 6.153271e-03 -3.551389e-03 -2.230883e-03 7.789580e-03 -2.716758e-03 3.163605e-03 1.618338e-03 1.772171e-03 4.273908e-03 2.827498e-04 -2.523047e-03 -3.239706e-03 2.173402e-03 -4.126157e-04 -1.385518e-03 1.995578e-03 6.519856e-04 2.767250e-04 -7.365781e-05 1.089203e-04 8.378685e-04 -2.577614e-03 1.968444e-03 -1.197297e-03 5.574680e-04 1.677647e-03 -2.753345e-03 1.541276e-03 -4.085372e-05 -8.832556e-05 -5.867212e-04 1.033845e-03 -7.710869e-05 -8.832795e-04 1.243597e-04 1.039426e-03 -1.042626e-03 3.632655e-04 2.296238e-05 2.825738e-02 -3.172392e-04 5.230425e-03 1.306632e-02 -9.185481e-03 -1.352877e-02 -2.452340e-03 1.048840e-02 3.493779e-03 -4.502755e-03 -8.230129e-03 6.074736e-03 4.417046e-03 2.615700e-03 -1.585750e-03 -4.669008e-03 -6.841744e-03 1.073381e-02 1.201040e-02 8.355688e-03 -5.193766e-03 -6.253897e-03 3.025770e-03 -2.264006e-03 2.782202e-03 -2.333987e-03 -2.004427e-03 2.476863e-03 -6.485069e-04 -5.281487e-03 1.748955e-03 2.579990e-03 -5.122589e-03 5.591085e-03 2.265616e-04 -3.913155e-03 3.781480e-03 1.564787e-03 -6.417709e-03 2.205569e-03 5.654321e-06 4.951737e-05 2.900869e-03 -2.349062e-03 1.121611e-03 -2.726023e-03 1.658349e-03 1.854809e-03 -1.634482e-03 1.600713e-04 -8.528394e-04 6.696604e-04 5.288818e-04 4.317993e-04 -1.985083e-03 2.143079e-03 -2.023253e-03 1.327845e-03 3.512348e-04 -1.645717e-03
<VARIANCE> 180
 1.571014e+00 1.274338e+00 3.513186e-01 2.383153e-01 1.263448e-01 5.600455e-02 7.448877e-02 9.752767e-02 5.934662e-02 5.502540e-02 3.184684e-02 4.290926e-02 3.477858e-02 3.274675e-02 1.414797e-02 1.236778e-02 1.208983e-02 1.970157e-02 1.417693e-02 1.022082e-02 9.051253e-03 9.835654e-03 7.438555e-03 9.660593e-03 1.128613e-02 9.704744e-03 1.003524e-02 5.744725e-03 6.787166e-03 4.774996e-03 5.184718e-03 5.373460e-03 4.549180e-03 3.704149e-03 4.723209e-03 2.892984e-03 3.399300e-03 2.930672e-03 3.009631e-03 2.351697e-03 2.924100e-03 2.971687e-03 2.195143e-03 2.979060e-03 2.336995e-03 1.822767e-03 2.242914e-03 1.936485e-03 2.139784e-03 1.999666e-03 2.292656e-03 1.691057e-03 1.933077e-03 1.235673e-03 1.406126e-03 1.238873e-03 1.397125e-03 1.262827e-03 1.222205e-03 1.107712e-03 4.286185e-02 4.734659e-02 2.166948e-02 1.060741e-02 1.137922e-02 9.506883e-03 7.866968e-03 8.594926e-03 1.024595e-02 7.466240e-03 7.307557e-03 5.775345e-03 6.990288e-03 6.695465e-03 5.838010e-03 4.612005e-03 3.052968e-03 4.281641e-03 4.729178e-03 2.644461e-03 2.992748e-03 2.533290e-03 2.830074e-03 3.234714e-03 3.597282e-03 3.214998e-03 3.099834e-03 2.853912e-03 2.675220e-03 1.427722e-03 1.668524e-03 1.733643e-03 1.356250e-03 1.305313e-03 1.752175e-03 9.537251e-04 1.334201e-03 1.402227e-03 1.005399e-03 1.117995e-03 9.823956e-04 1.134495e-03 7.756324e-04 1.121880e-03 8.599108e-04 6.903321e-04 9.155520e-04 7.396937e-04 8.753256e-04 7.287373e-04 7.549521e-04 6.131905e-04 8.060241e-04 5.225891e-04 7.319314e-04 4.751300e-04 4.516088e-04 5.197566e-04 5.274409e-04 4.765907e-04 3.413088e-02 5.787720e-02 3.343077e-02 4.713336e-02 2.800397e-02 2.840264e-02 3.919508e-02 4.427805e-02 3.332028e-02 3.845399e-02 2.993429e-02 2.926737e-02 2.748548e-02 2.053875e-02 2.533413e-02 2.759250e-02 2.412261e-02 2.066880e-02 2.018915e-02 1.951586e-02 1.557853e-02 1.263914e-02 1.718134e-02 1.752590e-02 2.319743e-02 1.459429e-02 1.633234e-02 1.059992e-02 1.459479e-02 1.007384e-02 9.269503e-03 1.309605e-02 6.379317e-03 8.555842e-03 1.053223e-02 6.507320e-03 9.208324e-03 8.229110e-03 6.799311e-03 6.892277e-03 5.899420e-03 6.891789e-03 5.646870e-03 7.118537e-03 5.145424e-03 4.599803e-03 3.900404e-03 3.420945e-03 4.252997e-03 4.997881e-03 4.293914e-03 4.717492e-03 4.346744e-03 2.945086e-03 4.218264e-03 2.365541e-03 2.239276e-03 2.484174e-03 2.945147e-03 2.553676e-03
<GCONST> -5.924284e+02
<STREAM> 2
<NUMMIXES> 2
<MIXTURE> 1 7.104892e-01
<MEAN> 1
 5.298977e+00
<VARIANCE> 1
 6.720283e-03
<GCONST> -3.164748e+00
<MIXTURE> 2 2.895113e-01
<MEAN> 0
<VARIANCE> 0
<GCONST> 0.000000e+00
<STREAM> 3
<NUMMIXES> 2
<MIXTURE> 1 6.614592e-01
<MEAN> 1
 2.663608e-03
<VARIANCE> 1
 9.093844e-04
<GCONST> -5.164865e+00
<MIXTURE> 2 3.385413e-01
<MEAN> 0
<VARIANCE> 0
<GCONST> 0.000000e+00
<STREAM> 4
<NUMMIXES> 2
<MIXTURE> 1 6.510698e-01
<MEAN> 1
 4.013413e-03
<VARIANCE> 1
 3.472587e-03
<GCONST> -3.824978e+00
<MIXTURE> 2 3.489307e-01
<MEAN> 0
<VARIANCE> 0
<GCONST> 0.000000e+00
<STREAM> 5
<MEAN> 15
 -1.975329e+00 -2.038956e+00 -1.672157e+00 -1.814923e+00 -1.857987e+00 2.593013e-01 1.365535e-01 3.371387e-02 8.514849e-05 6.155991e-02 -1.630320e-01 -1.064367e-01 -6.283763e-02 -6.482606e-02 -3.905649e-02
<VARIANCE> 15
 6.752906e+00 3.385207e+00 2.139418e+00 2.108194e+00 1.978196e+00 3.261816e+00 1.151026e+00 5.656826e-01 6.108006e-01 4.203865e-01 1.383832e+01 7.783041e+00 3.288057e+00 6.013871e+00 4.257523e+00
<GCONST> 4.139219e+01
<STATE> 3
<SWEIGHTS> 5
 1.000000e+00 0.000000e+00 0.000000e+00 0.000000e+00 0.000000e+00
<STREAM> 1
<MEAN> 180
 2.974901e+00 2.792018e+00 5.555014e-01 6.821258e-01 1.854645e-01 2.599786e-01 -5.486479e-02 3.511450e-02 -9.365480e-02 1.127493e-01 -6.843804e-02 -3.769782e-02 -1.831508e-01 -4.030292e-02 -9.138222e-02 -2.536334e-02 -4.683558e-02 9.919686e-03 4.973718e-03 -4.424585e-02 -8.783671e-02 8.602575e-02 2.979831e-02 -3.376884e-03 3.210804e-03 6.851832e-02 -2.693912e-02 4.486537e-03 4.200415e-03 1.486701e-02 -1.171180e-02 2.109926e-02 -2.653870e-02 2.411226e-02 -1.231123e-02 8.197412e-03 -6.443906e-03 3.625524e-04 -1.113974e-02 1.291416e-02 -1.480553e-03 -4.087360e-03 -4.425332e-03 5.008386e-03 3.185064e-03 -3.707960e-04 -3.192880e-04 6.163966e-03 -8.151369e-04 -9.348753e-03 4.083493e-03 3.772009e-03 -7.974410e-03 6.683053e-03 -1.628650e-03 -7.453083e-03 8.474475e-03 -3.554016e-03 1.444747e-03 1.447736e-03 1.788007e-01 4.187211e-02 -6.174448e-02 2.240691e-02 -1.138290e-02 -2.870538e-02 -2.704340e-02 -1.689797e-02 -1.075800e-02 3.907355e-03 -9.279912e-04 1.742391e-02 -1.954625e-02 -6.932684e-03 2.245037e-03 8.430024e-03 -2.004142e-02 -7.363309e-04 2.141774e-02 1.661373e-02 -3.692291e-03 -2.508008e-02 2.108780e-03 -8.489462e-03 -5.727393e-03 1.541021e-02 -5.025578e-03 -1.579744e-03 4.206977e-03 -7.313333e-03 -3.751610e-03 1.965130e-02 -3.098582e-03 3.255493e-03 -3.804269e-03 1.575071e-03 -1.103542e-04 3.751371e-03 -3.647278e-03 -3.673227e-03 3.816260e-03 1.761670e-03 1.901886e-03 -6.298353e-03 1.283489e-03 2.971973e-03 -2.113701e-03 -1.107514e-03 7.745865e-03 -3.305861e-03 -5.160056e-03 6.219930e-03 9.106703e-04 -5.524206e-03 3.378818e-03 -9.100917e-04 -1.175729e-04 1.792168e-03 -4.220828e-03 4.389048e-03 3.178509e-02 4.378874e-02 -6.060435e-02 -4.414636e-02 -1.335944e-02 -9.040106e-03 -6.345029e-03 -1.678282e-02 3.975180e-03 1.358866e-04 -3.404973e-03 3.052205e-03 -1.594839e-02 2.255178e-02 3.291884e-02 1.563075e-02 4.570866e-03 -4.058106e-02 -1.816918e-02 1.960148e-02 2.972188e-02 -2.081348e-02 3.924490e-03 1.609804e-02 -2.223166e-02 -1.225101e-02 1.069341e-02 -7.140832e-03 -1.150982e-02 9.150746e-03 -1.779228e-03 6.558525e-04 8.815097e-03 -2.173475e-02 8.400518e-03 8.956672e-03 -1.544760e-02 -7.809036e-03 2.769998e-02 -4.881301e-03 -1.169240e-02 5.636609e-03 -2.054625e-03 5.296948e-03 -2.991244e-03 5.602011e-03 -1.294290e-02 1.238735e-02 -2.099505e-03 -3.939654e-03 9.534050e-03 -1.244896e-02 6.531229e-03 -3.668331e-03 4.959636e-03 1.748784e-04 -4.303251e-03 3.966217e-03 -4.707438e-03 5.173861e-03
<VARIANCE> 180
 9.560892e-01 4.052266e-01 1.887751e-01 6.163275e-02 1.116475e-01 5.361074e-02 7.517614e-02 3.252035e-02 5.124556e-02 3.262902e-02 2.048412e-02 2.719805e-02 1.127604e-02 2.356090e-02 1.248279e-02 2.712093e-02 9.445716e-03 1.648744e-02 2.152747e-02 1.199498e-02 7.047789e-03 8.985179e-03 9.290496e-03 7.695556e-03 6.421389e-03 6.273501e-03 7.027766e-03 5.150114e-03 4.619935e-03 4.630499e-03 5.705977e-03 4.717501e-03 3.809025e-03 2.621879e-03 2.770756e-03 2.523073e-03 1.854002e-03 2.563181e-03 3.048603e-03 2.716883e-03 4.022548e-03 2.762930e-03 1.737330e-03 2.216751e-03 2.601913e-03 1.904118e-03 9.241052e-04 1.459228e-03 2.674201e-03 1.544932e-03 1.029611e-03 1.752674e-03 1.271936e-03 6.947379e-04 1.206569e-03 1.654150e-03 1.346064e-03 1.200486e-03 1.440190e-03 1.877898e-03 1.424091e-01 5.104997e-02 4.595079e-02 1.979071e-02 1.889470e-02 1.616829e-02 1.073854e-02 4.379979e-03 1.036269e-02 5.851664e-03 7.860028e-03 3.865900e-03 2.633922e-03 4.036822e-03 4.445885e-03 7.245644e-03 5.071759e-03 3.237347e-03 4.297029e-03 1.677725e-03 2.731978e-03 4.087354e-03 1.843581e-03 2.028856e-03 2.761912e-03 1.708209e-03 1.733552e-03 1.093555e-03 1.940760e-03 2.603003e-03 1.431865e-03 1.282339e-03 1.357972e-03 1.535658e-03 1.621731e-03 1.350248e-03 1.187697e-03 1.600010e-03 1.386656e-03 1.264677e-03 1.176208e-03 1.204290e-03 6.202420e-04 7.358835e-04 8.664826e-04 8.262294e-04 4.819774e-04 5.334666e-04 6.006169e-04 5.662129e-04 2.906161e-04 4.842868e-04 4.023556e-04 4.422395e-04 4.639758e-04 5.521898e-04 5.533550e-04 4.640936e-04 5.646155e-04 7.201368e-04 2.098456e-01 2.413479e-01 7.917274e-02 4.584159e-02 5.673886e-02 6.820352e-02 5.247366e-02 2.090252e-02 3.304223e-02 2.338037e-02 3.265158e-02 1.821917e-02 1.949194e-02 2.866794e-02 2.732395e-02 1.146702e-02 3.487479e-02 2.734759e-02 1.633252e-02 1.012749e-02 1.095645e-02 2.056806e-02 1.993772e-02 1.336229e-02 9.258750e-03 1.736827e-02 1.115686e-02 1.045995e-02 8.744325e-03 1.071932e-02 8.137474e-03 9.740043e-03 9.362025e-03 9.567169e-03 7.927925e-03 5.535482e-03 4.968797e-03 6.109581e-03 6.262117e-03 4.503537e-03 6.066886e-03 6.372251e-03 5.783769e-03 7.795353e-03 5.618903e-03 4.222632e-03 3.550474e-03 3.607712e-03 4.800064e-03 3.913319e-03 1.728693e-03 4.246210e-03 3.507301e-03 2.944239e-03 3.600691e-03 3.698266e-03 2.346849e-03 3.059126e-03 4.701034e-03 4.162186e-03
<GCONST> -6.105184e+02
<STREAM> 2
<NUMMIXES> 2
<MIXTURE> 1 7.856534e-01
<MEAN> 1
 5.384535e+00
<VARIANCE> 1
 1.177479e-02
<GCONST> -2.603918e+00
<MIXTURE> 2 2.143465e-01
<MEAN> 0
<VARIANCE> 0
<GCONST> 0.000000e+00
<STREAM> 3
<NUMMIXES> 2
<MIXTURE> 1 7.499444e-01
<MEAN> 1
 2.798074e-03
<VARIANCE> 1
 9.416671e-04
<GCONST> -5.129982e+00
<MIXTURE> 2 2.500554e-01
<MEAN> 0
<VARIANCE> 0
<GCONST> 0.000000e+00
<STREAM> 4
<NUMMIXES> 2
<MIXTURE> 1 7.142320e-01
<MEAN> 1
 -9.636312e-03
<VARIANCE> 1
 4.347141e-03
<GCONST> -3.600360e+00
<MIXTURE> 2 2.857678e-01
<MEAN> 0
<VARIANCE> 0
<GCONST> 0.000000e+00
<STREAM> 5
<MEAN> 15
 -3.190045e+00 -2.287979e+00 -2.438937e+00 -2.153011e+00 -1.800629e+00 -5.866404e-01 -4.524262e-01 -1.462282e-01 -1.745588e-01 -2.528429e-01 -2.833794e-01 2.805555e-02 5.774048e-02 -3.744036e-02 -3.299009e-01
<VARIANCE> 15
 7.757532e+00 3.322121e+00 4.073873e+00 1.956333e+00 1.556820e+00 2.997194e+00 1.406200e+00 7.805592e-01 6.560630e-01 6.252075e-01 1.610683e+01 1.001028e+01 7.630012e+00 4.966940e+00 4.161524e+00
<GCONST> 4.377901e+01
<STATE> 4
<SWEIGHTS> 5
 1.000000e+00 0.000000e+00 0.000000e+00 0.000000e+00 0.000000e+00
<STREAM> 1
<MEAN> 180
 3.017819e+00 2.371620e+00 1.963473e-01 5.858591e-01 5.849060e-02 1.402159e-01 -1.686447e-01 -6.075474e-02 -1.467642e-01 8.230510e-02 -1.437021e-01 1.668954e-02 -1.733287e-01 6.267176e-03 -4.996957e-02 -7.348090e-03 -1.021388e-01 -3.803129e-02 -5.389270e-02 1.081416e-03 -4.235700e-02 -2.585557e-02 2.331381e-02 2.597064e-02 -2.417624e-02 1.026486e-01 1.130227e-02 3.401940e-02 1.150978e-03 -9.191809e-04 -4.143536e-02 4.433865e-02 -1.463494e-02 7.999735e-05 -2.353831e-03 3.921362e-02 -1.316832e-02 -1.425056e-02 2.987149e-02 -3.822833e-03 -5.538315e-03 2.155379e-03 -1.245184e-02 7.440007e-03 1.234476e-02 1.354533e-03 -2.036579e-02 1.759545e-02 -2.962442e-03 2.462869e-03 -2.328132e-03 -1.290579e-03 1.631286e-03 -5.902640e-03 1.167334e-02 -1.337961e-02 6.701516e-03 6.655140e-03 -2.072844e-02 2.241721e-02 5.954274e-02 7.028075e-02 -4.481817e-02 1.470461e-02 -4.813655e-02 -4.067269e-02 4.086349e-02 -1.516499e-02 -7.494353e-03 2.326276e-03 3.128435e-02 2.811518e-02 -5.053882e-03 1.367027e-02 2.936812e-02 -1.462772e-02 -7.037960e-03 -1.017503e-02 5.347679e-03 1.771987e-03 1.370802e-02 -1.910103e-02 8.212701e-03 1.074317e-02 -1.272932e-02 -2.215486e-02 8.321978e-04 8.082596e-04 -6.616619e-03 3.999673e-03 -6.969580e-03 -2.157551e-03 7.820782e-04 5.991617e-04 1.389833e-03 -2.815062e-03 7.676073e-03 -2.599603e-03 5.921970e-04 7.963886e-04 -7.522976e-03 5.299745e-03 5.633447e-03 -7.188013e-04 -1.831888e-03 -6.512469e-04 -2.690997e-03 8.414928e-03 -7.922204e-03 -2.120584e-03 1.081896e-02 -1.075057e-02 2.829168e-03 3.856999e-03 -7.483022e-03 1.028400e-02 -9.180312e-03 5.140462e-03 -1.586562e-03 5.991083e-04 -3.753356e-02 -7.344569e-03 2.677825e-02 9.972178e-03 -2.288418e-02 1.785495e-02 5.129717e-02 -7.454281e-03 -1.583889e-03 -2.206450e-03 3.610516e-02 1.179334e-02 1.119460e-02 1.364149e-02 -2.284405e-02 -2.430962e-02 1.936154e-02 2.632862e-02 -1.702240e-02 -4.522447e-02 -5.243768e-03 2.326825e-02 6.069028e-03 -6.315989e-03 7.028936e-04 -1.730194e-04 -4.419574e-03 -6.874008e-03 -4.450102e-03 2.747959e-02 8.237643e-03 -2.437192e-02 1.890079e-03 5.819019e-03 -3.751108e-03 -1.397120e-03 4.434765e-03 6.154848e-03 -1.190950e-02 3.217568e-05 6.550805e-03 4.668688e-03 -9.527131e-03 8.328633e-03 -1.066944e-02 -1.788772e-03 1.523846e-02 -1.622435e-02 7.493188e-03 -6.187895e-03 1.044201e-02 -1.095815e-02 2.936703e-03 1.040061e-02 -1.427285e-02 3.436713e-03 5.498597e-03 -6.174033e-03 2.721482e-03 2.975321e-03
<VARIANCE> 180
 2.362913e+00 5.413395e-01 4.195648e-01 1.345630e-01 1.953452e-01 8.102178e-02 8.782825e-02 4.603289e-02 4.177874e-02 5.817017e-02 4.344867e-02 2.394377e-02 1.006019e-02 2.169244e-02 1.094991e-02 1.598478e-02 1.729208e-02 2.328426e-02 1.772508e-02 1.749503e-02 8.242857e-03 1.047276e-02 3.691669e-03 5.530379e-03 9.871454e-03 3.265433e-03 1.184656e-02 5.387912e-03 3.661867e-03 5.733351e-03 4.840056e-03 2.023240e-03 3.633894e-03 3.949718e-03 3.577074e-03 2.714061e-03 1.106072e-03 2.045594e-03 1.181948e-03 1.075764e-03 1.097147e-03 1.202628e-03 1.240202e-03 2.130199e-03 1.599318e-03 1.420852e-03 9.577313e-04 9.463395e-04 1.687950e-03 1.499766e-03 7.712346e-04 1.383887e-03 1.264032e-03 2.219121e-03 1.844036e-03 1.668264e-03 1.289158e-03 6.499382e-04 7.644487e-04 1.809194e-03 6.581926e-02 4.871413e-02 1.354550e-02 2.455209e-02 1.341854e-02 8.639758e-03 7.707427e-03 4.147419e-03 3.068016e-03 3.907351e-03 5.223449e-03 3.236495e-03 4.282361e-03 5.112428e-03 3.026172e-03 2.211618e-03 1.665912e-03 2.874046e-03 2.200015e-03 6.965117e-03 2.264954e-03 3.691610e-03 1.060684e-03 2.139842e-03 2.404548e-03 2.766495e-03 2.323632e-03 1.055149e-03 1.338135e-03 3.007405e-03 1.403683e-03 1.341294e-03 1.220798e-03 5.925542e-04 1.398312e-03 1.182146e-03 7.858599e-04 1.214886e-03 7.862682e-04 7.495957e-04 9.090271e-04 9.140685e-04 6.144717e-04 9.640420e-04 1.048417e-03 7.300709e-04 5.452532e-04 8.468532e-04 6.896325e-04 8.625247e-04 4.791980e-04 1.181953e-03 1.089734e-03 8.698515e-04 5.874156e-04 5.927009e-04 5.222424e-04 5.719943e-04 5.915252e-04 7.914021e-04 3.998719e-02 3.373725e-02 3.365195e-02 3.758856e-02 2.078732e-02 1.569955e-02 1.723342e-02 2.824878e-02 3.129585e-02 1.131012e-02 1.705468e-02 1.071225e-02 1.792474e-02 1.883097e-02 3.192632e-02 1.487597e-02 2.492297e-02 1.780802e-02 8.650760e-03 1.437632e-02 8.830559e-03 9.471987e-03 4.763653e-03 6.240554e-03 5.141184e-03 9.876728e-03 6.361600e-03 5.260746e-03 7.587344e-03 6.711123e-03 7.980602e-03 3.615435e-03 7.274352e-03 3.338734e-03 7.200919e-03 2.995345e-03 2.754144e-03 2.494405e-03 3.677113e-03 2.946805e-03 1.635016e-03 2.510248e-03 4.261743e-03 4.791324e-03 3.049326e-03 2.683910e-03 2.588975e-03 3.184965e-03 3.298616e-03 3.070739e-03 2.920345e-03 2.797387e-03 3.810098e-03 3.635301e-03 1.938862e-03 2.728648e-03 3.383891e-03 2.582016e-03 2.628925e-03 3.818599e-03
<GCONST> -6.474873e+02
<STREAM> 2
<NUMMIXES> 2
<MIXTURE> 1 6.156203e-01
<MEAN> 1
 5.392439e+00
<VARIANCE> 1
 1.467997e-02
<GCONST> -2.383394e+00
<MIXTURE> 2 3.843797e-01
<MEAN> 0
<VARIANCE> 0
<GCONST> 0.000000e+00
<STREAM> 3
<NUMMIXES> 2
<MIXTURE> 1 5.387381e-01
<MEAN> 1
 -1.225732e-03
<VARIANCE> 1
 6.294141e-04
<GCONST> -5.532845e+00
<MIXTURE> 2 4.612620e-01
<MEAN> 0
<VARIANCE> 0
<GCONST> 0.000000e+00
<STREAM> 4
<NUMMIXES> 2
<MIXTURE> 1 5.387381e-01
<MEAN> 1
 -1.230866e-03
<VARIANCE> 1
 4.264379e-03
<GCONST> -3.619581e+00
<MIXTURE> 2 4.612620e-01
<MEAN> 0
<VARIANCE> 0
<GCONST> 0.000000e+00
<STREAM> 5
<MEAN> 15
 -4.043589e+00 -2.271340e+00 -1.852685e+00 -1.579335e+00 -1.706247e+00 -1.096415e+00 -2.211956e-01 -2.362181e-01 1.660740e-02 -5.368828e-02 -4.720263e-01 3.599634e-01 -2.986954e-01 6.196495e-02 5.743542e-01
<VARIANCE> 15
 2.201534e+01 5.166540e+00 3.817454e+00 2.347867e+00 3.574069e+00 3.746452e+00 1.054575e+00 1.117877e+00 7.342385e-01 3.973081e-01 1.281021e+01 7.756694e+00 3.871209e+00 3.958100e+00 6.406548e+00
<GCONST> 4.520776e+01
<STATE> 5
<SWEIGHTS> 5
 1.000000e+00 0.000000e+00 0.000000e+00 0.000000e+00 0.000000e+00
<STREAM> 1
<MEAN> 180
 2.359159e+00 2.898928e+00 8.278006e-01 6.779429e-01 1.135058e-01 1.353640e-01 1.813406e-01 4.458455e-02 -7.637506e-02 5.821144e-02 -5.426921e-02 -9.383189e-03 -1.869165e-01 -4.493847e-02 -6.380854e-02 -9.377413e-02 -1.076014e-01 -1.031216e-02 -3.013126e-02 -5.383654e-03 3.848970e-02 1.701092e-03 2.881462e-02 2.177181e-02 -2.980604e-02 6.623320e-02 -9.916136e-03 9.305662e-03 -1.339385e-02 4.115005e-02 -1.980641e-02 4.375794e-03 -2.184391e-02 2.577804e-02 -2.666353e-02 2.153851e-02 6.566443e-04 -3.814042e-03 3.710333e-03 -7.949827e-03 1.794141e-03 -2.395836e-03 -1.501263e-03 1.434269e-02 -2.154688e-02 1.087560e-02 9.892232e-04 2.370419e-03 4.788432e-03 -1.104176e-02 1.574631e-02 -1.170963e-02 -1.915602e-04 1.434682e-02 -2.079826e-02 1.269462e-02 -2.533325e-03 -4.211203e-04 -1.433346e-04 2.787067e-03 7.437516e-02 4.183475e-02 -1.546920e-02 3.529001e-03 -1.105762e-02 -1.925431e-02 1.558861e-02 2.736093e-03 -6.244202e-03 7.482109e-03 3.158187e-03 1.214442e-02 1.091964e-02 1.943966e-02 -1.352140e-03 -4.950844e-03 3.363681e-03 1.264742e-03 -1.751043e-03 4.308579e-03 6.670746e-03 -7.603095e-03 -4.278476e-03 -1.324787e-04 -6.531968e-03 -2.059218e-03 -4.419017e-03 5.626442e-03 2.256205e-04 4.544369e-03 7.959047e-03 -4.523034e-03 -4.610667e-03 6.730213e-03 1.611265e-03 -7.495723e-03 -4.073574e-04 3.954630e-03 -2.688975e-03 8.893498e-04 -2.470643e-04 -1.906176e-04 -1.501071e-03 4.045775e-03 -9.594101e-03 5.960716e-03 2.017176e-03 -4.957021e-03 3.489383e-03 -3.299007e-03 3.552433e-03 -3.083398e-03 1.562646e-03 -1.917984e-03 5.246840e-03 -5.953256e-03 3.449949e-03 -1.610077e-03 8.464656e-04 9.900276e-04 4.366114e-02 -2.393589e-02 -3.166677e-02 -4.611317e-03 1.567454e-02 -2.851449e-03 -1.438735e-02 7.993889e-03 -1.235794e-02 -1.620516e-03 -2.165479e-02 -5.242064e-03 1.186124e-04 -5.563072e-03 -7.681602e-03 2.141631e-02 1.658788e-03 -8.862659e-03 1.009077e-02 3.748489e-03 -1.897922e-03 9.443157e-03 -1.001297e-02 4.681840e-03 3.616159e-03 -5.780454e-04 -7.782470e-03 1.133885e-02 1.321173e-02 -2.265958e-02 -8.089842e-03 1.306374e-02 1.718918e-03 -3.461127e-03 -2.483730e-04 4.043246e-03 -4.140490e-03 7.037221e-04 1.862937e-03 -2.761176e-03 3.338356e-03 -7.264048e-03 3.843700e-03 -4.616749e-04 3.791885e-03 1.945514e-04 -1.823791e-03 2.359880e-04 -6.424559e-03 1.272977e-02 -1.289686e-02 1.148801e-02 -6.108437e-03 -6.127383e-03 1.346147e-02 -9.813314e-03 2.509215e-03 1.369985e-03 -2.720036e-04 -3.211540e-03
<VARIANCE> 180
 1.462901e+00 3.746016e-01 5.315969e-01 1.036731e-01 1.537419e-01 6.554096e-02 4.685055e-02 4.012044e-02 3.372070e-02 3.210377e-02 1.387342e-02 2.402860e-02 1.328755e-02 2.786191e-02 1.321684e-02 9.896046e-03 8.884108e-03 1.127557e-02 1.376711e-02 1.610908e-02 1.101536e-02 9.153006e-03 4.840892e-03 7.370006e-03 9.463700e-03 7.516354e-03 3.877548e-03 2.819248e-03 3.528500e-03 4.676157e-03 2.025566e-03 3.329113e-03 3.223383e-03 3.602101e-03 1.896587e-03 2.401773e-03 2.626328e-03 2.064534e-03 2.347190e-03 2.287499e-03 1.514870e-03 1.685431e-03 1.840246e-03 1.693341e-03 1.595482e-03 1.567384e-03 1.297787e-03 1.756492e-03 1.688334e-03 1.314242e-03 1.299209e-03 1.942808e-03 1.392283e-03 9.380686e-04 1.321608e-03 9.619065e-04 1.030982e-03 9.970675e-04 1.137636e-03 1.457001e-03 7.729016e-02 1.690367e-02 2.997556e-02 1.184585e-02 1.881760e-02 6.742694e-03 5.357749e-03 1.032526e-02 7.408057e-03 7.996410e-03 3.709264e-03 5.042494e-03 6.354799e-03 4.367025e-03 2.306716e-03 3.454541e-03 3.423205e-03 2.929803e-03 3.596778e-03 2.393633e-03 2.726632e-03 2.815581e-03 1.172789e-03 1.845362e-03 1.841224e-03 2.203912e-03 1.179916e-03 1.633323e-03 1.132260e-03 1.763227e-03 1.042611e-03 1.578368e-03 1.386187e-03 7.174601e-04 1.070287e-03 5.622522e-04 7.095431e-04 4.740211e-04 7.849880e-04 8.035281e-04 5.136302e-04 5.891580e-04 8.415803e-04 8.222988e-04 6.726467e-04 3.824755e-04 6.357069e-04 8.265572e-04 6.066713e-04 5.709138e-04 5.167798e-04 5.550311e-04 6.851675e-04 4.787323e-04 5.352887e-04 3.915459e-04 3.708565e-04 3.114023e-04 5.129855e-04 5.370833e-04 7.369018e-02 6.383923e-02 3.394752e-02 3.653611e-02 2.562905e-02 2.836867e-02 3.164983e-02 3.303549e-02 2.357792e-02 3.177854e-02 2.539619e-02 1.785865e-02 2.081646e-02 1.477792e-02 1.762895e-02 1.429120e-02 1.667213e-02 1.706758e-02 1.392633e-02 1.904827e-02 1.748596e-02 8.528720e-03 1.411984e-02 1.509965e-02 8.904588e-03 1.864068e-02 9.200479e-03 1.335512e-02 8.533725e-03 9.607614e-03 5.125992e-03 1.146836e-02 7.457844e-03 5.669533e-03 5.695762e-03 2.670733e-03 5.328749e-03 2.782104e-03 4.546728e-03 4.447730e-03 3.609676e-03 4.315163e-03 4.924342e-03 3.443806e-03 2.216593e-03 3.060165e-03 2.835936e-03 5.774293e-03 7.035143e-03 2.835452e-03 2.412090e-03 4.446249e-03 3.678257e-03 2.152137e-03 2.585199e-03 1.755902e-03 2.095761e-03 2.413540e-03 2.376021e-03 2.108312e-03
<GCONST> -6.461063e+02
<STREAM> 2
<NUMMIXES> 2
<MIXTURE> 1 8.372044e-01
<MEAN> 1
 5.368847e+00
<VARIANCE> 1
 7.376160e-03
<GCONST> -3.071625e+00
<MIXTURE> 2 1.627959e-01
<MEAN> 0
<VARIANCE> 0
<GCONST> 0.000000e+00
<STREAM> 3
<NUMMIXES> 2
<MIXTURE> 1 8.139430e-01
<MEAN> 1
 -2.596609e-03
<VARIANCE> 1
 6.768950e-04
<GCONST> -5.460117e+00
<MIXTURE> 2 1.860574e-01
<MEAN> 0
<VARIANCE> 0
<GCONST> 0.000000e+00
<STREAM> 4
<NUMMIXES> 2
<MIXTURE> 1 8.139430e-01
<MEAN> 1
 7.161122e-03
<VARIANCE> 1
 4.157033e-03
<GCONST> -3.645077e+00
<MIXTURE> 2 1.860574e-01
<MEAN> 0
<VARIANCE> 0
<GCONST> 0.000000e+00
<STREAM> 5
<MEAN> 15
 -4.101593e+00 -2.214679e+00 -2.512959e+00 -2.145352e+00 -2.049132e+00 -2.709534e-01 1.218238e-02 -3.391748e-02 -1.555376e-01 8.854723e-02 3.429241e-01 2.783785e-02 2.137580e-01 -4.874219e-02 -6.889044e-02
<VARIANCE> 15
 1.957538e+01 2.735000e+00 2.383134e+00 2.230580e+00 1.639470e+00 3.000119e+00 6.998330e-01 4.777212e-01 7.825239e-01 7.188715e-01 6.906602e+00 5.599929e+00 7.708373e+00 5.970894e+00 5.301044e+00
<GCONST> 4.229366e+01
<STATE> 6
<SWEIGHTS> 5
 1.000000e+00 0.000000e+00 0.000000e+00 0.000000e+00 0.000000e+00
<STREAM> 1
<MEAN> 180
 3.170881e+00 2.649607e+00 4.654975e-01 1.439373e+00 -3.004235e-01 -4.348872e-01 2.504502e-01 -2.108177e-01 -3.119515e-01 1.466901e-01 -1.837192e-02 9.219089e-02 -2.008763e-01 2.024700e-01 -8.459648e-03 6.574037e-03 3.783934e-02 -9.045230e-02 5.650780e-03 -4.639817e-02 1.158216e-02 -8.301319e-02 2.581169e-02 6.858835e-02 -3.189206e-02 2.529535e-02 -6.797753e-02 5.841278e-02 1.169148e-02 1.336073e-02 -2.903406e-02 1.265160e-02 -1.615948e-02 4.792304e-02 -4.711774e-02 1.370927e-02 7.024161e-03 3.827543e-03 -4.670742e-03 -1.515821e-02 2.811925e-02 -2.124466e-02 1.351143e-02 -3.299409e-03 -1.187213e-02 1.347283e-02 1.789917e-03 -1.269690e-02 1.744606e-02 -2.539007e-02 2.949612e-02 -1.699658e-02 -1.420109e-02 3.709472e-02 -3.956093e-02 3.379594e-02 -2.489295e-02 1.527117e-02 -5.351321e-03 -6.364668e-03 5.931262e-02 2.879473e-02 -2.442280e-02 4.848270e-04 7.746010e-03 -7.014190e-03 -2.027573e-03 4.367809e-03 7.526689e-03 6.144804e-03 -7.249752e-03 1.691349e-03 6.169603e-03 3.073077e-03 -2.215899e-03 1.312758e-02 1.645382e-02 3.122211e-03 2.369329e-03 -9.147942e-03 2.130866e-03 1.025648e-02 -2.279493e-03 6.529114e-04 3.846411e-04 -3.094286e-03 -5.076481e-03 -2.826873e-03 1.623136e-03 4.646915e-03 -6.759859e-03 6.471347e-03 -4.134453e-03 -1.472143e-03 -1.083256e-03 2.849994e-03 6.642992e-04 -3.662489e-03 2.045527e-03 -2.621541e-03 3.082121e-03 -2.767778e-03 -1.861990e-03 3.569502e-03 -2.956614e-03 4.458605e-04 1.020576e-03 -2.547853e-03 -5.133355e-04 4.834378e-03 -5.406226e-03 4.888372e-03 -3.258437e-03 -1.369789e-03 5.355270e-03 -5.344114e-03 2.565090e-03 -3.917207e-04 4.153936e-04 -1.916208e-03 -7.142006e-02 -1.119581e-02 1.777255e-02 -8.981192e-03 2.159799e-02 1.610032e-02 -9.638935e-03 2.945361e-03 1.148360e-02 1.431869e-03 1.263954e-02 -7.444739e-03 -1.210012e-02 -2.812749e-02 7.392110e-03 6.965336e-03 -3.432717e-03 1.410204e-02 -2.783088e-04 -7.050763e-03 -1.058177e-02 7.008560e-03 8.382007e-03 -1.455155e-02 6.641258e-03 1.024321e-02 1.257930e-02 -1.578062e-02 -1.055158e-02 1.402424e-02 -5.991440e-03 4.180900e-03 -4.479782e-03 3.650105e-03 1.238978e-03 1.268029e-03 7.736515e-04 -7.360037e-03 4.631698e-03 5.849872e-04 5.514321e-04 -3.254143e-04 -1.974969e-03 -9.604990e-04 2.286090e-03 -2.032620e-03 -1.764563e-03 2.360127e-04 7.344836e-03 -9.239856e-03 3.017569e-03 1.745737e-03 -3.701162e-03 7.553795e-03 -8.698192e-03 5.659124e-03 -9.702363e-04 -1.096427e-03 1.817784e-04 1.149587e-03
<VARIANCE> 180
 7.202525e-01 1.960915e-01 3.100470e-01 4.489546e-01 1.514078e-01 1.410956e-01 7.379369e-02 4.741479e-02 4.959576e-02 1.779834e-02 1.764250e-02 1.963851e-02 2.653491e-02 2.005582e-02 9.680862e-03 1.323943e-02 2.144013e-02 1.253674e-02 1.697271e-02 1.131142e-02 9.224596e-03 1.247559e-02 4.170295e-03 7.473910e-03 4.517504e-03 5.263786e-03 4.285364e-03 2.980465e-03 2.746854e-03 5.825632e-03 1.942318e-03 1.618597e-03 2.848802e-03 2.311488e-03 2.896260e-03 1.529444e-03 1.559834e-03 2.190242e-03 1.520384e-03 8.388732e-04 1.519160e-03 1.317283e-03 1.133568e-03 1.134422e-03 1.367741e-03 1.535176e-03 1.435667e-03 2.121471e-03 1.367252e-03 1.218096e-03 1.871500e-03 1.811801e-03 1.461172e-03 2.269769e-03 3.261370e-03 3.829067e-03 2.520814e-03 1.301336e-03 8.489416e-04 1.647567e-03 3.355311e-02 8.212776e-03 1.543672e-02 7.959816e-03 6.468821e-03 4.483505e-03 6.802879e-03 2.764235e-03 6.120153e-03 4.588542e-03 2.667176e-03 3.787886e-03 2.541898e-03 1.976307e-03 2.870489e-03 2.785403e-03 2.812677e-03 2.606384e-03 1.469903e-03 2.376460e-03 2.266831e-03 1.597388e-03 5.178172e-04 1.159544e-03 1.322439e-03 7.583486e-04 7.993412e-04 6.520486e-04 9.130755e-04 7.912982e-04 9.812930e-04 9.952231e-04 1.111661e-03 1.004840e-03 5.684496e-04 3.211111e-04 6.098797e-04 5.541389e-04 4.638104e-04 4.021931e-04 4.044539e-04 3.278669e-04 4.345597e-04 4.812578e-04 3.786914e-04 4.289880e-04 2.987545e-04 2.768126e-04 2.636189e-04 4.051005e-04 5.403338e-04 4.750322e-04 3.186450e-04 5.293229e-04 4.139006e-04 4.075931e-04 3.340006e-04 3.027770e-04 2.890059e-04 2.581067e-04 2.439743e-02 1.558153e-02 1.658925e-02 1.987604e-02 2.528243e-02 9.287656e-03 3.407794e-02 1.043818e-02 2.060074e-02 1.802122e-02 1.903196e-02 2.011881e-02 1.775870e-02 1.018103e-02 1.396810e-02 8.847430e-03 1.099955e-02 9.292036e-03 1.540303e-02 9.757814e-03 5.675681e-03 8.591920e-03 4.257807e-03 4.897276e-03 4.411943e-03 6.879063e-03 8.284850e-03 6.134990e-03 5.109639e-03 5.158856e-03 4.141433e-03 3.562961e-03 6.964260e-03 5.925850e-03 3.355603e-03 2.591088e-03 4.690886e-03 2.497681e-03 2.025924e-03 1.371672e-03 2.175500e-03 1.630686e-03 2.080909e-03 2.760486e-03 2.997889e-03 2.760493e-03 2.196739e-03 2.072367e-03 2.164894e-03 2.521186e-03 2.686062e-03 1.860796e-03 1.213026e-03 1.612628e-03 2.005962e-03 3.024148e-03 2.789344e-03 1.873296e-03 1.851915e-03 1.463686e-03
<GCONST> -6.996290e+02
<STREAM> 2
<NUMMIXES> 2
<MIXTURE> 1 8.679531e-01
<MEAN> 1
 5.372000e+00
<VARIANCE> 1
 8.156563e-03
<GCONST> -2.971055e+00
<MIXTURE> 2 1.320471e-01
<MEAN> 0
<VARIANCE> 0
<GCONST> 0.000000e+00
<STREAM> 3
<NUMMIXES> 2
<MIXTURE> 1 8.415436e-01
<MEAN> 1
 7.608647e-03
<VARIANCE> 1
 1.668037e-04
<GCONST> -6.860815e+00
<MIXTURE> 2 1.584566e-01
<MEAN> 0
<VARIANCE> 0
<GCONST> 0.000000e+00
<STREAM> 4
<NUMMIXES> 2
<MIXTURE> 1 8.415436e-01
<MEAN> 1
 -1.065593e-02
<VARIANCE> 1
 1.522233e-03
<GCONST> -4.649700e+00
<MIXTURE> 2 1.584566e-01
<MEAN> 0
<VARIANCE> 0
<GCONST> 0.000000e+00
<STREAM> 5
<MEAN> 15
 -9.358569e+00 -3.095982e+00 -2.658564e+00 -2.881822e+00 -2.319848e+00 -5.106646e-01 4.990907e-03 -1.051140e-01 -7.218239e-02 -4.585695e-02 3.454973e-01 3.256409e-02 3.308533e-02 3.521441e-01 -2.543830e-02
<VARIANCE> 15
 3.026969e+01 3.809831e+00 2.273799e+00 2.942441e+00 1.641439e+00 3.646306e+00 8.825340e-01 6.100714e-01 6.445642e-01 4.706132e-01 1.853266e+01 8.386951e+00 5.367836e+00 7.942465e+00 4.542522e+00
<GCONST> 4.450617e+01
<TRANSP> 7
 0.000000e+00 1.000000e+00 0.000000e+00 0.000000e+00 0.000000e+00 0.000000e+00 0.000000e+00
 0.000000e+00 8.649409e-01 1.350591e-01 0.000000e+00 0.000000e+00 0.000000e+00 0.000000e+00
 0.000000e+00 0.000000e+00 5.357658e-01 4.642342e-01 0.000000e+00 0.000000e+00 0.000000e+00
 0.000000e+00 0.000000e+00 0.000000e+00 5.002908e-01 4.997092e-01 0.000000e+00 0.000000e+00
 0.000000e+00 0.000000e+00 0.000000e+00 0.000000e+00 6.976193e-01 3.023807e-01 0.000000e+00
 0.000000e+00 0.000000e+00 0.000000e+00 0.000000e+00 0.000000e+00 6.566408e-01 3.433592e-01
 0.000000e+00 0.000000e+00 0.000000e+00 0.000000e+00 0.000000e+00 0.000000e+00 0.000000e+00
<ENDHMM>
~h "b"
<BEGINHMM>
<NUMSTATES> 7
<STATE> 2
<SWEIGHTS> 5
 1.000000e+00 0.000000e+00 0.000000e+00 0.000000e+00 0.000000e+00
<STREAM> 1
<MEAN> 180
 1.258284e+00 6.206484e-01 6.498508e-01 6.258564e-01 5.571560e-02 5.028051e-01 2.138885e-02 9.652967e-04 1.856919e-02 2.446851e-01 -3.771700e-02 2.939155e-01 2.213828e-01 2.497576e-01 8.819705e-02 -4.258347e-03 1.456194e-02 2.446003e-01 -6.054647e-02 -3.120607e-02 -1.409580e-01 -8.877876e-02 -9.315517e-02 -3.188971e-02 -1.247251e-01 8.631993e-02 -6.886583e-02 -3.339103e-02 -2.714956e-02 9.537984e-02 -4.682709e-02 -1.922211e-02 -3.669904e-02 6.110015e-02 -1.673315e-02 -4.990923e-02 3.087088e-02 -3.069780e-02 -1.279265e-02 1.178151e-02 2.840427e-02 -2.840006e-03 -5.972909e-03 1.181095e-03 -3.001518e-02 4.079829e-02 -5.359481e-02 -6.972571e-03 6.655858e-02 -1.806243e-02 -2.983210e-02 -2.024541e-02 4.202983e-02 -1.843695e-03 -9.742549e-03 1.576417e-02 -2.038037e-02 -1.716551e-02 4.053904e-02 -1.042774e-02 -2.906362e-01 8.217233e-02 -7.895736e-02 -4.069072e-03 5.061452e-02 -8.261037e-02 4.210569e-02 -6.132036e-03 1.297507e-02 3.497807e-02 6.019541e-02 -6.258716e-03 1.654541e-02 -4.664442e-02 -5.043378e-03 -1.184457e-03 2.869395e-02 -3.288572e-02 4.916932e-02 -3.832725e-03 5.641839e-03 -2.288491e-02 1.828187e-02 5.531190e-03 4.553552e-04 -2.657167e-02 1.287499e-02 -9.257308e-03 -1.247917e-02 -9.030250e-03 6.584713e-03 3.331790e-03 8.803741e-03 1.963107e-02 -1.548566e-02 -1.362036e-02 1.696511e-03 -7.949383e-03 8.073107e-03 -5.373253e-05 1.665235e-03 3.941486e-03 -7.416427e-04 4.841695e-03 -9.648930e-03 2.125170e-03 2.558361e-03 2.565747e-03 -2.721972e-03 -1.293149e-02 2.265777e-02 -3.299141e-03 -2.454677e-02 1.697395e-02 9.112683e-03 -1.464381e-02 7.012350e-03 -3.107483e-03 -2.159168e-03 8.153415e-03 5.543872e-02 -3.946501e-02 -1.915397e-02 -1.719171e-02 -1.618142e-02 6.501018e-03 -1.951897e-02 3.288021e-02 1.819912e-02 -2.886700e-02 -3.135776e-02 -1.137273e-02 -5.777081e-02 -4.553494e-02 -1.979494e-02 3.199301e-03 -3.911867e-02 -4.492440e-02 1.080965e-02 3.547253e-03 2.456949e-02 4.846267e-02 -9.834894e-03 -3.937363e-03 3.145949e-02 5.244109e-03 -3.954825e-02 2.154401e-02 3.688213e-02 -2.604027e-02 -2.185922e-02 2.415304e-02 -1.901783e-03 -1.899793e-02 1.745739e-02 4.956197e-03 -2.440136e-02 3.921916e-02 -1.924629e-02 -1.794715e-02 1.836716e-02 -1.239138e-03 -3.264100e-03 8.889644e-03 2.101191e-03 -3.706328e-03 1.397989e-02 -1.424775e-02 -2.006263e-02 2.095135e-02 6.163445e-03 -1.446376e-02 3.707346e-03 6.745578e-03 -9.625346e-03 3.682216e-03 9.837998e-03 -8.955521e-03 5.466026e-03 -8.193315e-03
<VARIANCE> 180
 8.380722e-01 1.217460e+00 2.002903e-02 8.663291e-02 4.305957e-02 1.352748e-01 3.358300e-02 8.203851e-03 3.315068e-02 1.846863e-02 1.904311e-02 5.353984e-03 4.020210e-02 4.420223e-02 5.865393e-03 2.046387e-02 3.204166e-02 7.225744e-02 2.238919e-02 4.323582e-03 9.420866e-03 9.960949e-03 2.490117e-02 7.724066e-03 2.760253e-02 1.665147e-02 4.478730e-03 7.005759e-03 4.488935e-03 3.815368e-03 5.664743e-03 4.164651e-03 8.417029e-04 4.169782e-03 5.965272e-03 4.449029e-03 7.017899e-03 7.032668e-03 4.050181e-03 5.562673e-04 2.339997e-03 3.702494e-04 2.571007e-03 1.530461e-03 1.985525e-03 7.168810e-04 2.925469e-03 1.264431e-03 2.835132e-03 1.111836e-03 4.296896e-03 8.256544e-04 4.445926e-03 2.008134e-03 5.950328e-04 2.537445e-03 2.099787e-03 2.457906e-03 1.555429e-03 1.224069e-03 2.668571e-02 2.045974e-02 4.323372e-03 1.820295e-02 1.207528e-02 6.329045e-03 9.694676e-03 6.099404e-03 3.007020e-03 2.370088e-03 2.825024e-03 1.231181e-03 6.913058e-03 2.391615e-03 9.250409e-03 2.306157e-03 4.436534e-03 6.765233e-03 6.826816e-04 3.658795e-03 2.105610e-04 4.247064e-03 3.104059e-03 2.698987e-03 1.073906e-02 1.371716e-03 2.751736e-03 5.224732e-03 1.391950e-03 2.799735e-03 1.316012e-03 2.275626e-03 5.721985e-04 3.204368e-03 5.344829e-04 1.799899e-03 7.604796e-04 8.388758e-04 2.305338e-04 4.948520e-04 2.893087e-04 3.755427e-04 1.009075e-03 4.432767e-04 1.062368e-03 5.920501e-04 7.127183e-04 1.336665e-03 1.557551e-03 1.941476e-04 7.496253e-04 3.869139e-04 4.041026e-04 1.917725e-04 2.455890e-04 6.133963e-04 6.349024e-04 2.601842e-04 2.168307e-04 5.660980e-04 2.721168e-02 1.030846e-02 1.720672e-02 1.419999e-02 1.415884e-02 6.874303e-03 1.062079e-02 9.869638e-03 6.630877e-03 9.566313e-03 3.854110e-03 4.158438e-03 4.597700e-03 9.987511e-03 1.132264e-02 5.170189e-03 2.128222e-03 1.130048e-02 5.628428e-03 4.571808e-03 3.096176e-03 3.410700e-03 7.552001e-03 3.708063e-03 1.662361e-02 2.456799e-03 1.033403e-02 2.701795e-03 2.355722e-02 7.777922e-03 4.706787e-03 1.277634e-02 2.526127e-03 6.861893e-03 4.489617e-03 5.785869e-03 1.265735e-03 4.921502e-03 5.607962e-03 2.142087e-03 2.618930e-03 7.555627e-04 6.095210e-03 1.485560e-03 8.088227e-03 2.560339e-03 4.184284e-03 4.094428e-03 3.899424e-03 1.067918e-03 1.760214e-03 1.197146e-03 2.754112e-03 9.451667e-04 1.961354e-03 9.727590e-04 1.719391e-03 2.115057e-03 1.983617e-03 3.240389e-03
<GCONST> -6.808596e+02
<STREAM> 2
<NUMMIXES> 2
<MIXTURE> 1 1.250000e-01
<MEAN> 1
 5.209579e+00
<VARIANCE> 1
 0.000000e+00
<MIXTURE> 2 8.750000e-01
<MEAN> 0
<VARIANCE> 0
<GCONST> 0.000000e+00
<STREAM> 3
<NUMMIXES> 2
<MIXTURE> 1 1.250000e-01
<MEAN> 1
 -6.015015e-02
<VARIANCE> 1
 0.000000e+00
<MIXTURE> 2 8.750000e-01
<MEAN> 0
<VARIANCE> 0
<GCONST> 0.000000e+00
<STREAM> 4
<NUMMIXES> 2
<MIXTURE> 1 1.250000e-01
<MEAN> 1
 2.644005e-01
<VARIANCE> 1
 0.000000e+00
<MIXTURE> 2 8.750000e-01
<MEAN> 0
<VARIANCE> 0
<GCONST> 0.000000e+00
<STREAM> 5
<MEAN> 15
 -1.896855e-01 -2.964293e-01 -2.271707e-01 -5.226607e-01 -4.652805e-01 8.079283e-02 -7.848672e-03 2.162360e-01 2.909358e-01 2.744396e-01 -1.108117e+00 -3.175168e-01 -4.633205e-01 -4.636787e-01 -8.605403e-03
<VARIANCE> 15
 2.518641e-01 6.150925e-01 3.612457e-01 1.912219e+00 1.515401e+00 2.829941e-01 4.918167e-02 1.411647e-01 2.561786e-01 2.384761e-01 4.434749e+00 3.525029e-01 6.440018e-01 6.650345e-01 7.341884e-01
<GCONST> 1.601111e+01
<STATE> 3
<SWEIGHTS> 5
 1.000000e+00 0.000000e+00 0.000000e+00 0.000000e+00 0.000000e+00
<STREAM> 1
<MEAN> 180
 8.961694e-01 1.110176e+00 4.738519e-01 4.716320e-01 6.559314e-03 1.683543e-01 1.042631e-01 8.464151e-02 1.518787e-02 1.891156e-01 8.578371e-02 2.165031e-01 -4.767830e-02 1.471273e-02 1.177682e-02 -5.141073e-02 -4.285130e-02 -5.070540e-02 -5.077598e-02 8.028808e-03 -8.476490e-03 -2.248196e-02 2.160014e-02 2.823772e-02 -6.903698e-02 8.989809e-02 -1.134655e-01 -1.264710e-02 2.473107e-02 -7.526766e-03 3.487685e-03 2.604066e-02 -3.919601e-02 5.365165e-02 2.305191e-02 -3.937040e-02 1.112029e-02 -1.075368e-02 1.356297e-02 -5.013397e-02 -8.504287e-04 4.378773e-02 1.305303e-03 -3.717255e-03 -2.730308e-02 2.420094e-02 -1.086928e-02 -1.414440e-02 2.860358e-03 -1.432936e-02 3.686750e-02 -1.858738e-02 -2.783699e-02 3.334572e-02 -2.381484e-03 1.628163e-04 -2.383689e-02 2.382134e-02 9.759786e-03 -3.305284e-02 -5.022549e-03 -9.746673e-03 -5.330326e-02 4.482293e-02 2.230522e-02 -1.601980e-02 1.179505e-02 -1.224326e-02 3.521335e-02 -9.978455e-03 -1.489152e-02 -5.019360e-02 -5.619090e-02 5.497566e-03 -2.057425e-02 -5.504055e-03 3.432833e-03 -4.477675e-02 1.790904e-03 2.796476e-03 3.577139e-02 1.850519e-02 -3.885544e-02 -4.505380e-03 3.537359e-02 3.035139e-02 -1.195077e-02 -1.484743e-02 6.502712e-03 2.061574e-03 2.531653e-02 -5.442262e-03 -2.406060e-02 1.086083e-02 1.944518e-02 -3.501198e-03 -5.821703e-03 1.198983e-02 -3.097861e-03 -6.317427e-03 -9.715052e-03 1.052170e-02 -6.168464e-03 2.151772e-03 -4.088392e-03 -1.475920e-03 3.995385e-03 1.329439e-03 -5.572586e-03 2.720591e-03 -1.469254e-03 3.434428e-03 7.211140e-04 -2.422193e-03 1.942385e-04 -5.833067e-03 9.134551e-03 5.681695e-04 -9.189093e-03 8.922134e-03 -1.517384e-02 1.351023e-02 -8.994410e-04 -2.257904e-02 5.053334e-02 4.546663e-03 -2.531004e-02 -2.105020e-02 6.317034e-03 2.966794e-03 1.593002e-02 1.700785e-02 1.083837e-02 4.433320e-02 2.126442e-02 9.414093e-03 1.996073e-02 2.755960e-03 -2.900071e-02 -4.827104e-03 -2.765818e-02 -2.564389e-02 1.429496e-03 1.010788e-02 1.042194e-02 4.945396e-03 8.171484e-03 -3.135802e-03 -1.926222e-02 4.916015e-03 6.229066e-03 1.264172e-02 -6.797889e-03 -1.725137e-02 -6.868440e-03 -1.106231e-02 1.706733e-02 -2.489367e-02 1.694950e-02 1.357300e-02 -5.464845e-03 2.534420e-03 4.520672e-03 2.981303e-03 -2.197879e-02 1.025735e-02 8.351697e-03 2.235044e-03 3.177543e-03 -1.189375e-02 -4.350259e-03 1.018694e-02 3.654523e-03 -1.069199e-02 4.181185e-03 6.281668e-04 7.355995e-04 -6.291420e-05 -1.442579e-02 2.752167e-02
<VARIANCE> 180
 2.000599e+00 1.469439e+00 2.002421e-02 6.782276e-02 2.137244e-02 2.410831e-02 1.578359e-02 3.131787e-02 2.225396e-02 1.678338e-02 1.460491e-02 1.067543e-02 3.304710e-02 1.088800e-02 2.907204e-03 2.542031e-02 2.490701e-02 1.349791e-02 7.780217e-03 2.293105e-03 9.663299e-03 1.522397e-02 1.063508e-02 6.463318e-03 1.592223e-02 1.765072e-02 5.737859e-03 7.883022e-03 7.763313e-03 2.690523e-03 7.781596e-03 9.871767e-04 1.646538e-03 3.883096e-03 5.031249e-03 1.084325e-03 9.826151e-03 1.015039e-02 2.625586e-03 2.059012e-03 1.315906e-03 2.612424e-03 1.488294e-03 1.056638e-03 2.077369e-03 1.662543e-03 1.191054e-03 8.118828e-04 1.004538e-03 6.238253e-04 3.905386e-04 1.296504e-04 5.875041e-04 3.857199e-04 7.311556e-04 1.598181e-03 7.431680e-04 1.919762e-04 3.041881e-04 5.186452e-04 6.620417e-03 4.286787e-03 4.839799e-03 8.837543e-03 1.385295e-03 3.019607e-03 3.159665e-03 4.065154e-03 5.968689e-03 4.535507e-03 9.824111e-04 1.899502e-03 2.079206e-03 2.070171e-03 7.190084e-04 1.264632e-03 3.507821e-03 6.394650e-03 4.374112e-03 1.302097e-03 8.420204e-04 4.656440e-03 7.137961e-03 5.715473e-04 1.454791e-03 4.840379e-04 5.304406e-03 3.959309e-03 6.348992e-03 1.489376e-03 1.257236e-03 7.498151e-04 4.259119e-04 8.958468e-04 5.077095e-04 1.595545e-03 9.938671e-04 9.074606e-04 1.131393e-03 1.530499e-03 1.312709e-03 1.467064e-03 1.346031e-03 1.100853e-03 9.336440e-04 6.006001e-04 1.624265e-04 4.843464e-04 6.349502e-04 2.775904e-04 3.906485e-04 2.851773e-04 3.085244e-04 2.818236e-04 4.843182e-05 1.706889e-04 3.300117e-04 5.027094e-04 2.552984e-04 8.759080e-04 1.642139e-02 6.804236e-03 7.681598e-03 1.290493e-02 1.495633e-02 9.321926e-03 6.590979e-03 1.291447e-02 2.008585e-02 8.166716e-03 6.494770e-03 5.570225e-03 5.628544e-03 8.132289e-03 4.955994e-03 4.710885e-03 7.266955e-03 1.729551e-02 8.824693e-03 7.883495e-03 8.194820e-03 1.053126e-02 1.249222e-02 1.665921e-03 1.207929e-03 2.286451e-03 7.606576e-03 1.014797e-02 8.018985e-03 2.479135e-03 5.328906e-03 3.784720e-03 6.997308e-03 6.465136e-03 1.253020e-03 2.386819e-03 3.657287e-03 5.431946e-03 5.358774e-03 1.175468e-03 4.782642e-03 2.682316e-03 3.720151e-03 3.043109e-03 2.013769e-03 2.636656e-03 5.788626e-04 1.474830e-03 1.256461e-03 1.916117e-04 1.261078e-03 3.121011e-04 1.417146e-03 1.603710e-03 3.302487e-04 1.165610e-03 1.082503e-03 5.945989e-04 1.094691e-03 6.169660e-04
<GCONST> -7.334518e+02
<STREAM> 2
<NUMMIXES> 2
<MIXTURE> 1 2.500000e-01
<MEAN> 1
 5.256788e+00
<VARIANCE> 1
 6.170550e-04
<GCONST> -5.552675e+00
<MIXTURE> 2 7.500000e-01
<MEAN> 0
<VARIANCE> 0
<GCONST> 0.000000e+00
<STREAM> 3
<NUMMIXES> 2
<MIXTURE> 1 2.500000e-01
<MEAN> 1
 -5.072355e-03
<VARIANCE> 1
 2.642839e-04
<GCONST> -6.400610e+00
<MIXTURE> 2 7.500000e-01
<MEAN> 0
<VARIANCE> 0
<GCONST> 0.000000e+00
<STREAM> 4
<NUMMIXES> 2
<MIXTURE> 1 2.500000e-01
<MEAN> 1
 -3.251362e-02
<VARIANCE> 1
 7.959791e-03
<GCONST> -2.995476e+00
<MIXTURE> 2 7.500000e-01
<MEAN> 0
<VARIANCE> 0
<GCONST> 0.000000e+00
<STREAM> 5
<MEAN> 15
 -1.673697e+00 -8.050863e-01 -5.387465e-01 -9.964253e-01 -5.224568e-01 -5.638891e-01 9.232725e-02 -1.591073e-01 6.181812e-02 -7.259546e-02 5.143412e-01 2.758958e-01 -1.802530e-01 1.440371e-01 -4.211256e-01
<VARIANCE> 15
 8.887623e+00 2.003043e+00 8.822163e-01 2.997799e+00 8.887583e-01 1.218460e+00 1.016915e-01 1.084366e-01 3.221114e-02 1.931571e-01 1.071154e+00 5.866561e-01 1.407277e-01 7.048790e-01 1.120290e+00
<GCONST> 1.925096e+01
<STATE> 4
<SWEIGHTS> 5
 1.000000e+00 0.000000e+00 0.000000e+00 0.000000e+00 0.000000e+00
<STREAM> 1
<MEAN> 180
 1.258964e+00 1.354763e+00 2.941737e-01 5.608772e-01 6.832998e-02 4.277492e-02 1.546663e-02 -2.916296e-02 8.143534e-02 1.907719e-01 -2.216364e-02 1.466448e-01 -1.095951e-01 7.830603e-02 8.282193e-04 -1.264634e-01 -3.901866e-02 -6.999215e-02 -1.982723e-02 -2.948316e-03 2.434260e-02 -6.809735e-02 -8.899739e-03 7.456425e-02 -6.484884e-02 1.114056e-01 -8.489279e-02 1.265236e-02 1.833076e-02 2.600244e-02 -1.529447e-02 3.925377e-02 -6.431555e-02 2.443917e-02 6.150242e-02 -3.067951e-02 5.159058e-02 -9.698035e-02 1.484428e-02 6.431719e-03 -1.723278e-02 1.922288e-02 7.072579e-03 1.581888e-02 -6.869370e-02 3.278428e-02 2.928261e-02 -3.021064e-02 4.189927e-03 -1.134357e-02 2.299771e-02 -1.168921e-02 -1.716673e-02 2.491661e-02 -2.056761e-02 1.736527e-02 -1.605352e-02 2.094241e-02 -1.643978e-02 1.524015e-02 -2.646835e-02 -4.786109e-02 -7.910094e-02 4.525434e-04 3.735470e-02 -1.169100e-02 -3.052087e-02 -6.320225e-03 4.247500e-02 -8.669301e-03 -4.433518e-02 -2.691535e-02 1.287587e-02 9.707442e-03 -1.039955e-02 -1.714813e-02 1.398898e-02 3.353949e-02 1.112644e-02 -1.769501e-04 -7.109414e-05 -9.691387e-03 2.560424e-02 1.364985e-02 -2.488750e-02 -3.308174e-02 5.067481e-03 1.635996e-02 1.559519e-02 -3.200051e-03 -2.266385e-02 1.014514e-02 -3.897683e-03 -3.122554e-02 1.003402e-02 1.555070e-02 -8.305578e-03 3.545127e-03 -4.574038e-03 -8.585342e-03 1.162759e-02 6.551176e-03 -1.973444e-03 -4.476388e-03 3.691898e-03 4.676688e-03 8.396437e-04 -3.588898e-03 -1.450475e-03 5.787229e-03 1.180454e-03 -9.968182e-03 1.090961e-02 -6.070652e-03 -1.297700e-03 6.893022e-03 -9.922071e-03 1.064635e-02 -1.026623e-02 6.518754e-03 1.340734e-02 -1.339506e-02 1.283625e-02 2.448116e-03 -2.777938e-02 1.696505e-02 -3.573684e-03 -4.334472e-03 -8.868963e-03 -6.557956e-03 1.205549e-03 -9.467334e-03 8.444152e-03 -7.828389e-03 4.857533e-03 2.341839e-02 2.226185e-02 2.535133e-02 4.023874e-03 1.530460e-02 5.877004e-03 -1.669287e-02 -2.936910e-02 -2.624387e-02 -1.315799e-03 1.374074e-02 3.491819e-02 -1.727004e-02 -2.901745e-02 -6.447522e-03 -1.803078e-04 -1.864002e-02 -1.803492e-03 1.706058e-02 1.360584e-02 1.009766e-02 -2.396364e-02 3.675880e-02 1.058316e-03 -2.932210e-02 5.147213e-03 -8.852517e-04 -2.976090e-03 -4.174660e-03 2.795536e-02 -3.072806e-03 -2.386143e-02 3.776265e-03 8.697266e-03 -9.357219e-04 -2.393760e-03 5.314510e-05 3.311417e-03 -5.383451e-03 9.022618e-03 -7.091102e-03 -5.503200e-04 1.037770e-03 2.531180e-03 -2.770720e-03
<VARIANCE> 180
 2.938837e+00 1.707622e+00 1.954413e-02 7.813499e-02 5.846915e-03 6.231247e-03 4.735211e-03 2.733823e-02 4.079934e-03 2.796168e-02 2.713105e-02 6.102466e-03 2.701693e-02 1.783321e-02 4.402625e-03 1.766170e-02 1.466075e-02 1.382473e-02 1.576185e-02 4.190561e-03 1.214169e-02 1.100272e-02 8.984559e-03 1.404148e-02 2.004040e-02 2.128218e-02 5.183367e-03 1.916506e-03 2.001622e-03 2.408713e-04 7.713851e-03 1.774673e-03 4.998975e-04 4.257168e-03 3.022212e-03 3.808276e-03 9.110614e-03 8.697983e-03 1.016565e-02 1.934358e-03 8.832030e-04 1.323582e-03 1.370867e-03 5.701950e-04 1.611415e-03 4.531924e-04 8.622261e-04 8.862991e-04 1.892333e-03 2.057751e-03 6.695756e-04 1.374725e-03 6.508644e-04 2.911956e-04 9.298517e-04 1.034604e-03 6.037505e-04 8.003450e-04 4.264200e-04 9.126910e-04 4.009030e-03 4.781917e-03 6.730640e-04 4.637016e-03 3.705353e-03 1.346594e-03 5.137930e-04 1.439352e-03 5.117555e-03 1.808864e-03 1.702563e-03 7.842092e-04 1.725570e-03 1.301604e-03 2.212909e-03 2.018237e-03 2.437672e-03 8.633353e-04 1.081265e-03 1.371057e-03 9.356044e-04 1.758405e-03 2.058455e-03 1.152096e-03 1.577124e-03 1.776962e-03 1.222483e-03 2.310475e-04 1.500904e-03 2.726275e-04 1.424305e-03 6.073233e-04 4.050123e-04 3.607505e-04 1.364924e-04 9.206859e-04 3.847453e-04 2.127524e-03 2.992934e-04 1.169006e-03 2.963659e-04 3.582816e-04 2.754842e-04 2.555976e-04 3.973310e-04 2.440041e-04 6.149554e-04 4.280205e-04 8.915489e-05 5.495775e-04 1.276557e-04 4.846224e-04 5.561800e-04 4.248838e-04 2.443639e-04 4.458962e-04 9.546017e-05 3.387604e-04 3.074581e-04 8.555416e-04 6.095023e-03 1.108797e-02 3.941088e-03 3.241627e-03 7.016459e-03 6.516513e-03 4.130563e-03 6.526759e-03 1.045712e-03 5.881507e-03 1.251713e-02 5.493812e-03 5.651365e-03 2.664666e-03 1.727622e-02 9.831364e-03 6.520039e-03 8.575168e-03 1.082633e-02 1.023600e-02 2.106123e-03 7.376238e-03 1.112239e-02 5.085652e-03 7.821048e-03 1.028039e-02 1.058394e-02 3.952236e-03 1.247187e-03 1.982240e-03 4.663819e-03 3.429341e-03 1.718283e-03 8.408193e-04 3.114436e-03 2.577850e-03 1.202430e-03 1.323096e-03 3.460409e-03 2.378822e-03 1.501153e-03 1.874837e-03 2.756188e-03 2.342878e-03 7.858796e-04 1.176304e-03 3.396569e-03 4.205384e-03 2.046519e-03 1.696475e-03 1.141073e-03 2.128101e-03 6.871775e-04 1.054574e-03 1.159263e-03 2.024823e-03 1.463334e-03 1.500642e-03 1.098051e-03 2.173938e-03
<GCONST> -7.704188e+02
<STREAM> 2
<NUMMIXES> 2
<MIXTURE> 1 3.750000e-01
<MEAN> 1
 5.231731e+00
<VARIANCE> 1
 3.042386e-05
<GCONST> -8.562407e+00
<MIXTURE> 2 6.250000e-01
<MEAN> 0
<VARIANCE> 0
<GCONST> 0.000000e+00
<STREAM> 3
<NUMMIXES> 2
<MIXTURE> 1 3.750000e-01
<MEAN> 1
 -3.959497e-03
<VARIANCE> 1
 6.217206e-06
<GCONST> -1.015031e+01
<MIXTURE> 2 6.250000e-01
<MEAN> 0
<VARIANCE> 0
<GCONST> 0.000000e+00
<STREAM> 4
<NUMMIXES> 2
<MIXTURE> 1 3.750000e-01
<MEAN> 1
 -3.684362e-03
<VARIANCE> 1
 6.912747e-05
<GCONST> -7.741681e+00
<MIXTURE> 2 6.250000e-01
<MEAN> 0
<VARIANCE> 0
<GCONST> 0.000000e+00
<STREAM> 5
<MEAN> 15
 -2.860043e+00 -1.047919e+00 -1.366990e+00 -1.176498e+00 -1.349109e+00 1.803824e-01 -1.170068e-01 -3.922887e-02 6.139610e-02 9.716878e-02 5.039973e-02 -5.461909e-02 2.263573e-01 1.298521e-01 4.455685e-01
<VARIANCE> 15
 1.376479e+01 2.002562e+00 3.132061e+00 2.558019e+00 3.048220e+00 1.412431e-01 6.900187e-02 3.639272e-02 2.035335e-01 1.429612e-01 6.271523e-01 7.061834e-01 5.762993e-01 3.234797e+00 1.101199e+00
<GCONST> 2.250358e+01
<STATE> 5
<SWEIGHTS> 5
 1.000000e+00 0.000000e+00 0.000000e+00 0.000000e+00 0.000000e+00
<STREAM> 1
<MEAN> 180
 2.017927e+00 1.761460e+00 2.130679e-01 8.899448e-01 1.725382e-01 -4.778336e-02 3.268063e-02 3.815383e-02 1.204909e-01 1.241916e-01 -2.897302e-01 1.605229e-01 -9.041085e-02 8.190359e-02 -9.262803e-03 -1.219229e-01 1.729207e-02 -6.345940e-02 1.075654e-02 2.027700e-03 4.565087e-02 -1.106570e-01 -1.182262e-02 6.471430e-02 -1.176203e-01 1.124902e-01 -3.142840e-02 4.272683e-02 -4.506011e-02 2.961547e-02 -4.662140e-02 3.833679e-02 -4.176935e-02 -7.153309e-03 6.535699e-02 -4.389828e-02 7.139032e-02 -5.254668e-02 3.959012e-02 -5.384811e-02 -2.092753e-03 7.470819e-02 -6.988733e-02 3.686983e-02 -2.226652e-02 6.984338e-03 1.634952e-02 -4.084245e-02 2.794447e-02 -1.682921e-02 2.058816e-02 -1.959678e-02 -6.223316e-04 1.432272e-02 -1.717186e-02 1.648835e-02 -1.804996e-02 2.318907e-02 -2.521560e-02 2.416935e-02 -4.687863e-02 -8.617938e-03 3.558007e-02 4.606712e-02 6.802585e-03 -1.796483e-02 3.336239e-02 1.422332e-02 -7.740728e-03 -2.229989e-02 -2.767678e-02 2.637294e-02 2.216927e-02 2.914874e-03 2.869509e-03 6.307107e-03 3.655593e-03 -6.757623e-03 2.110104e-02 9.303378e-03 -1.331723e-02 -6.386231e-04 -1.248258e-03 -2.122548e-02 -3.438312e-03 4.951927e-04 6.532107e-03 1.252748e-02 -8.406552e-03 3.595728e-03 1.620503e-02 -2.021864e-02 -1.276549e-04 8.966611e-04 -2.069796e-03 -4.846636e-03 5.960961e-03 1.386123e-02 -2.989017e-03 -4.239976e-04 -1.045696e-02 2.412370e-03 -6.983802e-03 1.963984e-03 9.766787e-03 -7.467525e-05 -8.299180e-03 1.985898e-03 1.726832e-03 4.909440e-04 -6.141463e-03 3.731476e-03 6.581630e-04 -1.957785e-03 8.495082e-03 -1.188146e-02 8.657865e-03 -5.805754e-03 -1.860369e-04 7.064963e-03 -1.147756e-03 1.763133e-02 3.903233e-02 -1.367100e-02 -3.514122e-02 9.950384e-05 9.132881e-03 -9.676279e-03 -3.121334e-02 5.910734e-04 6.329696e-03 1.390549e-02 2.115517e-02 -3.335364e-03 -1.903561e-02 -1.968310e-02 -1.828592e-02 -2.206996e-03 1.168686e-02 2.760343e-03 1.640131e-02 1.816215e-02 1.732816e-02 1.423228e-02 4.981937e-03 -1.493689e-02 -3.285713e-02 9.489041e-03 1.920003e-03 1.075627e-02 1.668590e-02 8.814406e-03 -4.929587e-03 -6.729747e-04 -2.004089e-02 -3.135603e-03 2.090860e-02 -2.518895e-02 8.072065e-05 1.927122e-02 -1.197708e-02 -1.106325e-02 1.205853e-02 -1.640080e-03 -1.174104e-02 1.165722e-02 -5.450243e-04 -8.481968e-04 1.226957e-03 -4.410883e-03 7.093833e-03 -4.140928e-05 -1.249880e-02 9.981427e-03 4.680431e-04 -7.837657e-04 -4.932356e-03 5.655490e-03 3.692553e-03 -1.325134e-02
<VARIANCE> 180
 2.929598e+00 1.400264e+00 2.592346e-02 2.840578e-01 4.460846e-03 4.404250e-02 2.121425e-02 1.472654e-02 4.007826e-03 1.146858e-02 8.724669e-02 2.167871e-02 4.630636e-03 7.585237e-03 2.370446e-03 1.507861e-02 6.677945e-03 1.853283e-02 1.860481e-02 2.172560e-03 1.189979e-02 6.989902e-03 4.591352e-03 1.812210e-02 8.866850e-03 1.019410e-02 2.651274e-03 4.161447e-03 3.767204e-03 5.456295e-03 8.359362e-03 3.964854e-03 3.452603e-03 2.598249e-03 2.803329e-03 3.543685e-03 9.176197e-03 9.770558e-03 6.936004e-03 9.462239e-04 1.330936e-03 2.423586e-03 4.254572e-03 2.119640e-03 2.718526e-03 1.589264e-03 1.451377e-03 5.083398e-04 1.751014e-03 2.752936e-03 1.369295e-03 7.393380e-04 5.266870e-04 4.498205e-04 1.357870e-03 1.648051e-03 1.029776e-03 9.135424e-04 8.346391e-04 1.747304e-03 5.344875e-03 4.781499e-03 4.692357e-03 6.607242e-03 1.198089e-03 6.100170e-03 3.916112e-03 8.455697e-03 1.302248e-03 2.239167e-03 2.902320e-03 1.400101e-03 4.148669e-03 2.555294e-03 1.784836e-03 2.724719e-03 1.088236e-03 2.890220e-03 4.723239e-03 1.934990e-03 3.993694e-03 3.197018e-03 2.240011e-03 2.498207e-03 1.480810e-03 1.783018e-03 4.308583e-03 1.309457e-03 2.868631e-03 1.837387e-03 9.304942e-04 8.265179e-04 1.254871e-03 9.851287e-04 7.582809e-04 3.725724e-04 6.110777e-04 1.755930e-03 2.118412e-04 1.174767e-03 1.148302e-03 4.847703e-04 1.229370e-03 3.190026e-04 1.465858e-03 6.789140e-04 6.175736e-04 1.413596e-04 3.966082e-04 6.453858e-04 5.301445e-04 5.319804e-04 3.364170e-04 1.271580e-04 6.164749e-04 6.901704e-04 3.417042e-04 5.778693e-04 1.748319e-04 1.577656e-04 5.631419e-03 9.187318e-03 6.660358e-03 1.163356e-02 2.831461e-03 1.189418e-02 4.076899e-03 8.322655e-03 9.203320e-03 5.585411e-03 4.184901e-03 1.038655e-02 8.950516e-03 2.679675e-03 1.066134e-02 7.745354e-03 8.510376e-03 4.711483e-03 4.060065e-03 3.171066e-03 5.483094e-03 6.050457e-03 2.454975e-03 7.756862e-03 6.191149e-03 3.409743e-03 7.096954e-03 2.954553e-03 8.770458e-03 9.138538e-03 4.066565e-03 2.297258e-03 6.450910e-03 5.511260e-03 3.907004e-03 2.719483e-03 4.895314e-03 3.698820e-03 1.647563e-03 1.354909e-03 2.565195e-03 1.409937e-03 4.203384e-03 1.541914e-03 5.783590e-03 2.393460e-03 8.317102e-04 1.197729e-03 1.756053e-03 3.209551e-03 2.509187e-03 1.480298e-03 3.470425e-03 1.123891e-03 3.910232e-03 4.099984e-03 9.615796e-04 3.889107e-03 2.709999e-03 1.758977e-03
<GCONST> -7.178224e+02
<STREAM> 2
<NUMMIXES> 2
<MIXTURE> 1 6.079618e-01
<MEAN> 1
 5.208892e+00
<VARIANCE> 1
 5.686700e-05
<GCONST> -7.936918e+00
<MIXTURE> 2 3.920382e-01
<MEAN> 0
<VARIANCE> 0
<GCONST> 0.000000e+00
<STREAM> 3
<NUMMIXES> 2
<MIXTURE> 1 6.079618e-01
<MEAN> 1
 -3.710103e-03
<VARIANCE> 1
 5.122676e-06
<GCONST> -1.034396e+01
<MIXTURE> 2 3.920382e-01
<MEAN> 0
<VARIANCE> 0
<GCONST> 0.000000e+00
<STREAM> 4
<NUMMIXES> 2
<MIXTURE> 1 6.079618e-01
<MEAN> 1
 3.920557e-04
<VARIANCE> 1
 2.444951e-05
<GCONST> -8.781023e+00
<MIXTURE> 2 3.920382e-01
<MEAN> 0
<VARIANCE> 0
<GCONST> 0.000000e+00
<STREAM> 5
<MEAN> 15
 -6.896410e+00 -1.602058e+00 -2.306973e+00 -1.372053e+00 -1.670528e+00 -4.287649e-01 -2.198810e-02 3.371024e-02 2.356006e-02 -1.947850e-02 1.518638e-01 -8.837342e-02 4.598958e-02 -3.596281e-01 -2.010836e-01
<VARIANCE> 15
 3.507315e+01 2.022684e+00 5.329711e+00 1.349203e+00 2.207664e+00 1.972189e+00 2.522441e-01 1.334141e+00 1.236090e-01 2.149723e-01 5.382732e+00 2.296596e+00 1.139024e+01 2.543012e+00 2.843405e+00
<GCONST> 3.748270e+01
<STATE> 6
<SWEIGHTS> 5
 1.000000e+00 0.000000e+00 0.000000e+00 0.000000e+00 0.000000e+00
<STREAM> 1
<MEAN> 180
 1.947142e+00 2.471787e+00 9.923527e-01 1.088633e+00 2.730966e-01 1.054519e-01 1.477190e-01 1.793998e-02 -6.135532e-02 3.395286e-02 -1.580194e-01 1.068824e-01 -8.422565e-02 2.733758e-02 9.173761e-03 -7.620331e-02 -1.257808e-01 -2.128285e-01 1.266866e-01 -2.011711e-02 -4.374650e-02 5.279067e-02 -2.133692e-02 -6.510145e-02 -2.516670e-02 2.161228e-01 -5.826213e-02 -3.471475e-02 -5.874908e-02 1.265974e-01 7.700617e-03 -1.874044e-02 3.347143e-03 -2.425501e-02 1.029897e-02 -1.382112e-02 5.430900e-02 -6.264631e-02 3.588636e-02 -7.290888e-03 -3.755900e-02 5.010091e-02 -2.339200e-02 4.684793e-03 -2.163678e-02 2.865613e-02 -2.152166e-02 9.492477e-03 -1.889979e-02 -1.870006e-05 3.037575e-02 -3.153744e-02 -5.858266e-03 8.575640e-03 2.847719e-02 -4.059180e-02 2.283593e-02 1.275891e-02 -3.797136e-02 5.177853e-02 4.230579e-02 1.814990e-03 -1.719505e-03 6.961506e-03 -1.870842e-02 1.222426e-02 1.050301e-02 2.398467e-02 -1.734329e-02 3.897672e-06 2.559202e-02 -3.570857e-02 -1.671802e-03 5.338133e-03 -5.834040e-03 1.686186e-02 -6.317776e-03 8.267417e-03 -8.474914e-04 -8.774314e-03 9.404515e-03 5.479134e-03 -3.823581e-03 1.185080e-03 1.186884e-02 7.848255e-04 -1.729232e-03 -1.690907e-04 7.065626e-03 1.799526e-03 -8.760106e-03 1.113337e-03 1.234575e-02 -4.473519e-03 -2.652533e-02 1.369930e-02 1.125978e-03 -7.604635e-03 1.127468e-03 3.730705e-03 3.745970e-03 -1.422629e-02 5.256704e-03 -5.150883e-04 3.455898e-03 -1.984370e-03 -3.608083e-03 4.373454e-03 2.191944e-03 -1.967110e-03 -3.908508e-03 5.764742e-03 -7.144691e-04 -2.944070e-03 2.017444e-03 -5.595481e-04 1.753747e-03 -8.358395e-04 3.706598e-04 -1.151374e-03 5.381867e-02 3.262762e-03 -2.124905e-02 8.829622e-03 -1.787243e-03 5.609516e-03 5.812976e-03 1.410840e-02 -1.743014e-03 1.012406e-03 -7.151393e-03 -1.327331e-02 -1.479711e-02 7.021539e-04 5.741876e-03 -8.148216e-03 -8.624223e-03 6.529997e-03 3.970354e-03 -5.778105e-03 -2.514337e-03 -1.476303e-03 1.098129e-02 1.922355e-02 -1.326838e-02 -1.249827e-02 4.386084e-03 -3.587152e-03 -8.459968e-03 -7.579597e-03 -9.897615e-03 2.133068e-03 1.214827e-02 2.337108e-03 -2.968593e-03 3.198783e-03 -1.787310e-03 4.592402e-03 -1.978676e-03 2.006918e-04 1.034640e-02 -6.949644e-04 -6.006627e-03 3.625739e-03 3.538860e-03 -1.328324e-02 1.222680e-02 -2.193351e-03 -5.106195e-03 5.106638e-03 -3.050114e-03 -2.231100e-03 9.562943e-03 -4.548972e-03 -7.960165e-03 9.476880e-03 -1.019600e-03 -3.350496e-03 9.532108e-04 1.129405e-03
<VARIANCE> 180
 4.827204e-01 6.988567e-01 3.483896e-01 9.524337e-02 4.835144e-02 5.942422e-02 2.176083e-02 2.432521e-02 7.546818e-03 8.605293e-03 4.537961e-02 1.697656e-02 8.106317e-03 8.504139e-03 4.774615e-03 1.131321e-02 8.195078e-03 1.667741e-02 1.824035e-02 9.692778e-03 6.331359e-03 1.168666e-02 4.644287e-03 5.072725e-03 5.229407e-03 5.980798e-03 2.728910e-03 9.217514e-03 8.097748e-03 3.228245e-03 9.533337e-03 3.629669e-03 5.335265e-03 4.400507e-03 3.316193e-03 2.604172e-03 5.032794e-03 6.116359e-03 2.032154e-03 4.549436e-03 2.537733e-03 2.261308e-03 2.057451e-03 1.875748e-03 5.696764e-04 1.863771e-03 1.329845e-03 1.605241e-03 2.159501e-03 1.003520e-03 1.215524e-03 1.582597e-03 9.746050e-04 5.240678e-04 1.399074e-03 1.538882e-03 2.155069e-03 1.708637e-03 8.793203e-04 9.386837e-04 7.907425e-02 1.181103e-02 2.599579e-02 7.228599e-03 6.243145e-03 1.016348e-02 6.988639e-03 9.185108e-03 3.453548e-03 5.248115e-03 4.226341e-03 3.835937e-03 3.098328e-03 2.518092e-03 1.262960e-03 7.542592e-03 3.204701e-03 4.162055e-03 4.526115e-03 3.587918e-03 1.431389e-03 2.341550e-03 1.979243e-03 3.844263e-03 1.967110e-03 2.334516e-03 1.205301e-03 3.277640e-03 1.839192e-03 1.419036e-03 3.164607e-03 8.361580e-04 2.035330e-03 1.740975e-03 2.047580e-03 4.750175e-04 7.023360e-04 7.257545e-04 8.372002e-04 8.377418e-04 1.068251e-03 7.452191e-04 3.851652e-04 8.564088e-04 5.295855e-04 1.024648e-03 8.047968e-04 9.331083e-04 1.197377e-03 5.309355e-04 3.841283e-04 6.061880e-04 4.385626e-04 3.636242e-04 5.797273e-04 8.605773e-04 8.567519e-04 7.577601e-04 6.501746e-04 8.297500e-04 2.684500e-02 1.325794e-02 3.940283e-02 2.948958e-02 1.618384e-02 3.977648e-02 2.272428e-02 1.661196e-02 1.538102e-02 1.758906e-02 1.029299e-02 1.933080e-02 1.106624e-02 1.268111e-02 6.469428e-03 2.573378e-02 8.165868e-03 1.118707e-02 1.964547e-02 1.399428e-02 1.353424e-02 2.225775e-02 1.759248e-02 8.383664e-03 1.378490e-02 7.274069e-03 1.249166e-02 1.439014e-02 1.347985e-02 4.907662e-03 1.385026e-02 4.228889e-03 1.059062e-02 7.296712e-03 5.610275e-03 3.234770e-03 3.186194e-03 3.914993e-03 4.056636e-03 3.106795e-03 6.086081e-03 3.350193e-03 3.580291e-03 4.635772e-03 4.208639e-03 5.292181e-03 5.877308e-03 4.354840e-03 6.116816e-03 5.143358e-03 1.462671e-03 4.357898e-03 2.468819e-03 1.261857e-03 3.325397e-03 3.840975e-03 2.716074e-03 3.165530e-03 3.264992e-03 2.532040e-03
<GCONST> -6.484050e+02
<STREAM> 2
<NUMMIXES> 2
<MIXTURE> 1 7.892759e-01
<MEAN> 1
 5.212265e+00
<VARIANCE> 1
 4.337406e-05
<GCONST> -8.207771e+00
<MIXTURE> 2 2.107239e-01
<MEAN> 0
<VARIANCE> 0
<GCONST> 0.000000e+00
<STREAM> 3
<NUMMIXES> 2
<MIXTURE> 1 7.892759e-01
<MEAN> 1
 5.460721e-04
<VARIANCE> 1
 1.789904e-05
<GCONST> -9.092886e+00
<MIXTURE> 2 2.107239e-01
<MEAN> 0
<VARIANCE> 0
<GCONST> 0.000000e+00
<STREAM> 4
<NUMMIXES> 2
<MIXTURE> 1 7.892759e-01
<MEAN> 1
 -5.123434e-04
<VARIANCE> 1
 6.422812e-05
<GCONST> -7.815192e+00
<MIXTURE> 2 2.107239e-01
<MEAN> 0
<VARIANCE> 0
<GCONST> 0.000000e+00
<STREAM> 5
<MEAN> 15
 -3.077413e+00 -1.825346e+00 -2.348520e+00 -2.038103e+00 -2.083987e+00 4.077102e-01 4.655127e-02 -4.775217e-02 -2.697943e-02 3.781120e-02 -1.144715e-01 9.124668e-03 -4.802422e-02 1.020870e-01 3.260880e-03
<VARIANCE> 15
 6.663640e+00 1.331151e+00 2.113905e+00 1.844507e+00 1.624638e+00 8.826719e-01 2.546302e-01 2.356384e-01 3.301956e-01 3.600587e-01 4.792831e+00 2.244051e+00 2.425041e+00 4.357800e+00 2.145497e+00
<GCONST> 3.202573e+01
<TRANSP> 7
 0.000000e+00 1.000000e+00 0.000000e+00 0.000000e+00 0.000000e+00 0.000000e+00 0.000000e+00
 0.000000e+00 6.249999e-01 3.750001e-01 0.000000e+00 0.000000e+00 0.000000e+00 0.000000e+00
 0.000000e+00 0.000000e+00 6.249999e-01 3.750000e-01 0.000000e+00 0.000000e+00 0.000000e+00
 0.000000e+00 0.000000e+00 0.000000e+00 6.250008e-01 3.749991e-01 0.000000e+00 0.000000e+00
 0.000000e+00 0.000000e+00 0.000000e+00 0.000000e+00 7.059709e-01 2.940291e-01 0.000000e+00
 0.000000e+00 0.000000e+00 0.000000e+00 0.000000e+00 0.000000e+00 8.501080e-01 1.498921e-01
 0.000000e+00 0.000000e+00 0.000000e+00 0.000000e+00 0.000000e+00 0.000000e+00 0.000000e+00
<ENDHMM>
~h "c"
<BEGINHMM>
<NUMSTATES> 7
<STATE> 2
<SWEIGHTS> 5
 1.000000e+00 0.000000e+00 0.000000e+00 0.000000e+00 0.000000e+00
<STREAM> 1
<MEAN> 180
 2.281002e+00 -1.018903e-01 3.156150e-01 1.588843e-01 8.216754e-04 4.959277e-01 -4.233389e-01 5.290931e-01 -2.080584e-01 2.948091e-01 -1.168643e-01 2.565924e-01 9.692762e-03 3.542427e-01 3.345203e-02 1.258039e-01 -9.479324e-02 1.252186e-01 -1.257942e-01 3.406629e-03 1.613060e-02 1.170363e-01 -2.389643e-02 1.076052e-01 4.321248e-02 4.345442e-02 -3.260644e-02 -8.180285e-03 -1.077515e-01 2.594651e-03 -5.286403e-02 -3.265633e-02 -6.306918e-02 7.161878e-03 -3.353350e-02 1.462349e-03 -4.602089e-02 1.969380e-02 -3.968603e-03 -3.304881e-02 -7.229499e-03 -9.048567e-04 1.049701e-02 -7.986227e-03 2.860951e-02 -3.154418e-02 -2.736141e-03 2.415790e-02 -1.656468e-02 -5.889836e-03 7.552178e-03 1.524582e-02 -9.668819e-03 -3.337857e-02 5.563647e-02 -2.524783e-02 -1.334617e-02 2.049674e-02 -1.369173e-02 -7.953935e-04 1.349922e-01 -4.119861e-02 6.738583e-03 5.343392e-03 -1.347973e-02 1.530412e-02 -5.290442e-03 1.449762e-02 -2.222721e-02 1.525023e-02 -9.571750e-03 1.088298e-02 -1.737406e-02 2.605198e-03 -1.657393e-02 1.453748e-02 4.560248e-03 1.786384e-02 4.246564e-03 6.711289e-03 2.850651e-03 -5.887608e-03 -2.830040e-03 7.553387e-03 -7.373815e-03 -3.163982e-04 -4.699786e-03 6.326026e-03 2.336922e-03 2.018528e-03 -8.943379e-04 4.472565e-03 -4.446925e-03 -1.276035e-03 -2.178121e-03 8.619215e-04 -2.789213e-03 -3.866686e-03 5.978004e-04 -2.023885e-03 1.851335e-03 -3.527091e-04 -3.268862e-04 -3.177016e-03 4.211219e-03 -9.022616e-04 -3.571314e-03 4.910548e-03 -7.624174e-04 -3.247402e-03 4.187509e-03 -1.973554e-05 -3.206136e-03 2.464276e-03 -2.012547e-03 -1.436988e-03 4.241514e-03 -2.225779e-03 1.183345e-03 -1.316818e-03 1.511616e-02 4.063627e-02 -5.780582e-03 -6.262830e-03 -2.018960e-03 3.161905e-04 -5.432790e-03 -1.109544e-02 -6.372354e-03 -7.438806e-03 1.915592e-03 -6.902203e-03 -7.938745e-03 -8.339675e-03 3.181282e-03 -2.116564e-03 -4.962336e-04 2.872113e-03 3.367109e-05 -2.468094e-03 5.114737e-03 -5.737046e-03 1.226902e-03 -4.272088e-03 -5.515053e-03 5.535913e-03 6.235555e-03 -8.368698e-03 -4.513526e-03 6.870413e-03 -8.837951e-04 6.615109e-03 1.630561e-03 -2.103162e-03 6.511663e-04 -2.509251e-03 -2.290189e-03 -4.142558e-04 4.809389e-03 5.508354e-03 -3.009473e-03 3.620028e-04 -3.492071e-03 -7.781846e-04 1.909406e-03 1.177248e-03 -3.248484e-03 2.366311e-03 2.629919e-03 -3.925632e-03 9.137559e-04 -1.453713e-03 1.159014e-03 1.849254e-03 -3.653031e-03 2.774964e-03 8.269061e-04 -8.617142e-04 1.551439e-03 -1.906316e-03
<VARIANCE> 180
 1.253956e+00 5.023380e-01 1.105226e-01 5.660155e-02 5.945625e-02 3.797268e-02 4.132159e-02 5.505777e-02 4.768346e-02 3.624965e-02 4.346731e-02 2.025348e-02 5.696439e-02 2.340599e-02 4.045893e-02 2.442222e-02 2.851198e-02 1.188819e-02 1.035874e-02 3.270322e-02 4.866666e-03 1.977143e-02 3.904352e-03 1.658073e-02 1.051720e-02 1.002235e-02 7.562351e-03 1.025180e-02 5.059524e-03 5.594899e-03 7.969802e-03 9.553096e-03 5.710288e-03 5.565918e-03 3.471765e-03 3.874871e-03 4.821390e-03 3.892576e-03 3.887332e-03 3.220874e-03 2.405485e-03 2.256235e-03 1.514291e-03 4.200884e-03 3.493192e-03 2.178302e-03 2.954262e-03 1.973601e-03 1.535925e-03 4.165069e-03 3.099813e-03 1.241119e-03 1.878187e-03 1.351212e-03 1.270604e-03 1.455479e-03 1.555305e-03 1.030343e-03 1.078688e-03 1.030208e-03 3.221097e-02 4.055529e-02 9.836675e-03 9.706621e-03 5.837449e-03 6.470997e-03 5.580193e-03 6.721589e-03 2.648221e-03 6.790017e-03 8.226993e-03 6.557864e-03 3.237224e-03 4.478944e-03 3.592303e-03 5.383654e-03 4.927620e-03 2.219727e-03 2.949124e-03 2.722568e-03 2.162384e-03 2.914624e-03 1.927134e-03 4.389449e-03 3.924062e-03 4.043602e-03 2.299407e-03 3.511234e-03 2.083407e-03 2.589452e-03 2.370471e-03 2.723516e-03 2.551195e-03 1.670879e-03 1.317339e-03 1.417354e-03 1.697253e-03 1.262261e-03 1.166087e-03 1.376142e-03 1.081229e-03 1.288898e-03 9.485935e-04 1.126574e-03 1.030602e-03 7.829502e-04 1.218012e-03 5.365146e-04 5.900295e-04 1.134307e-03 9.314722e-04 5.015557e-04 6.969985e-04 5.496279e-04 5.609760e-04 6.685556e-04 7.461962e-04 4.711128e-04 4.485547e-04 5.346762e-04 1.548385e-02 3.032624e-02 2.205321e-02 2.048575e-02 1.747213e-02 2.908462e-02 1.324396e-02 1.280781e-02 1.024775e-02 1.364376e-02 1.766563e-02 1.089937e-02 1.164589e-02 1.138268e-02 7.466337e-03 1.648674e-02 2.413619e-02 8.166104e-03 7.057030e-03 7.098513e-03 1.284954e-02 9.976672e-03 1.312359e-02 1.727268e-02 1.174828e-02 1.468177e-02 6.699596e-03 1.195020e-02 7.884901e-03 7.262156e-03 5.522217e-03 2.742572e-03 6.666139e-03 5.086137e-03 5.510450e-03 6.737514e-03 4.288077e-03 6.103886e-03 3.501959e-03 5.604958e-03 2.649773e-03 4.015687e-03 2.818972e-03 3.954975e-03 2.752786e-03 2.245442e-03 3.504016e-03 2.818371e-03 1.989939e-03 3.575550e-03 3.286708e-03 1.401609e-03 2.015515e-03 2.479904e-03 1.819498e-03 2.845120e-03 2.685500e-03 1.868846e-03 2.555439e-03 2.292245e-03
<GCONST> -6.279100e+02
<STREAM> 2
<NUMMIXES> 2
<MIXTURE> 1 7.073524e-02
<MEAN> 1
 5.068220e+00
<VARIANCE> 1
 2.182050e-01
<GCONST> 3.155566e-01
<MIXTURE> 2 9.292648e-01
<MEAN> 0
<VARIANCE> 0
<GCONST> 0.000000e+00
<STREAM> 3
<NUMMIXES> 2
<MIXTURE> 1 2.357861e-02
<MEAN> 1
 -3.780842e-03
<VARIANCE> 1
 0.000000e+00
<MIXTURE> 2 9.764214e-01
<MEAN> 0
<VARIANCE> 0
<GCONST> 0.000000e+00
<STREAM> 4
<NUMMIXES> 2
<MIXTURE> 1 2.357861e-02
<MEAN> 1
 4.616642e-02
<VARIANCE> 1
 0.000000e+00
<MIXTURE> 2 9.764214e-01
<MEAN> 0
<VARIANCE> 0
<GCONST> 0.000000e+00
<STREAM> 5
<MEAN> 15
 -2.569822e-01 -1.348216e-01 -2.047249e-01 -1.692205e-01 -1.460525e-01 1.229179e-01 3.784130e-02 4.716389e-03 5.136269e-02 9.633637e-02 -7.280690e-02 -1.760492e-01 -1.623770e-01 -1.017621e-01 -1.402374e-01
<VARIANCE> 15
 9.414148e-01 2.824520e-01 6.023884e-01 4.213055e-01 2.978049e-01 3.889953e-01 1.817057e-01 4.464588e-01 1.831934e-01 1.429982e-01 2.723336e+00 2.183509e+00 3.270131e+00 2.198478e+00 1.089725e+00
<GCONST> 2.040418e+01
<STATE> 3
<SWEIGHTS> 5
 1.000000e+00 0.000000e+00 0.000000e+00 0.000000e+00 0.000000e+00
<STREAM> 1
<MEAN> 180
 3.037837e+00 1.347199e+00 2.616398e-01 4.288263e-01 3.052436e-02 5.106450e-01 -1.874361e-01 4.035914e-01 -2.088249e-01 1.126176e-01 -1.533522e-01 9.755378e-02 -2.866982e-03 2.013139e-01 -2.359900e-02 1.136667e-01 -1.324076e-02 9.837664e-02 -3.918424e-02 3.377630e-02 2.394216e-02 2.175520e-02 -1.822788e-02 7.945580e-02 -5.835547e-02 -2.799566e-02 -8.449574e-02 3.818905e-02 -4.625032e-02 -2.808153e-03 -1.807400e-02 1.437407e-02 -3.294361e-02 -1.192554e-02 -2.236253e-02 -5.258561e-03 -1.981358e-02 1.940068e-02 1.933795e-02 -1.400391e-02 -2.984676e-03 8.600838e-03 -1.147111e-02 -3.594820e-03 -6.437520e-03 1.864839e-03 4.166187e-03 4.647011e-03 -1.175573e-02 4.935575e-03 9.860176e-03 -9.485596e-03 7.312937e-03 -1.265104e-02 -9.255217e-04 1.344485e-02 -9.304481e-03 2.178697e-03 5.185778e-04 -8.887948e-03 -1.143803e-02 2.279583e-01 1.421255e-03 5.170450e-02 -1.478968e-02 -5.638205e-03 3.427632e-02 -3.253317e-02 3.271511e-02 -4.515003e-02 2.591939e-02 -1.765694e-02 1.724701e-03 -1.377309e-02 1.421760e-02 -2.482344e-03 1.382234e-02 -1.517823e-02 2.592967e-02 -1.023343e-02 -5.878594e-03 -7.510302e-04 1.572006e-03 -2.498759e-02 -1.035654e-03 -1.776737e-03 -3.081086e-03 -8.864531e-03 -2.103987e-04 4.381587e-03 -3.335746e-03 6.297910e-03 2.282773e-02 -9.728546e-03 1.890533e-03 3.484028e-03 -2.525858e-03 1.788025e-04 2.243594e-03 -3.809094e-03 -2.089785e-03 5.509250e-03 -1.385979e-03 6.330613e-04 -7.151164e-04 2.896609e-03 -5.690522e-05 -4.030262e-03 1.398403e-04 4.036284e-03 -5.440405e-03 1.819043e-03 4.268343e-03 -4.304661e-03 -7.564359e-04 5.058553e-03 -4.763610e-03 2.419789e-03 -1.488285e-03 1.159313e-03 -1.093745e-01 -4.524537e-02 -1.652432e-02 4.998772e-02 3.971115e-02 -1.135782e-02 1.491660e-03 -1.457054e-02 2.683227e-02 4.943024e-04 1.642451e-02 1.042741e-02 6.219973e-03 5.525899e-03 4.725793e-03 -1.704887e-03 -1.182411e-02 -2.165143e-02 7.525928e-04 -1.028100e-02 -8.754000e-03 1.223768e-02 -7.424032e-03 -1.301276e-02 6.982846e-03 -1.628329e-02 5.397629e-03 9.325351e-03 5.292016e-03 8.438407e-03 6.803242e-03 -4.182292e-03 -3.912105e-04 3.543690e-04 3.269442e-04 7.938746e-03 1.456947e-03 -1.084396e-02 -1.833070e-03 -3.117356e-04 -4.104093e-03 2.454435e-03 4.221833e-03 -2.668967e-03 9.099520e-04 -2.765313e-03 4.762875e-03 -5.423493e-03 4.745042e-03 1.626184e-04 -4.914675e-03 3.719153e-03 -7.253801e-05 -7.972446e-04 2.351132e-03 -2.975350e-03 -1.475311e-03 3.815087e-03 -1.196323e-03 4.309629e-04
<VARIANCE> 180
 9.331117e-01 7.991182e-01 1.688545e-01 1.071625e-01 4.878136e-02 5.905963e-02 1.166291e-01 1.884826e-02 2.349561e-02 2.970511e-02 2.735251e-02 1.230215e-02 3.501414e-02 1.784142e-02 2.836500e-02 6.239785e-03 1.792197e-02 2.130274e-02 2.286353e-02 1.084329e-02 1.011180e-02 1.052532e-02 3.260072e-03 9.396638e-03 1.372990e-02 1.011463e-02 9.000184e-03 3.806882e-03 5.019165e-03 3.057983e-03 2.248207e-03 4.440699e-03 5.279804e-03 4.990492e-03 2.204950e-03 2.583375e-03 9.440226e-04 8.189701e-04 2.341462e-03 3.295376e-03 1.626677e-03 2.512784e-03 2.202719e-03 8.486769e-04 2.598348e-03 2.141353e-03 3.346436e-03 1.893649e-03 1.802924e-03 1.602077e-03 2.935034e-03 1.351003e-03 1.241779e-03 7.007899e-04 1.228666e-03 1.310000e-03 1.250539e-03 1.796661e-03 1.080818e-03 1.395798e-03 8.151039e-02 7.424723e-02 4.534537e-02 1.559240e-02 1.421582e-02 7.600079e-03 1.338487e-02 6.692967e-03 1.093334e-02 5.654064e-03 2.745281e-03 4.005811e-03 6.081026e-03 2.386289e-03 2.951459e-03 4.605993e-03 4.847596e-03 3.567172e-03 4.650336e-03 2.336656e-03 2.118695e-03 2.228292e-03 2.030475e-03 2.150479e-03 1.531210e-03 2.084042e-03 2.760862e-03 7.366288e-04 1.464651e-03 1.357893e-03 9.022296e-04 2.324171e-03 1.956363e-03 1.884537e-03 6.200217e-04 1.129087e-03 4.880502e-04 7.420958e-04 9.922830e-04 1.204200e-03 5.350420e-04 1.013863e-03 5.388436e-04 4.901096e-04 7.520225e-04 7.923634e-04 6.337743e-04 1.268348e-03 9.027465e-04 9.250873e-04 1.705042e-03 6.694491e-04 6.155768e-04 5.158833e-04 5.847611e-04 4.985795e-04 4.342261e-04 7.064537e-04 5.398382e-04 3.108313e-04 1.642450e-01 8.919212e-02 1.255416e-01 6.847183e-02 8.077777e-02 2.559771e-02 6.525853e-02 2.156918e-02 4.972348e-02 2.484355e-02 1.948487e-02 1.463086e-02 1.748591e-02 1.283162e-02 1.773478e-02 1.384681e-02 1.359932e-02 1.374666e-02 1.558643e-02 8.119922e-03 1.215895e-02 1.085806e-02 1.138126e-02 8.993429e-03 1.004037e-02 7.852918e-03 5.118944e-03 2.815438e-03 5.456589e-03 5.879463e-03 4.276464e-03 6.839151e-03 6.000557e-03 9.257300e-03 6.477986e-03 7.921184e-03 1.805521e-03 4.001462e-03 4.938901e-03 8.116482e-03 3.270629e-03 5.340682e-03 3.212720e-03 2.496658e-03 3.076952e-03 2.469699e-03 1.570084e-03 4.307251e-03 4.271109e-03 4.706943e-03 4.518282e-03 2.568799e-03 1.821022e-03 1.417625e-03 1.805640e-03 2.173332e-03 2.625769e-03 3.995403e-03 4.235453e-03 2.553225e-03
<GCONST> -6.346324e+02
<STREAM> 2
<NUMMIXES> 2
<MIXTURE> 1 4.298892e-01
<MEAN> 1
 5.328969e+00
<VARIANCE> 1
 1.014058e-01
<GCONST> -4.507482e-01
<MIXTURE> 2 5.701107e-01
<MEAN> 0
<VARIANCE> 0
<GCONST> 0.000000e+00
<STREAM> 3
<NUMMIXES> 2
<MIXTURE> 1 3.908088e-01
<MEAN> 1
 9.277964e-03
<VARIANCE> 1
 1.830239e-03
<GCONST> -4.465431e+00
<MIXTURE> 2 6.091912e-01
<MEAN> 0
<VARIANCE> 0
<GCONST> 0.000000e+00
<STREAM> 4
<NUMMIXES> 2
<MIXTURE> 1 3.908088e-01
<MEAN> 1
 -2.743645e-02
<VARIANCE> 1
 7.611698e-03
<GCONST> -3.040192e+00
<MIXTURE> 2 6.091912e-01
<MEAN> 0
<VARIANCE> 0
<GCONST> 0.000000e+00
<STREAM> 5
<MEAN> 15
 -1.132506e+00 -1.104557e+00 -1.534125e+00 -1.372162e+00 -9.718168e-01 -2.281289e-02 -8.045649e-02 -7.887831e-02 -8.263583e-02 -4.857545e-02 -1.674576e-01 -3.741399e-02 1.609280e-01 1.205028e-01 -5.981436e-02
<VARIANCE> 15
 2.869625e+00 2.899060e+00 5.411796e+00 3.934504e+00 1.843568e+00 2.110078e-01 7.822135e-01 1.201612e+00 8.408357e-01 2.564475e-01 3.067812e+00 3.549359e+00 4.187457e+00 6.038041e+00 2.400269e+00
<GCONST> 3.669826e+01
<STATE> 4
<SWEIGHTS> 5
 1.000000e+00 0.000000e+00 0.000000e+00 0.000000e+00 0.000000e+00
<STREAM> 1
<MEAN> 180
 3.740793e+00 2.381317e+00 9.559654e-02 5.874484e-01 -1.515593e-01 2.556407e-01 -1.709158e-01 6.142569e-02 1.855087e-02 1.189540e-01 -4.976491e-02 7.010652e-02 -1.039313e-01 1.978648e-01 -8.663335e-02 9.797648e-02 -4.083348e-02 4.604441e-02 3.645037e-02 -9.285701e-03 -4.040448e-02 7.238065e-02 -3.030550e-02 -4.768269e-03 -4.869340e-02 6.615934e-03 -9.278171e-02 7.292842e-02 -7.952967e-02 6.446902e-02 -3.629066e-02 4.133544e-02 1.198383e-02 -1.843507e-02 -2.233252e-02 1.829406e-02 -1.401506e-02 -4.554002e-03 1.846313e-02 -4.277905e-02 4.769843e-03 1.520810e-02 4.359927e-03 -7.355870e-03 -4.273390e-04 -1.769178e-03 7.735831e-03 -1.392507e-02 5.074711e-03 3.603673e-03 -1.491753e-03 -9.972875e-03 2.352149e-02 -1.966515e-02 -4.151592e-04 1.166678e-02 -6.010713e-03 -6.238120e-03 1.084907e-02 -9.887929e-03 1.722009e-01 3.360740e-01 -3.365764e-02 4.783464e-03 -3.085770e-02 -4.535292e-02 5.628667e-02 -1.094006e-01 4.237950e-02 2.707906e-02 2.744538e-02 -1.433845e-02 -4.169000e-02 8.047011e-03 -1.005246e-02 -2.959603e-02 2.570706e-04 3.284962e-03 -7.580006e-03 -2.727946e-02 1.480775e-02 2.631232e-02 1.751513e-02 -2.922006e-02 -1.537223e-02 2.833375e-02 7.746240e-03 -2.743412e-03 -1.221563e-02 1.065934e-02 7.475309e-03 -3.392331e-04 -1.847600e-02 1.199577e-02 -2.938524e-04 -2.115475e-03 1.566416e-02 -1.629476e-02 9.417343e-03 -5.777164e-03 -4.759767e-03 8.640864e-03 -6.408615e-04 3.805619e-03 -3.755856e-03 -4.847393e-03 5.432394e-03 -2.223813e-03 2.396897e-03 1.402821e-03 3.575200e-05 -7.464543e-03 3.114821e-03 8.962184e-03 -5.372167e-03 -9.885268e-03 1.829415e-02 -1.398260e-02 1.556225e-03 1.140184e-02 1.422378e-01 -3.566384e-02 7.893902e-03 -5.599029e-02 -7.592960e-02 -3.721900e-03 1.477618e-02 2.477097e-02 -1.127451e-02 1.556261e-03 -3.996830e-02 -1.117796e-02 -1.553118e-03 1.883687e-02 -1.837967e-02 -7.463681e-03 2.564090e-02 2.141280e-02 -2.273386e-02 1.917523e-02 2.719672e-02 -5.626859e-03 2.663619e-02 1.511458e-02 -2.330504e-02 3.908252e-02 -1.218228e-02 -3.248727e-02 5.987868e-03 -6.576841e-03 -4.569792e-03 -5.500605e-03 -2.266033e-02 1.015859e-02 1.095737e-02 -7.074546e-03 -1.004220e-02 7.798044e-03 1.267311e-02 5.941125e-03 -2.765054e-03 -2.599625e-03 -1.460780e-02 1.341392e-02 -6.459307e-03 4.184092e-03 -9.270307e-03 1.032110e-02 -6.731728e-03 -2.535317e-03 1.560406e-02 -1.234032e-02 -6.632448e-03 1.475672e-02 -4.779903e-03 -2.792534e-03 -1.681207e-03 5.757752e-03 -1.530229e-03 -5.977521e-03
<VARIANCE> 180
 1.925252e+00 6.373249e-01 2.278113e-01 8.652006e-02 8.279166e-02 6.831215e-02 5.685499e-02 4.782587e-02 2.225652e-02 5.033797e-02 9.727328e-03 1.043034e-02 1.087976e-02 2.484299e-02 2.246287e-02 1.009628e-02 1.234453e-02 1.271855e-02 2.120916e-02 4.304264e-03 6.806651e-03 8.281033e-03 6.203881e-03 4.145273e-03 1.495055e-02 9.227131e-03 5.447527e-03 4.757593e-03 3.211075e-03 2.466137e-03 5.345097e-03 1.942137e-03 2.618182e-03 1.724824e-03 7.771189e-04 6.936351e-04 2.055983e-03 2.670195e-03 2.914292e-03 4.295362e-03 1.674004e-03 4.177531e-03 1.509695e-03 1.376345e-03 2.302764e-03 2.032118e-03 1.211157e-03 1.040506e-03 1.779541e-03 2.465511e-03 2.842046e-03 1.851290e-03 7.806482e-04 8.109547e-04 9.557681e-04 1.230018e-03 1.443774e-03 8.416490e-04 4.500849e-04 9.133110e-04 1.324416e-01 9.518134e-02 2.806543e-02 1.721454e-02 2.247238e-02 6.680710e-03 1.304205e-02 1.515455e-02 6.151988e-03 1.338980e-02 4.731873e-03 5.203008e-03 1.741901e-03 1.119905e-02 4.964774e-03 3.648552e-03 2.421042e-03 5.809756e-03 4.709656e-03 1.460023e-03 1.710395e-03 5.695217e-03 2.990719e-03 2.248336e-03 2.658986e-03 2.125174e-03 2.547485e-03 1.823763e-03 1.397470e-03 2.325699e-04 1.856131e-03 6.496276e-04 2.029218e-03 6.221723e-04 7.760961e-04 9.663393e-04 5.801577e-04 1.019086e-03 8.811103e-04 1.360561e-03 5.174905e-04 7.893873e-04 9.387562e-04 3.958255e-04 1.386930e-03 1.359601e-03 7.730219e-04 4.252909e-04 9.442803e-04 2.741321e-04 4.406441e-04 4.919406e-04 3.854416e-04 2.931790e-04 5.056867e-04 5.819906e-04 7.720243e-04 4.698959e-04 2.723068e-04 5.340650e-04 2.899784e-01 2.075184e-01 9.181042e-02 1.118625e-01 5.706166e-02 1.940617e-02 5.026342e-02 7.198583e-02 6.564099e-02 9.515963e-02 4.637414e-02 7.491710e-02 2.740045e-02 4.803541e-02 2.260360e-02 1.511586e-02 1.791599e-02 1.997583e-02 2.931321e-02 1.819999e-02 8.436034e-03 3.118205e-02 1.650578e-02 1.097907e-02 1.449315e-02 1.460399e-02 1.604837e-02 8.001148e-03 3.194052e-03 6.082288e-04 2.457540e-03 3.862413e-03 6.401982e-03 2.061536e-03 2.539273e-03 2.396876e-03 7.584647e-03 4.092254e-03 4.774567e-03 8.560905e-03 2.359352e-03 7.646705e-03 4.732593e-03 2.211334e-03 4.462503e-03 8.556274e-03 4.359083e-03 2.757289e-03 8.398559e-03 7.268553e-03 8.448207e-03 3.582427e-03 3.428821e-03 3.938398e-03 4.457129e-03 2.905773e-03 4.600370e-03 4.660893e-03 2.320817e-03 2.026904e-03
<GCONST> -6.281841e+02
<STREAM> 2
<NUMMIXES> 2
<MIXTURE> 1 7.692316e-01
<MEAN> 1
 5.597406e+00
<VARIANCE> 1
 4.384986e-02
<GCONST> -1.289107e+00
<MIXTURE> 2 2.307685e-01
<MEAN> 0
<VARIANCE> 0
<GCONST> 0.000000e+00
<STREAM> 3
<NUMMIXES> 2
<MIXTURE> 1 6.923093e-01
<MEAN> 1
 -8.545239e-03
<VARIANCE> 1
 2.188004e-03
<GCONST> -4.286888e+00
<MIXTURE> 2 3.076908e-01
<MEAN> 0
<VARIANCE> 0
<GCONST> 0.000000e+00
<STREAM> 4
<NUMMIXES> 2
<MIXTURE> 1 6.923093e-01
<MEAN> 1
 4.958773e-03
<VARIANCE> 1
 7.819690e-03
<GCONST> -3.013233e+00
<MIXTURE> 2 3.076908e-01
<MEAN> 0
<VARIANCE> 0
<GCONST> 0.000000e+00
<STREAM> 5
<MEAN> 15
 -4.562438e+00 -2.084667e+00 -2.415258e+00 -1.613025e+00 -2.332727e+00 -2.164767e+00 -6.949869e-01 -5.461683e-01 -5.197775e-01 -4.580621e-01 -5.339744e-01 -2.561654e-01 1.173887e-01 -7.022718e-01 2.876367e-01
<VARIANCE> 15
 2.779610e+01 3.185109e+00 4.349286e+00 1.804101e+00 2.978533e+00 3.406172e+00 7.421989e-01 1.047835e+00 6.842580e-01 1.048638e+00 8.023250e+00 7.323437e+00 1.771836e+01 7.212986e+00 1.053523e+01
<GCONST> 4.712393e+01
<STATE> 5
<SWEIGHTS> 5
 1.000000e+00 0.000000e+00 0.000000e+00 0.000000e+00 0.000000e+00
<STREAM> 1
<MEAN> 180
 4.390781e+00 3.058554e+00 -2.311213e-01 3.601190e-01 -3.392588e-01 1.824943e-01 1.137699e-01 -4.771409e-02 -4.674016e-02 9.454557e-02 -5.554046e-02 6.726921e-02 -2.690146e-01 1.565927e-01 -4.319979e-02 -1.886047e-02 3.782238e-03 3.253556e-02 -7.539254e-02 4.044839e-02 -1.298991e-02 5.073825e-02 3.937209e-02 6.302913e-02 -9.678232e-02 9.253765e-02 -5.194114e-02 -4.176565e-02 -1.078601e-02 7.158785e-02 -4.167188e-02 4.209500e-02 -5.067628e-02 2.383965e-02 -2.882419e-02 4.581568e-02 -2.165085e-02 -4.435898e-02 5.715887e-02 -1.363439e-02 -3.682759e-02 4.197051e-02 -2.769393e-02 2.026361e-02 -1.323232e-02 -8.318562e-03 8.896395e-03 -1.007065e-03 1.580757e-03 -1.067622e-02 1.660663e-02 -5.118487e-03 -1.066335e-02 1.034110e-02 6.300465e-03 -2.119920e-02 1.977634e-02 -6.027708e-03 -7.410316e-03 1.454325e-02 2.972841e-02 7.812433e-02 3.193294e-02 8.195492e-03 2.247561e-02 -1.181190e-03 2.499131e-02 1.391924e-03 -2.913274e-02 -2.566529e-02 -1.066458e-02 -1.101615e-02 -3.296117e-02 -4.131375e-03 1.010817e-02 -1.241370e-02 6.303353e-03 1.320464e-02 -1.780144e-02 2.260192e-02 2.780233e-03 -3.621315e-02 1.521241e-02 1.080726e-02 -1.093099e-02 1.189066e-02 6.184492e-03 -5.144439e-03 7.020877e-03 1.112014e-02 -1.580191e-02 -8.035602e-03 4.855815e-03 2.602880e-03 -9.546401e-05 2.471918e-03 -2.520388e-03 -2.537959e-03 6.962038e-04 7.980282e-03 7.974475e-03 -1.105662e-02 -1.925246e-03 -3.181990e-03 1.114810e-02 -5.801534e-03 -6.090427e-03 1.624564e-02 -1.088428e-02 -4.038312e-03 1.086690e-02 -3.526417e-03 -5.872227e-03 5.624054e-03 -1.202090e-03 6.637040e-04 -3.138343e-03 2.071955e-03 1.721525e-03 -3.484365e-03 6.465767e-02 7.375385e-03 -1.434496e-02 -1.580522e-02 -2.057005e-02 -4.182179e-03 -1.208200e-02 -9.192859e-03 -2.531798e-02 6.833424e-03 2.830220e-02 2.822351e-02 -1.079451e-02 1.365562e-02 1.308681e-02 2.344931e-02 -1.203822e-03 -3.365803e-03 -3.160666e-03 3.730958e-03 -7.314248e-03 -1.636967e-02 -9.523456e-03 7.561877e-03 -1.322506e-04 -1.909942e-02 -1.595516e-02 1.938142e-02 -1.046182e-03 1.813240e-03 -1.089453e-03 -2.917176e-03 1.063921e-02 6.672588e-04 -1.140548e-02 -2.427624e-03 2.165728e-02 -6.981568e-04 -1.227253e-02 -5.316725e-03 6.918314e-03 -6.174188e-03 1.253288e-02 -8.266512e-03 6.128582e-03 -2.572152e-03 1.725173e-03 3.205337e-03 -9.200721e-03 7.835631e-03 -6.263881e-03 9.928383e-04 1.202334e-02 -1.909379e-02 8.499238e-03 6.761617e-03 -1.033911e-02 5.871623e-03 -1.258514e-03 -1.733284e-03
<VARIANCE> 180
 2.477612e+00 4.266139e-01 3.570720e-01 6.879506e-02 2.380192e-01 4.495890e-02 3.116522e-02 5.090819e-02 3.254382e-02 5.259128e-02 1.902746e-02 8.968266e-03 1.527185e-02 2.185453e-02 5.838697e-03 8.927804e-03 4.289613e-03 1.719107e-02 1.141180e-02 8.539523e-03 5.971211e-03 8.564455e-03 1.096459e-02 1.681075e-02 7.709743e-03 3.112999e-03 6.791510e-03 8.493288e-03 3.831612e-03 7.743195e-03 5.963514e-03 2.655463e-03 5.876812e-03 3.669451e-03 5.406631e-03 2.057399e-03 3.078625e-03 3.754809e-03 2.827138e-03 3.219649e-03 2.710166e-03 2.045443e-03 2.428035e-03 2.354227e-03 3.624068e-03 9.333049e-04 1.937510e-03 1.960626e-03 1.900697e-03 1.287589e-03 3.025808e-03 1.872763e-03 2.848956e-03 7.956810e-04 2.086840e-03 1.358371e-03 6.214458e-04 1.551502e-03 1.234541e-03 7.430817e-04 2.064887e-01 7.663146e-02 3.448007e-02 1.908928e-02 4.280578e-02 1.239989e-02 1.710062e-02 1.877501e-02 8.492727e-03 5.632756e-03 5.258979e-03 3.014616e-03 2.932277e-03 5.003561e-03 2.973797e-03 1.610494e-03 2.783574e-03 4.843232e-03 2.454140e-03 1.831718e-03 1.530561e-03 3.705538e-03 3.229985e-03 5.493072e-03 4.948627e-03 1.589057e-03 3.204454e-03 3.271127e-03 1.270724e-03 5.287444e-03 2.770597e-03 1.597213e-03 2.923694e-03 7.832391e-04 1.495594e-03 1.286457e-03 1.095643e-03 1.789678e-03 1.116366e-03 1.015081e-03 1.216286e-03 2.191673e-03 9.838267e-04 9.672100e-04 1.902630e-03 6.733108e-04 1.072907e-03 5.879322e-04 6.223671e-04 5.290285e-04 1.650566e-03 5.862088e-04 1.147135e-03 4.708489e-04 7.456440e-04 6.071314e-04 3.734566e-04 7.244231e-04 5.610017e-04 3.172664e-04 1.920522e-01 2.124049e-01 5.783985e-02 7.453704e-02 5.818687e-02 5.811737e-02 7.869998e-02 5.991713e-02 2.986890e-02 5.388492e-02 3.934689e-02 1.755756e-02 2.629572e-02 1.899718e-02 1.219398e-02 1.200411e-02 8.385682e-03 3.420015e-02 2.964285e-02 5.442577e-03 1.096344e-02 4.161395e-02 3.427948e-02 7.500997e-02 4.601597e-02 5.567291e-03 3.566800e-02 3.265420e-02 7.532352e-03 4.346866e-02 1.940477e-02 8.970062e-03 3.302255e-02 1.998208e-03 2.269661e-02 7.671268e-03 1.133893e-02 1.095161e-02 8.109299e-03 1.834750e-02 1.579158e-02 3.689705e-03 1.169763e-02 4.154144e-03 1.110070e-02 6.189744e-03 7.895427e-03 2.515788e-03 8.121665e-03 5.564916e-03 1.820343e-02 4.424554e-03 1.148931e-02 4.222614e-03 6.777309e-03 4.327932e-03 4.766932e-03 1.001471e-02 4.855605e-03 4.289312e-03
<GCONST> -5.789825e+02
<STREAM> 2
<NUMMIXES> 2
<MIXTURE> 1 8.333311e-01
<MEAN> 1
 5.567093e+00
<VARIANCE> 1
 2.671544e-02
<GCONST> -1.784636e+00
<MIXTURE> 2 1.666689e-01
<MEAN> 0
<VARIANCE> 0
<GCONST> 0.000000e+00
<STREAM> 3
<NUMMIXES> 2
<MIXTURE> 1 7.222220e-01
<MEAN> 1
 -6.077751e-03
<VARIANCE> 1
 1.210190e-03
<GCONST> -4.879101e+00
<MIXTURE> 2 2.777780e-01
<MEAN> 0
<VARIANCE> 0
<GCONST> 0.000000e+00
<STREAM> 4
<NUMMIXES> 2
<MIXTURE> 1 6.666663e-01
<MEAN> 1
 2.595976e-03
<VARIANCE> 1
 5.374196e-04
<GCONST> -5.690854e+00
<MIXTURE> 2 3.333337e-01
<MEAN> 0
<VARIANCE> 0
<GCONST> 0.000000e+00
<STREAM> 5
<MEAN> 15
 -9.887559e+00 -5.658077e+00 -3.087579e+00 -3.644867e+00 -1.688784e+00 6.948079e-01 9.319028e-02 -1.884757e-02 -1.388233e-01 -1.094462e-01 4.531453e-01 2.157938e-01 -1.371364e-01 3.044660e-01 -3.193540e-01
<VARIANCE> 15
 7.586401e+01 2.228826e+01 6.040432e+00 7.563747e+00 1.446103e+00 1.185701e+01 5.712993e+00 3.596155e+00 2.307260e+00 3.740206e-01 6.457971e+01 2.615504e+01 2.128712e+01 2.483197e+01 9.994101e+00
<GCONST> 6.054419e+01
<STATE> 6
<SWEIGHTS> 5
 1.000000e+00 0.000000e+00 0.000000e+00 0.000000e+00 0.000000e+00
<STREAM> 1
<MEAN> 180
 4.451598e+00 3.081275e+00 -8.482400e-02 5.993577e-01 -4.691139e-01 2.186871e-01 1.399629e-01 -1.179806e-01 -3.045086e-03 1.458104e-01 -4.018345e-02 -1.310777e-02 -3.309998e-01 2.359338e-01 -7.796592e-02 4.585133e-02 4.287002e-02 3.940711e-03 -1.095754e-02 -9.129751e-03 1.681770e-02 -6.139870e-02 4.901832e-02 2.899644e-02 -1.095195e-01 1.060173e-01 -7.110193e-02 4.731897e-02 -5.576417e-02 7.325274e-02 -7.203462e-02 5.154234e-02 -3.551844e-02 2.907211e-02 -2.625324e-02 1.451438e-02 1.324299e-02 -4.562768e-02 6.014879e-02 -5.081162e-02 2.923224e-02 -1.061811e-02 -4.248999e-03 4.747729e-03 3.485085e-03 -9.442367e-03 1.721781e-03 1.685882e-02 -2.739272e-02 2.080157e-02 -7.110302e-03 2.220720e-03 -3.463286e-03 -3.451596e-03 1.637348e-02 -3.002421e-02 2.914366e-02 -1.480857e-02 -3.777657e-03 1.974474e-02 2.640334e-02 2.310606e-02 -2.288388e-02 -1.700972e-02 2.374517e-03 6.622952e-05 1.486107e-02 -8.154781e-03 -5.067780e-03 -2.019457e-03 8.090293e-03 1.425530e-02 -1.274965e-02 2.471928e-03 -1.676945e-03 6.021111e-03 1.047614e-04 -1.484641e-02 -2.856334e-03 -1.490863e-03 -1.645767e-04 9.247035e-04 2.559931e-03 9.630242e-03 -3.304515e-03 -1.434164e-03 1.511658e-03 -1.076042e-03 -1.827531e-03 -8.808264e-04 -5.349539e-04 1.944426e-03 -3.287880e-03 3.630888e-03 -2.947584e-03 1.483771e-03 4.600166e-03 -6.252803e-03 1.702823e-03 1.240644e-03 -2.105910e-05 -3.059454e-03 4.185834e-03 -3.155413e-04 -2.544039e-03 1.810856e-03 8.205528e-04 -1.719804e-03 1.658487e-04 1.015849e-03 -1.887814e-03 2.410756e-03 -2.196686e-03 1.360716e-03 -1.844185e-04 -7.615228e-04 1.775103e-05 1.372713e-03 -1.482999e-03 8.524043e-04 -9.436686e-02 -1.214302e-02 2.975831e-02 2.381820e-03 2.130615e-02 2.599254e-03 -5.276456e-04 1.226269e-02 8.293348e-03 -9.694836e-03 -4.396417e-03 -6.534736e-03 1.539686e-02 -1.884545e-02 5.795584e-04 -2.768266e-03 -6.284940e-03 -4.712973e-03 7.272475e-03 -4.875679e-03 -5.124036e-03 4.128380e-03 -1.814678e-04 7.976966e-03 8.504434e-03 -2.123906e-03 5.947624e-03 1.148659e-03 1.176321e-03 -4.512429e-03 2.490563e-03 4.721591e-03 3.416957e-04 -2.950015e-03 -2.783532e-03 1.907523e-03 -5.212943e-03 -1.537823e-03 3.356183e-03 -6.682179e-04 -3.795088e-03 6.048682e-03 -4.783736e-03 2.219768e-03 -4.539435e-03 4.602449e-03 -7.818431e-04 -5.262726e-03 6.701218e-03 -1.324407e-03 -3.073238e-03 4.359606e-03 -4.094986e-03 1.150857e-03 1.275719e-03 -2.902469e-03 2.838704e-03 -1.139813e-03 -1.480521e-05 3.730780e-04
<VARIANCE> 180
 8.339218e-01 1.168733e-01 2.557231e-01 5.540698e-02 1.647105e-01 2.861923e-02 1.151853e-02 1.639540e-02 2.028876e-02 5.975756e-02 1.356190e-02 1.093182e-02 1.737446e-02 1.692375e-02 7.768568e-03 9.303124e-03 1.643791e-02 9.330875e-03 1.027233e-02 6.154365e-03 6.228060e-03 1.403475e-02 3.517949e-03 4.621779e-03 3.333552e-03 3.622657e-03 4.538363e-03 3.332401e-03 4.328939e-03 3.613969e-03 2.062275e-03 2.870847e-03 2.584421e-03 2.577192e-03 2.126610e-03 4.373907e-03 5.434535e-03 4.391789e-03 1.941682e-03 1.365607e-03 2.151117e-03 2.314736e-03 1.162360e-03 1.023800e-03 1.507657e-03 1.552343e-03 1.547476e-03 1.829762e-03 1.644365e-03 1.007697e-03 1.284682e-03 1.525885e-03 1.558754e-03 1.491300e-03 1.029557e-03 7.337675e-04 1.179625e-03 1.613399e-03 1.290048e-03 8.157409e-04 5.269349e-02 7.249763e-03 1.682992e-02 2.802485e-03 6.257019e-03 2.730062e-03 3.940507e-03 3.628610e-03 2.857958e-03 5.172254e-03 2.565769e-03 1.714147e-03 2.037553e-03 2.735567e-03 1.496577e-03 1.539542e-03 4.136968e-03 1.680278e-03 2.132117e-03 1.685731e-03 1.718921e-03 2.284483e-03 1.350455e-03 1.625905e-03 1.307114e-03 1.114841e-03 1.187083e-03 6.862290e-04 1.123149e-03 1.277707e-03 6.139451e-04 7.289106e-04 3.606387e-04 7.219248e-04 6.855179e-04 5.672704e-04 8.131979e-04 7.356066e-04 5.989737e-04 4.691157e-04 4.985900e-04 3.513432e-04 4.327460e-04 4.112509e-04 3.503848e-04 4.516025e-04 4.734897e-04 4.925639e-04 4.045691e-04 2.935244e-04 4.067481e-04 4.038410e-04 3.404445e-04 3.662488e-04 3.350796e-04 2.143452e-04 3.429668e-04 4.875537e-04 3.268489e-04 2.103079e-04 3.861075e-02 2.392244e-02 1.792402e-02 1.793845e-02 1.514851e-02 1.726548e-02 1.347709e-02 1.550045e-02 9.121618e-03 1.169300e-02 9.978630e-03 7.260982e-03 8.030380e-03 9.602260e-03 8.306898e-03 8.996734e-03 1.057581e-02 7.755994e-03 1.118695e-02 9.698376e-03 5.486590e-03 8.073484e-03 6.620540e-03 6.901910e-03 5.823621e-03 5.363463e-03 6.809537e-03 7.485840e-03 6.493887e-03 1.188482e-02 5.542571e-03 5.653398e-03 4.151993e-03 2.532172e-03 2.712756e-03 2.637978e-03 2.515742e-03 3.005202e-03 3.422471e-03 2.692045e-03 3.420024e-03 3.445389e-03 1.955913e-03 1.588781e-03 2.585280e-03 3.182529e-03 3.108779e-03 3.077718e-03 2.895114e-03 1.685030e-03 2.152252e-03 2.940423e-03 2.572626e-03 2.853512e-03 2.444854e-03 1.456811e-03 1.601111e-03 2.434521e-03 2.081882e-03 1.177078e-03
<GCONST> -7.135748e+02
<STREAM> 2
<NUMMIXES> 2
<MIXTURE> 1 9.439706e-01
<MEAN> 1
 5.395550e+00
<VARIANCE> 1
 2.504708e-02
<GCONST> -1.849121e+00
<MIXTURE> 2 5.602958e-02
<MEAN> 0
<VARIANCE> 0
<GCONST> 0.000000e+00
<STREAM> 3
<NUMMIXES> 2
<MIXTURE> 1 9.439706e-01
<MEAN> 1
 -3.582516e-03
<VARIANCE> 1
 3.354425e-04
<GCONST> -6.162183e+00
<MIXTURE> 2 5.602958e-02
<MEAN> 0
<VARIANCE> 0
<GCONST> 0.000000e+00
<STREAM> 4
<NUMMIXES> 2
<MIXTURE> 1 9.439706e-01
<MEAN> 1
 -8.826237e-03
<VARIANCE> 1
 2.333131e-03
<GCONST> -4.222668e+00
<MIXTURE> 2 5.602958e-02
<MEAN> 0
<VARIANCE> 0
<GCONST> 0.000000e+00
<STREAM> 5
<MEAN> 15
 -1.191966e+01 -5.407537e+00 -3.340174e+00 -3.047667e+00 -2.508392e+00 -2.924607e-01 -2.360242e-01 8.791796e-02 1.648719e-02 -6.905019e-03 2.251648e-01 1.544957e-01 2.875226e-01 1.843628e-01 1.764911e-01
<VARIANCE> 15
 3.652009e+01 7.488210e+00 2.775918e+00 2.103245e+00 1.509453e+00 3.476119e+00 1.662426e+00 5.034929e-01 7.026919e-01 5.980299e-01 2.380828e+01 2.660080e+01 7.806217e+00 9.026031e+00 7.594510e+00
<GCONST> 4.829005e+01
<TRANSP> 7
 0.000000e+00 1.000000e+00 0.000000e+00 0.000000e+00 0.000000e+00 0.000000e+00 0.000000e+00
 0.000000e+00 8.821095e-01 1.178905e-01 0.000000e+00 0.000000e+00 0.000000e+00 0.000000e+00
 0.000000e+00 0.000000e+00 8.045991e-01 1.954009e-01 0.000000e+00 0.000000e+00 0.000000e+00
 0.000000e+00 0.000000e+00 0.000000e+00 6.153842e-01 3.846158e-01 0.000000e+00 0.000000e+00
 0.000000e+00 0.000000e+00 0.000000e+00 0.000000e+00 7.222239e-01 2.777761e-01 0.000000e+00
 0.000000e+00 0.000000e+00 0.000000e+00 0.000000e+00 0.000000e+00 8.599296e-01 1.400704e-01
 0.000000e+00 0.000000e+00 0.000000e+00 0.000000e+00 0.000000e+00 0.000000e+00 0.000000e+00
<ENDHMM>
~h "d"
<BEGINHMM>
<NUMSTATES> 7
<STATE> 2
<SWEIGHTS> 5
 1.000000e+00 0.000000e+00 0.000000e+00 0.000000e+00 0.000000e+00
<STREAM> 1
<MEAN> 180
 3.910660e+00 3.318368e+00 -1.440160e-01 8.236493e-01 5.474277e-01 1.474511e-01 -8.727480e-02 -1.627052e-01 -2.080235e-01 1.164337e-01 -1.270866e-01 6.633811e-02 -3.223639e-01 2.154287e-01 7.940918e-02 -6.407622e-02 5.031617e-02 -9.218732e-02 -2.254222e-03 7.802348e-02 -9.127266e-02 -1.236279e-01 2.065362e-01 -1.212140e-01 4.859603e-03 7.175680e-02 -6.380532e-02 1.235437e-01 -1.406354e-01 1.308404e-01 -9.397406e-02 2.908935e-02 3.334306e-02 -6.720850e-02 4.578934e-02 4.985570e-03 -5.101072e-02 5.451960e-02 -2.659471e-02 -3.375598e-02 8.221254e-02 -7.877395e-02 4.198402e-02 -3.585445e-03 -1.276020e-02 2.878409e-02 -4.379744e-02 3.521676e-02 -1.324209e-02 -1.879963e-02 3.190607e-02 -2.412561e-02 1.435775e-03 1.998489e-02 -7.371457e-03 -1.952142e-02 4.396196e-02 -4.239148e-02 6.858989e-03 4.399656e-02 -1.100440e-01 2.617644e-03 6.954952e-02 2.925949e-02 5.606481e-02 5.515017e-03 6.435274e-04 1.600037e-02 -6.046948e-03 -1.880527e-02 -5.472803e-03 -5.506165e-03 1.812282e-03 5.259347e-04 1.564209e-02 -5.482254e-03 7.659005e-03 -6.498578e-03 -4.452400e-03 5.771356e-03 -6.294515e-03 -3.070123e-03 -3.029737e-03 9.550737e-03 -8.468024e-03 -7.197054e-03 8.086397e-03 -5.584260e-03 -2.129573e-03 5.958329e-03 -4.687503e-03 -3.072699e-03 8.973234e-03 -2.104408e-03 2.067280e-03 -1.295082e-03 6.941396e-04 1.404412e-03 -3.034174e-03 -1.444739e-03 3.735285e-03 2.068253e-03 -2.709382e-03 -1.849739e-03 2.851715e-03 5.867496e-04 -3.070286e-03 1.528298e-03 3.160104e-04 -1.807846e-03 2.305149e-03 -1.668058e-03 -1.481076e-03 3.487540e-03 -2.278043e-03 6.101044e-04 2.429827e-03 -3.768053e-03 1.269997e-03 1.398650e-03 -6.756988e-03 -9.331230e-03 9.715028e-04 -3.536907e-04 -1.014761e-02 1.072239e-03 5.107809e-03 6.356446e-03 1.004803e-02 -5.477220e-03 -6.394086e-04 1.073412e-03 -5.498012e-03 -7.313777e-03 3.534506e-03 1.159264e-02 1.278091e-03 -4.249876e-03 -2.765623e-03 -6.556471e-03 -1.262109e-03 8.592871e-03 1.867496e-03 2.247024e-03 4.716118e-04 -6.267575e-03 -6.833183e-03 -6.804294e-03 1.987295e-03 5.120095e-03 4.117771e-03 1.719181e-03 5.651610e-03 -8.037220e-03 1.616863e-03 5.220356e-03 -4.136486e-03 2.661587e-03 8.327312e-04 -1.848624e-03 -4.687372e-03 1.949544e-03 4.431395e-03 -3.009405e-03 -1.745053e-03 7.381957e-04 -8.942604e-04 -2.873976e-04 5.024487e-03 -7.238261e-03 3.356130e-03 1.077926e-03 4.663715e-04 -2.125392e-03 5.278609e-04 -3.041344e-04 1.300436e-03 -2.361735e-03 3.128602e-03 -2.268377e-03
<VARIANCE> 180
 2.724655e-01 2.086626e-01 1.175922e-01 5.769729e-02 1.516939e-01 6.637477e-03 6.878981e-03 1.847673e-02 1.534679e-02 2.260925e-02 8.068041e-03 4.683925e-03 6.001191e-03 6.612075e-03 8.375677e-03 3.053807e-03 1.319283e-02 9.498743e-03 2.851084e-03 9.899059e-03 1.386703e-02 5.904728e-04 3.442039e-03 3.946260e-03 3.267331e-03 2.422435e-03 4.681039e-03 2.338104e-03 2.951181e-03 1.562942e-03 1.111352e-03 6.207525e-04 2.237922e-03 2.525738e-03 1.253088e-03 6.294285e-04 5.532673e-04 1.102431e-03 1.696211e-03 1.847876e-03 7.063884e-04 6.606762e-04 9.496105e-04 6.117978e-04 8.298381e-04 4.873595e-04 4.360299e-04 5.496514e-04 6.019565e-04 1.486639e-03 1.733763e-03 8.717187e-04 5.969253e-04 7.833954e-04 7.310845e-04 5.834873e-04 6.122972e-04 8.129578e-04 6.390755e-04 5.262249e-04 1.690665e-02 1.380949e-03 5.698325e-03 3.659528e-03 9.844541e-03 1.856254e-03 2.207342e-03 3.153459e-03 3.450105e-03 2.718507e-03 2.458501e-03 1.049445e-03 7.211091e-04 1.674158e-03 2.317044e-03 8.800970e-04 1.645780e-03 1.652098e-03 1.004602e-03 1.621212e-03 1.784659e-03 2.998061e-04 5.714376e-04 7.704214e-04 9.181033e-04 9.814316e-04 3.837541e-04 9.308889e-04 5.258703e-04 2.621212e-04 5.559098e-04 2.490906e-04 2.503077e-04 5.689280e-04 3.966054e-04 2.905156e-04 3.250226e-04 3.333132e-04 5.069378e-04 4.094491e-04 4.577362e-04 2.417499e-04 5.490094e-04 4.531488e-04 3.875746e-04 1.929668e-04 1.806606e-04 1.772936e-04 1.902696e-04 3.368567e-04 4.732731e-04 3.695135e-04 2.975419e-04 4.022464e-04 3.155246e-04 2.276468e-04 3.240527e-04 3.375584e-04 2.134993e-04 2.573511e-04 2.387257e-02 3.367778e-03 1.022540e-02 1.223766e-02 1.124208e-02 5.774994e-03 7.406387e-03 1.184043e-02 1.761808e-02 8.898600e-03 1.290321e-02 5.980609e-03 5.924146e-03 5.910053e-03 6.970118e-03 8.150487e-03 5.809934e-03 7.596690e-03 5.302976e-03 5.037894e-03 5.564437e-03 3.834684e-03 4.027457e-03 3.393818e-03 3.932882e-03 4.816639e-03 4.202882e-03 2.593285e-03 2.443633e-03 2.168538e-03 3.724772e-03 2.295027e-03 1.280738e-03 1.609093e-03 2.398862e-03 3.031762e-03 2.198116e-03 1.150962e-03 5.290245e-03 8.887694e-03 2.731524e-03 2.814594e-03 5.115732e-03 2.033488e-03 3.151201e-03 2.787684e-03 1.830801e-03 2.533263e-03 3.334720e-03 3.265804e-03 2.133877e-03 1.824680e-03 2.447921e-03 2.481402e-03 2.099584e-03 1.893103e-03 2.432218e-03 2.331869e-03 2.084621e-03 2.017277e-03
<GCONST> -7.901292e+02
<STREAM> 2
<NUMMIXES> 2
<MIXTURE> 1 9.500034e-01
<MEAN> 1
 5.353541e+00
<VARIANCE> 1
 1.116437e-03
<GCONST> -4.959736e+00
<MIXTURE> 2 4.999659e-02
<MEAN> 0
<VARIANCE> 0
<GCONST> 0.000000e+00
<STREAM> 3
<NUMMIXES> 2
<MIXTURE> 1 9.500034e-01
<MEAN> 1
 -4.613901e-03
<VARIANCE> 1
 5.246734e-04
<GCONST> -5.714858e+00
<MIXTURE> 2 4.999659e-02
<MEAN> 0
<VARIANCE> 0
<GCONST> 0.000000e+00
<STREAM> 4
<NUMMIXES> 2
<MIXTURE> 1 9.500034e-01
<MEAN> 1
 -7.153045e-04
<VARIANCE> 1
 5.094327e-03
<GCONST> -3.441751e+00
<MIXTURE> 2 4.999659e-02
<MEAN> 0
<VARIANCE> 0
<GCONST> 0.000000e+00
<STREAM> 5
<MEAN> 15
 -1.113375e+01 -3.618845e+00 -3.397626e+00 -2.537554e+00 -2.318537e+00 8.893916e-01 4.001943e-01 1.355869e-01 1.690072e-01 1.860837e-02 2.387984e-02 -7.999149e-03 -9.006923e-02 -2.438960e-02 1.131206e-02
<VARIANCE> 15
 2.011015e+01 5.669474e+00 3.076506e+00 1.265330e+00 1.250574e+00 3.241875e+00 1.142727e+00 1.066233e+00 4.663054e-01 5.049543e-01 1.458712e+01 5.012390e+00 7.702772e+00 5.599283e+00 5.866050e+00
<GCONST> 4.364015e+01
<STATE> 3
<SWEIGHTS> 5
 1.000000e+00 0.000000e+00 0.000000e+00 0.000000e+00 0.000000e+00
<STREAM> 1
<MEAN> 180
 2.933367e+00 2.287026e+00 -5.113737e-02 1.003824e+00 2.302704e-01 1.176707e-01 -1.725586e-01 1.343734e-01 -5.283982e-03 -1.422399e-01 -1.561320e-01 -4.736199e-03 -2.032402e-01 7.242685e-02 1.415741e-01 -3.885534e-02 -4.384779e-02 1.116957e-02 -1.134997e-02 -7.826123e-02 1.570391e-02 -1.047184e-01 7.210663e-02 1.901902e-02 -1.124432e-01 2.715574e-02 3.799492e-02 -1.421347e-03 -1.192660e-01 1.501523e-01 -7.671762e-02 1.218112e-02 6.394876e-02 -2.907323e-02 1.554768e-02 3.409559e-03 -3.595151e-02 2.474959e-02 -1.667278e-02 1.685594e-03 6.540562e-02 -4.477531e-02 3.202500e-02 -2.705475e-02 1.153927e-02 3.000732e-02 -5.023062e-02 9.711186e-03 2.832983e-02 -2.668158e-02 1.530044e-02 -5.831559e-03 -5.900109e-03 2.278531e-02 -3.515784e-02 1.937489e-02 2.336957e-02 -4.425481e-02 1.830561e-02 1.852445e-02 -1.207260e-01 -7.443582e-02 2.606753e-02 -8.270303e-04 -3.147913e-02 5.359047e-02 5.780936e-02 -4.099176e-02 -1.245327e-02 4.335815e-02 1.160908e-02 -3.436642e-02 -1.258266e-02 -7.037943e-02 -7.796345e-02 7.845383e-03 5.853976e-02 2.399044e-02 1.861741e-02 -2.626024e-02 -4.430024e-03 4.173711e-02 -9.057047e-03 -1.453914e-02 2.249883e-02 -6.810329e-03 -1.949139e-02 3.931719e-03 -4.120756e-02 1.442296e-02 6.186187e-02 -1.339444e-02 -7.262428e-03 1.948838e-02 1.276244e-02 4.210168e-03 1.815117e-02 -3.913624e-02 -4.901112e-03 1.887360e-02 -1.316265e-02 -4.361292e-03 -1.069650e-02 3.065357e-02 -2.475631e-02 -4.937190e-03 1.246492e-02 -1.528562e-02 1.072385e-02 1.291153e-02 -1.549745e-02 5.008733e-03 4.882470e-03 -2.101758e-02 1.657429e-02 6.913780e-03 -2.574745e-02 1.863834e-02 5.886021e-03 -1.938935e-02 -2.726210e-02 8.733344e-03 -7.656142e-03 9.632325e-04 6.564266e-02 -1.191061e-02 2.230594e-02 -5.135955e-02 -3.628012e-02 3.845864e-02 -4.685543e-02 -6.887355e-02 2.427022e-03 2.282867e-02 -4.543506e-02 -4.075031e-02 5.938972e-03 1.161838e-03 3.559520e-02 4.021773e-02 -3.152527e-02 3.244137e-03 2.018182e-02 -2.847606e-02 2.100321e-02 4.296603e-02 2.892274e-02 6.720284e-02 -9.240845e-03 -4.716982e-02 1.143381e-03 -2.445217e-02 -2.931360e-02 3.766597e-02 -1.777163e-02 -1.906041e-03 1.722428e-02 -2.177748e-02 -9.562662e-03 1.724280e-02 1.501731e-02 -3.770760e-02 5.003122e-03 2.487177e-02 -6.446719e-03 -1.913926e-02 2.676396e-02 9.770183e-03 -5.167642e-02 6.326342e-02 -2.997408e-02 -1.642709e-02 3.010800e-02 -3.172123e-02 2.138670e-02 1.474479e-02 -5.345912e-02 5.535301e-02 -1.836028e-02 -9.275795e-03
<VARIANCE> 180
